{"learner":{"attributes":{"scikit_learn":"{\"_estimator_type\": \"classifier\"}"},"feature_names":[],"feature_types":[],"gradient_booster":{"model":{"cats":{"enc":[],"feature_segments":[],"sorted_idx":[]},"gbtree_model_param":{"num_parallel_tree":"1","num_trees":"1000"},"iteration_indptr":[0,1,2,3,4,5,6,7,8,9,10,11,12,13,14,15,16,17,18,19,20,21,22,23,24,25,26,27,28,29,30,31,32,33,34,35,36,37,38,39,40,41,42,43,44,45,46,47,48,49,50,51,52,53,54,55,56,57,58,59,60,61,62,63,64,65,66,67,68,69,70,71,72,73,74,75,76,77,78,79,80,81,82,83,84,85,86,87,88,89,90,91,92,93,94,95,96,97,98,99,100,101,102,103,104,105,106,107,108,109,110,111,112,113,114,115,116,117,118,119,120,121,122,123,124,125,126,127,128,129,130,131,132,133,134,135,136,137,138,139,140,141,142,143,144,145,146,147,148,149,150,151,152,153,154,155,156,157,158,159,160,161,162,163,164,165,166,167,168,169,170,171,172,173,174,175,176,177,178,179,180,181,182,183,184,185,186,187,188,189,190,191,192,193,194,195,196,197,198,199,200,201,202,203,204,205,206,207,208,209,210,211,212,213,214,215,216,217,218,219,220,221,222,223,224,225,226,227,228,229,230,231,232,233,234,235,236,237,238,239,240,241,242,243,244,245,246,247,248,249,250,251,252,253,254,255,256,257,258,259,260,261,262,263,264,265,266,267,268,269,270,271,272,273,274,275,276,277,278,279,280,281,282,283,284,285,286,287,288,289,290,291,292,293,294,295,296,297,298,299,300,301,302,303,304,305,306,307,308,309,310,311,312,313,314,315,316,317,318,319,320,321,322,323,324,325,326,327,328,329,330,331,332,333,334,335,336,337,338,339,340,341,342,343,344,345,346,347,348,349,350,351,352,353,354,355,356,357,358,359,360,361,362,363,364,365,366,367,368,369,370,371,372,373,374,375,376,377,378,379,380,381,382,383,384,385,386,387,388,389,390,391,392,393,394,395,396,397,398,399,400,401,402,403,404,405,406,407,408,409,410,411,412,413,414,415,416,417,418,419,420,421,422,423,424,425,426,427,428,429,430,431,432,433,434,435,436,437,438,439,440,441,442,443,444,445,446,447,448,449,450,451,452,453,454,455,456,457,458,459,460,461,462,463,464,465,466,467,468,469,470,471,472,473,474,475,476,477,478,479,480,481,482,483,484,485,486,487,488,489,490,491,492,493,494,495,496,497,498,499,500,501,502,503,504,505,506,507,508,509,510,511,512,513,514,515,516,517,518,519,520,521,522,523,524,525,526,527,528,529,530,531,532,533,534,535,536,537,538,539,540,541,542,543,544,545,546,547,548,549,550,551,552,553,554,555,556,557,558,559,560,561,562,563,564,565,566,567,568,569,570,571,572,573,574,575,576,577,578,579,580,581,582,583,584,585,586,587,588,589,590,591,592,593,594,595,596,597,598,599,600,601,602,603,604,605,606,607,608,609,610,611,612,613,614,615,616,617,618,619,620,621,622,623,624,625,626,627,628,629,630,631,632,633,634,635,636,637,638,639,640,641,642,643,644,645,646,647,648,649,650,651,652,653,654,655,656,657,658,659,660,661,662,663,664,665,666,667,668,669,670,671,672,673,674,675,676,677,678,679,680,681,682,683,684,685,686,687,688,689,690,691,692,693,694,695,696,697,698,699,700,701,702,703,704,705,706,707,708,709,710,711,712,713,714,715,716,717,718,719,720,721,722,723,724,725,726,727,728,729,730,731,732,733,734,735,736,737,738,739,740,741,742,743,744,745,746,747,748,749,750,751,752,753,754,755,756,757,758,759,760,761,762,763,764,765,766,767,768,769,770,771,772,773,774,775,776,777,778,779,780,781,782,783,784,785,786,787,788,789,790,791,792,793,794,795,796,797,798,799,800,801,802,803,804,805,806,807,808,809,810,811,812,813,814,815,816,817,818,819,820,821,822,823,824,825,826,827,828,829,830,831,832,833,834,835,836,837,838,839,840,841,842,843,844,845,846,847,848,849,850,851,852,853,854,855,856,857,858,859,860,861,862,863,864,865,866,867,868,869,870,871,872,873,874,875,876,877,878,879,880,881,882,883,884,885,886,887,888,889,890,891,892,893,894,895,896,897,898,899,900,901,902,903,904,905,906,907,908,909,910,911,912,913,914,915,916,917,918,919,920,921,922,923,924,925,926,927,928,929,930,931,932,933,934,935,936,937,938,939,940,941,942,943,944,945,946,947,948,949,950,951,952,953,954,955,956,957,958,959,960,961,962,963,964,965,966,967,968,969,970,971,972,973,974,975,976,977,978,979,980,981,982,983,984,985,986,987,988,989,990,991,992,993,994,995,996,997,998,999,1000],"tree_info":[0,0,0,0,0,0,0,0,0,0,0,0,0,0,0,0,0,0,0,0,0,0,0,0,0,0,0,0,0,0,0,0,0,0,0,0,0,0,0,0,0,0,0,0,0,0,0,0,0,0,0,0,0,0,0,0,0,0,0,0,0,0,0,0,0,0,0,0,0,0,0,0,0,0,0,0,0,0,0,0,0,0,0,0,0,0,0,0,0,0,0,0,0,0,0,0,0,0,0,0,0,0,0,0,0,0,0,0,0,0,0,0,0,0,0,0,0,0,0,0,0,0,0,0,0,0,0,0,0,0,0,0,0,0,0,0,0,0,0,0,0,0,0,0,0,0,0,0,0,0,0,0,0,0,0,0,0,0,0,0,0,0,0,0,0,0,0,0,0,0,0,0,0,0,0,0,0,0,0,0,0,0,0,0,0,0,0,0,0,0,0,0,0,0,0,0,0,0,0,0,0,0,0,0,0,0,0,0,0,0,0,0,0,0,0,0,0,0,0,0,0,0,0,0,0,0,0,0,0,0,0,0,0,0,0,0,0,0,0,0,0,0,0,0,0,0,0,0,0,0,0,0,0,0,0,0,0,0,0,0,0,0,0,0,0,0,0,0,0,0,0,0,0,0,0,0,0,0,0,0,0,0,0,0,0,0,0,0,0,0,0,0,0,0,0,0,0,0,0,0,0,0,0,0,0,0,0,0,0,0,0,0,0,0,0,0,0,0,0,0,0,0,0,0,0,0,0,0,0,0,0,0,0,0,0,0,0,0,0,0,0,0,0,0,0,0,0,0,0,0,0,0,0,0,0,0,0,0,0,0,0,0,0,0,0,0,0,0,0,0,0,0,0,0,0,0,0,0,0,0,0,0,0,0,0,0,0,0,0,0,0,0,0,0,0,0,0,0,0,0,0,0,0,0,0,0,0,0,0,0,0,0,0,0,0,0,0,0,0,0,0,0,0,0,0,0,0,0,0,0,0,0,0,0,0,0,0,0,0,0,0,0,0,0,0,0,0,0,0,0,0,0,0,0,0,0,0,0,0,0,0,0,0,0,0,0,0,0,0,0,0,0,0,0,0,0,0,0,0,0,0,0,0,0,0,0,0,0,0,0,0,0,0,0,0,0,0,0,0,0,0,0,0,0,0,0,0,0,0,0,0,0,0,0,0,0,0,0,0,0,0,0,0,0,0,0,0,0,0,0,0,0,0,0,0,0,0,0,0,0,0,0,0,0,0,0,0,0,0,0,0,0,0,0,0,0,0,0,0,0,0,0,0,0,0,0,0,0,0,0,0,0,0,0,0,0,0,0,0,0,0,0,0,0,0,0,0,0,0,0,0,0,0,0,0,0,0,0,0,0,0,0,0,0,0,0,0,0,0,0,0,0,0,0,0,0,0,0,0,0,0,0,0,0,0,0,0,0,0,0,0,0,0,0,0,0,0,0,0,0,0,0,0,0,0,0,0,0,0,0,0,0,0,0,0,0,0,0,0,0,0,0,0,0,0,0,0,0,0,0,0,0,0,0,0,0,0,0,0,0,0,0,0,0,0,0,0,0,0,0,0,0,0,0,0,0,0,0,0,0,0,0,0,0,0,0,0,0,0,0,0,0,0,0,0,0,0,0,0,0,0,0,0,0,0,0,0,0,0,0,0,0,0,0,0,0,0,0,0,0,0,0,0,0,0,0,0,0,0,0,0,0,0,0,0,0,0,0,0,0,0,0,0,0,0,0,0,0,0,0,0,0,0,0,0,0,0,0,0,0,0,0,0,0,0,0,0,0,0,0,0,0,0,0,0,0,0,0,0,0,0,0,0,0,0,0,0,0,0,0,0,0,0,0,0,0,0,0,0,0,0,0,0,0,0,0,0,0,0,0,0,0,0,0,0,0,0,0,0,0,0,0,0,0,0,0,0,0,0,0,0,0,0,0,0,0,0,0,0,0,0,0,0,0,0,0,0,0,0,0,0,0,0,0,0,0,0,0,0,0,0,0,0,0,0,0,0,0,0,0,0,0,0,0,0,0,0,0,0,0,0,0,0,0,0,0,0,0,0,0,0,0,0,0,0,0,0,0,0,0,0,0,0,0,0,0,0,0,0,0,0,0,0,0,0,0,0,0,0,0,0,0,0,0,0,0,0,0,0,0,0,0,0,0,0,0,0,0,0,0,0,0,0,0,0,0,0,0,0,0,0,0,0,0,0,0,0,0,0,0,0,0,0,0,0,0,0,0,0,0,0,0,0,0,0,0,0,0,0,0],"trees":[{"base_weights":[2.9741412E-2,-1.5608746E-2,2.6848549E-2],"categories":[],"categories_nodes":[],"categories_segments":[],"categories_sizes":[],"default_left":[0,0,0],"id":0,"left_children":[1,-1,-1],"loss_changes":[3.1369275E3,0E0,0E0],"parents":[2147483647,0,0],"right_children":[2,-1,-1],"split_conditions":[1.2735458E-1,-1.5608746E-2,2.6848549E-2],"split_indices":[1,0,0],"split_type":[0,0,0],"sum_hessian":[7.407806E2,4.63513E2,2.7726758E2],"tree_param":{"num_deleted":"0","num_feature":"37","num_nodes":"3","size_leaf_vector":"1"}},{"base_weights":[2.53574E-3,-1.5497562E-2,2.6400037E-2],"categories":[],"categories_nodes":[],"categories_segments":[],"categories_sizes":[],"default_left":[0,0,0],"id":1,"left_children":[1,-1,-1],"loss_changes":[3.035997E3,0E0,0E0],"parents":[2147483647,0,0],"right_children":[2,-1,-1],"split_conditions":[1.2735458E-1,-1.5497562E-2,2.6400037E-2],"split_indices":[1,0,0],"split_type":[0,0,0],"sum_hessian":[7.395513E2,4.6580963E2,2.7374164E2],"tree_param":{"num_deleted":"0","num_feature":"37","num_nodes":"3","size_leaf_vector":"1"}},{"base_weights":[7.4920966E-3,-1.347771E-1,8.718223E-1,-5.420741E-1,-8.512555E-2,-1.9870059E-1,1.6602932E0,-7.673112E-1,1.9391203E-1,5.9080034E-1,-1.0692616E-1,8.5129976E-1,-9.91422E-1,2.4788236E-2,1.2194386E0,-8.6573464E-1,-5.1300578E-2,-1.2205326E-2,6.433094E-1,1.0301286E0,-6.0477782E-2,-2.756401E-1,-1.3899201E-2,1.9568501E-2,-2.0325533E-1,-1.4696523E-2,-3.0730402E-1,-4.2501068E-1,1.8027416E0,-4.528723E-4,-9.2597204E-1,-7.3729507E-3,6.4188605E-3,1.0522254E0,-5.060855E-3,3.113936E-3,1.3307226E0,5.293636E-3,-7.3729507E-3,-1.2156445E-1,-4.9195996E-1,1.3324009E-1,-2.561668E-1,-9.051256E-3,7.0952517E-3,1.9668303E-2,-1.2909251E-2,7.8837415E-3,-1.348064E-2,2.2698568E-2,1.1959362E0,-4.528723E-4,-9.959331E-3,-4.528723E-4,1.5617412E-2,5.270041E-3,1.7765682E-2,-1.8962581E-3,1.6057204E-2,-2.3422083E-3,-9.643229E-3,2.5477689E-3,-3.7041097E-3,5.884454E-3,-3.131032E-3,-3.6853328E-3,2.2307605E-2],"categories":[],"categories_nodes":[],"categories_segments":[],"categories_sizes":[],"default_left":[0,0,0,0,0,0,0,0,0,0,0,0,0,0,0,0,0,0,0,0,0,0,0,0,0,0,0,0,0,0,0,0,0,0,0,0,0,0,0,0,0,0,0,0,0,0,0,0,0,0,0,0,0,0,0,0,0,0,0,0,0,0,0,0,0,0,0],"id":2,"left_children":[1,3,5,7,9,11,13,15,17,19,21,23,25,-1,27,29,31,-1,33,35,37,39,41,-1,43,-1,45,47,49,-1,51,-1,-1,53,-1,-1,55,-1,-1,57,59,61,63,-1,-1,-1,-1,-1,-1,-1,65,-1,-1,-1,-1,-1,-1,-1,-1,-1,-1,-1,-1,-1,-1,-1,-1],"loss_changes":[9.202007E1,1.2949264E1,8.960353E1,1.1692909E1,8.520944E0,3.8926094E1,1.8993881E1,3.7274342E0,1.1665097E1,5.2374463E0,8.736399E0,2.397166E1,8.228722E0,0E0,4.069169E1,2.2804604E0,4.054475E0,0E0,6.9453464E0,1.931139E0,3.6760464E0,6.535184E0,1.2867442E1,0E0,7.852538E0,0E0,2.9785524E1,1.4175542E1,6.0483627E0,0E0,2.649006E0,0E0,0E0,5.8800116E0,0E0,0E0,1.6973162E0,0E0,0E0,1.4046238E1,9.755114E0,1.3844846E1,6.742344E0,0E0,0E0,0E0,0E0,0E0,0E0,0E0,2.6014187E1,0E0,0E0,0E0,0E0,0E0,0E0,0E0,0E0,0E0,0E0,0E0,0E0,0E0,0E0,0E0,0E0],"parents":[2147483647,0,0,1,1,2,2,3,3,4,4,5,5,6,6,7,7,8,8,9,9,10,10,11,11,12,12,14,14,15,15,16,16,18,18,19,19,20,20,21,21,22,22,24,24,26,26,27,27,28,28,30,30,33,33,36,36,39,39,40,40,41,41,42,42,50,50],"right_children":[2,4,6,8,10,12,14,16,18,20,22,24,26,-1,28,30,32,-1,34,36,38,40,42,-1,44,-1,46,48,50,-1,52,-1,-1,54,-1,-1,56,-1,-1,58,60,62,64,-1,-1,-1,-1,-1,-1,-1,66,-1,-1,-1,-1,-1,-1,-1,-1,-1,-1,-1,-1,-1,-1,-1,-1],"split_conditions":[7.0710677E-1,-1.004272E0,-3.174496E-1,7.7767307E-1,-2.4393766E0,-1.4176E0,1.141342E-1,2.8962973E-1,-7.0507586E-1,7.796249E-1,-1.9082546E-1,2.2366199E-1,-9.665859E-1,2.4788236E-2,1.0199136E0,-1.2534392E0,-6.5038013E-1,-1.2205326E-2,1.177019E-1,-1.1928595E0,5.026472E-1,-4.635892E-2,5.0128204E-1,1.9568501E-2,4.042433E-1,-1.4696523E-2,-6.2154317E-1,7.252239E-1,1.7739476E0,-4.528723E-4,-7.458481E-1,-7.3729507E-3,6.4188605E-3,-1.1337904E0,-5.060855E-3,3.113936E-3,7.367983E-1,5.293636E-3,-7.3729507E-3,-7.067128E-2,-5.873683E-3,7.8881913E-1,-2.027036E-1,-9.051256E-3,7.0952517E-3,1.9668303E-2,-1.2909251E-2,7.8837415E-3,-1.348064E-2,2.2698568E-2,2.9331243E0,-4.528723E-4,-9.959331E-3,-4.528723E-4,1.5617412E-2,5.270041E-3,1.7765682E-2,-1.8962581E-3,1.6057204E-2,-2.3422083E-3,-9.643229E-3,2.5477689E-3,-3.7041097E-3,5.884454E-3,-3.131032E-3,-3.6853328E-3,2.2307605E-2],"split_indices":[31,30,0,29,4,3,3,2,6,27,18,12,0,0,0,4,21,0,7,20,0,3,14,0,27,0,3,3,3,0,12,0,0,21,0,0,12,0,0,0,4,6,30,0,0,0,0,0,0,0,0,0,0,0,0,0,0,0,0,0,0,0,0,0,0,0,0],"split_type":[0,0,0,0,0,0,0,0,0,0,0,0,0,0,0,0,0,0,0,0,0,0,0,0,0,0,0,0,0,0,0,0,0,0,0,0,0,0,0,0,0,0,0,0,0,0,0,0,0,0,0,0,0,0,0,0,0,0,0,0,0,0,0,0,0,0,0],"sum_hessian":[7.463725E2,6.416076E2,1.04764885E2,6.863879E1,5.729688E2,4.475208E1,6.0012806E1,5.2522522E1,1.6116266E1,1.708702E1,5.5588184E2,1.922013E1,2.5531948E1,1.9389591E1,4.062321E1,4.59914E1,6.5311213E0,3.472114E0,1.2644152E1,9.856492E0,7.2305284E0,1.968717E2,3.590101E2,8.965484E0,1.0254646E1,1.4351405E1,1.1180544E1,1.0707626E1,2.9915586E1,3.2655606E0,4.272584E1,3.2506082E0,3.2805133E0,9.388559E0,3.2555923E0,3.5070033E0,6.3494887E0,3.9799201E0,3.2506082E0,1.1589002E2,8.098169E1,2.2363637E2,1.3537373E2,5.8018093E0,4.452837E0,3.0739596E0,8.106584E0,4.6892953E0,6.0183315E0,1.5354846E1,1.45607395E1,3.2655606E0,3.9460278E1,3.2655606E0,6.1229987E0,3.0440547E0,3.305434E0,1.1235312E2,3.5369081E0,5.3361485E1,2.7620201E1,1.8055943E2,4.3076935E1,7.9598403E0,1.27413895E2,6.0532203E0,8.50752E0],"tree_param":{"num_deleted":"0","num_feature":"37","num_nodes":"67","size_leaf_vector":"1"}},{"base_weights":[3.5822422E-3,-1.5415581E-2,2.5902875E-2],"categories":[],"categories_nodes":[],"categories_segments":[],"categories_sizes":[],"default_left":[0,0,0],"id":3,"left_children":[1,-1,-1],"loss_changes":[2.990785E3,0E0,0E0],"parents":[2147483647,0,0],"right_children":[2,-1,-1],"split_conditions":[1.2735458E-1,-1.5415581E-2,2.5902875E-2],"split_indices":[1,0,0],"split_type":[0,0,0],"sum_hessian":[7.462915E2,4.6746213E2,2.7882938E2],"tree_param":{"num_deleted":"0","num_feature":"37","num_nodes":"3","size_leaf_vector":"1"}},{"base_weights":[4.7972612E-2,-1.5256944E-2,2.5499752E-2],"categories":[],"categories_nodes":[],"categories_segments":[],"categories_sizes":[],"default_left":[0,0,0],"id":4,"left_children":[1,-1,-1],"loss_changes":[2.9429346E3,0E0,0E0],"parents":[2147483647,0,0],"right_children":[2,-1,-1],"split_conditions":[1.2735458E-1,-1.5256944E-2,2.5499752E-2],"split_indices":[1,0,0],"split_type":[0,0,0],"sum_hessian":[7.454581E2,4.5786694E2,2.8759116E2],"tree_param":{"num_deleted":"0","num_feature":"37","num_nodes":"3","size_leaf_vector":"1"}},{"base_weights":[3.071821E-2,-1.0666446E-1,8.121422E-1,-6.6067E-1,-7.795722E-2,-1.4617792E-1,1.4939882E0,-3.904582E-1,-1.2003133E-2,-2.3401345E-1,3.358731E-2,5.3563076E-1,-1.34790465E-2,2.1737898E-2,7.364068E-1,7.2892145E-3,-6.3925654E-1,-1.80337E-1,-8.4618723E-1,5.7107236E-2,-9.1993827E-1,-3.9433396E-1,1.7154124E0,-1.1711731E-2,1.4335346E0,-8.7631243E-1,3.0699351E-3,-4.0705618E-1,1.8667065E-2,-1.0561843E0,1.8286508E-3,2.0372458E-1,-6.7202516E-2,-4.9805767E-3,-1.2037883E-2,3.3159837E-1,-1.1641804E-2,2.0904306E-2,9.570536E-3,1.8792533E0,6.8803525E-1,-5.679217E-4,-1.1570439E-2,-4.8159263E-3,8.622515E-4,-9.3900523E-4,4.38686E-3,-2.6872957E-3,-1.2240824E-2,-1.8706174E-3,3.1820368E-3,-1.7319386E-3,2.8816923E-3,-6.364988E-3,1.9004775E-2,1.0241377E-2,2.1587076E-2,-9.863686E-3,1.6265253E-2],"categories":[],"categories_nodes":[],"categories_segments":[],"categories_sizes":[],"default_left":[0,0,0,0,0,0,0,0,0,0,0,0,0,0,0,0,0,0,0,0,0,0,0,0,0,0,0,0,0,0,0,0,0,0,0,0,0,0,0,0,0,0,0,0,0,0,0,0,0,0,0,0,0,0,0,0,0,0,0],"id":5,"left_children":[1,3,5,7,9,11,13,15,-1,17,19,21,-1,-1,23,-1,25,27,29,31,33,35,37,-1,39,41,-1,43,45,47,-1,49,51,-1,-1,53,-1,-1,-1,55,57,-1,-1,-1,-1,-1,-1,-1,-1,-1,-1,-1,-1,-1,-1,-1,-1,-1,-1],"loss_changes":[8.049102E1,1.0093014E1,7.3469765E1,4.094019E0,1.0583975E1,3.9652668E1,3.217798E1,6.6855073E0,0E0,8.1733055E0,8.018333E0,3.472172E1,0E0,0E0,4.4941284E1,0E0,4.4870276E0,1.0575383E1,4.5485954E0,6.348699E0,4.3135118E-1,1.0537954E1,1.9425201E0,0E0,6.773163E0,3.4534512E0,0E0,4.0687466E0,5.984021E0,1.9036789E0,0E0,7.2053084E0,7.163281E0,0E0,0E0,1.6591919E1,0E0,0E0,0E0,1.2815285E0,1.8356487E1,0E0,0E0,0E0,0E0,0E0,0E0,0E0,0E0,0E0,0E0,0E0,0E0,0E0,0E0,0E0,0E0,0E0,0E0],"parents":[2147483647,0,0,1,1,2,2,3,3,4,4,5,5,6,6,7,7,9,9,10,10,11,11,14,14,16,16,17,17,18,18,19,19,20,20,21,21,22,22,24,24,25,25,27,27,28,28,29,29,31,31,32,32,35,35,39,39,40,40],"right_children":[2,4,6,8,10,12,14,16,-1,18,20,22,-1,-1,24,-1,26,28,30,32,34,36,38,-1,40,42,-1,44,46,48,-1,50,52,-1,-1,54,-1,-1,-1,56,58,-1,-1,-1,-1,-1,-1,-1,-1,-1,-1,-1,-1,-1,-1,-1,-1,-1,-1],"split_conditions":[1E0,-2.0070739E0,-3.174496E-1,5.453415E-1,-1.959538E-1,-7.573306E-1,8.0997163E-1,-9.54411E-1,-1.2003133E-2,1.0975373E0,3.7380936E0,-1.6947517E0,-1.34790465E-2,2.1737898E-2,1.1522799E0,7.2892145E-3,3.1923136E-1,-1.12867415E-1,1.0497092E0,1.0914589E-1,5.1194353E0,-2.3443906E0,-1.3599325E0,-1.1711731E-2,2.593282E0,-9.712534E-1,3.0699351E-3,2.0013021E-1,5.987825E-1,2.1130443E-1,1.8286508E-3,-4.973747E-1,7.2097653E-1,-4.9805767E-3,-1.2037883E-2,-2.7936833E0,-1.1641804E-2,2.0904306E-2,9.570536E-3,1.9008852E0,3.1922588E0,-5.679217E-4,-1.1570439E-2,-4.8159263E-3,8.622515E-4,-9.3900523E-4,4.38686E-3,-2.6872957E-3,-1.2240824E-2,-1.8706174E-3,3.1820368E-3,-1.7319386E-3,2.8816923E-3,-6.364988E-3,1.9004775E-2,1.0241377E-2,2.1587076E-2,-9.863686E-3,1.6265253E-2],"split_indices":[35,5,0,29,27,3,3,25,0,6,5,0,0,0,0,0,2,6,19,26,5,3,3,0,3,23,0,2,25,17,0,25,5,0,0,0,0,0,0,0,0,0,0,0,0,0,0,0,0,0,0,0,0,0,0,0,0,0,0],"split_type":[0,0,0,0,0,0,0,0,0,0,0,0,0,0,0,0,0,0,0,0,0,0,0,0,0,0,0,0,0,0,0,0,0,0,0,0,0,0,0,0,0,0,0,0,0,0,0,0,0,0,0,0,0,0,0,0,0,0,0],"sum_hessian":[7.479643E2,6.3686084E2,1.11103424E2,3.029031E1,6.0657056E2,4.6514244E1,6.458917E1,2.133229E1,8.958018E0,2.5238028E2,3.5419025E2,3.00305E1,1.6483746E1,3.3056847E1,3.1532328E1,3.5282803E0,1.780401E1,2.3322528E2,1.9155012E1,3.4658148E2,7.608765E0,1.7165514E1,1.2864986E1,8.257363E0,2.3274963E1,1.4296373E1,3.5076377E0,1.085323E2,1.2469297E2,1.5886677E1,3.2683349E0,1.5872922E2,1.8785228E2,4.1682415E0,3.4405236E0,9.127725E0,8.037788E0,7.432833E0,5.4321527E0,1.3614399E1,9.660565E0,3.9545176E0,1.0341855E1,9.430604E1,1.4226262E1,9.895017E1,2.5742802E1,3.2490318E0,1.2637645E1,3.5819977E1,1.2290923E2,1.4509087E2,4.2761414E1,6.0121484E0,3.1155765E0,4.5023184E0,9.112081E0,3.4515238E0,6.2090416E0],"tree_param":{"num_deleted":"0","num_feature":"37","num_nodes":"59","size_leaf_vector":"1"}},{"base_weights":[3.5764072E-2,-1.4205153E-1,4.6489403E-1,-3.2983863E-1,2.2652922E-2,2.1059251E-1,1.6096627E0,-1.001383E0,-2.612726E-1,1.6744871E-1,-2.2716708E-1,3.3544177E-1,-1.1817673E0,2.218169E-2,1.0810165E0,-1.8161049E-3,-1.1922549E0,-1.5638101E-1,-6.0449487E-1,-1.8024479E-1,3.2052886E-1,-6.057554E-1,1.8997123E-2,1.5930994E-1,1.2980049E0,-1.3336855E-2,-4.3275426E-3,-6.395356E-3,1.7268214E0,-5.7933372E-3,-1.3606512E-2,-2.0201357E-1,1.3362282E-2,-7.894709E-1,3.50221E-2,-4.62539E-1,2.2236659E-1,8.4096205E-1,1.7040156E-1,-8.954941E-1,-8.355489E-2,-1.6438414E-1,5.544408E-1,9.015185E-1,-5.1376894E-3,2.250226E-2,4.9308658E-1,6.131505E-3,1.9500399E-2,-1.5847695E-3,-1.095986E-2,-9.280745E-3,5.1928363E-3,-9.009306E-3,6.3876477E-3,-9.871854E-3,-2.7202797E-4,-6.2975415E-4,6.8849167E-3,4.354574E-3,1.2584857E-2,8.278389E-3,7.278708E-4,-3.5438281E-3,-1.2589727E-2,9.375202E-3,-6.089375E-3,7.5382856E-4,-7.8765005E-3,-7.262761E-3,9.21961E-3,1.893933E-2,-2.6824945E-3,-1.4222388E-2,1.6935153E-3,9.16834E-3,-4.9597877E-3],"categories":[],"categories_nodes":[],"categories_segments":[],"categories_sizes":[],"default_left":[0,0,0,0,0,0,0,0,0,0,0,0,0,0,0,0,0,0,0,0,0,0,0,0,0,0,0,0,0,0,0,0,0,0,0,0,0,0,0,0,0,0,0,0,0,0,0,0,0,0,0,0,0,0,0,0,0,0,0,0,0,0,0,0,0,0,0,0,0,0,0,0,0,0,0,0,0],"id":6,"left_children":[1,3,5,7,9,11,13,15,17,19,21,23,25,-1,27,-1,29,31,33,35,37,39,41,43,45,-1,-1,-1,47,-1,-1,49,-1,51,53,55,57,59,61,63,65,67,69,71,73,-1,75,-1,-1,-1,-1,-1,-1,-1,-1,-1,-1,-1,-1,-1,-1,-1,-1,-1,-1,-1,-1,-1,-1,-1,-1,-1,-1,-1,-1,-1,-1],"loss_changes":[5.6685955E1,1.6257511E1,6.3013645E1,1.1045097E1,1.0196617E1,3.15502E1,1.0278114E1,3.287838E0,7.9755363E0,9.551176E0,9.654416E0,2.7808714E1,1.1260815E0,0E0,2.6701525E1,0E0,1.068203E0,1.2055983E1,6.1933517E0,6.3724623E0,9.560606E0,6.098238E0,6.342988E0,1.7193066E1,1.837397E1,0E0,0E0,0E0,3.0353813E0,0E0,0E0,6.3951473E0,0E0,7.823168E0,7.724243E0,7.453566E0,3.157251E0,4.116787E0,6.206338E0,4.694624E0,8.972948E0,7.262139E0,8.422736E0,3.0167078E1,2.899268E1,0E0,6.764991E0,0E0,0E0,0E0,0E0,0E0,0E0,0E0,0E0,0E0,0E0,0E0,0E0,0E0,0E0,0E0,0E0,0E0,0E0,0E0,0E0,0E0,0E0,0E0,0E0,0E0,0E0,0E0,0E0,0E0,0E0],"parents":[2147483647,0,0,1,1,2,2,3,3,4,4,5,5,6,6,7,7,8,8,9,9,10,10,11,11,12,12,14,14,16,16,17,17,18,18,19,19,20,20,21,21,22,22,23,23,24,24,28,28,31,31,33,33,34,34,35,35,36,36,37,37,38,38,39,39,40,40,41,41,42,42,43,43,44,44,46,46],"right_children":[2,4,6,8,10,12,14,16,18,20,22,24,26,-1,28,-1,30,32,34,36,38,40,42,44,46,-1,-1,-1,48,-1,-1,50,-1,52,54,56,58,60,62,64,66,68,70,72,74,-1,76,-1,-1,-1,-1,-1,-1,-1,-1,-1,-1,-1,-1,-1,-1,-1,-1,-1,-1,-1,-1,-1,-1,-1,-1,-1,-1,-1,-1,-1,-1],"split_conditions":[6.140144E-1,-6.864341E-2,9.206008E-1,-1.2132794E0,5.5463946E-1,6.3751656E-1,1.2571385E0,-3.7286982E-1,5.623483E-1,-7.484014E-1,1.1109264E0,2.6684016E-1,6.190973E-1,2.218169E-2,1.9008852E0,-1.8161049E-3,-1.0105226E0,7.4878836E-1,5.859837E-1,5.931403E-1,-4.4304037E-1,4.860765E-1,1.1921649E0,-1.4176E0,2.906975E-1,-1.3336855E-2,-4.3275426E-3,-6.395356E-3,-3.095145E-1,-5.7933372E-3,-1.3606512E-2,1.6244463E0,1.3362282E-2,2.4781373E0,2.8872982E-2,-3.004229E-1,4.4532406E-1,-8.494987E-1,-5.259838E-1,-3.985507E-1,8.057445E-1,4.4459832E-1,-1.4887121E-2,2.4588114E-1,-9.665859E-1,2.250226E-2,7.8561276E-1,6.131505E-3,1.9500399E-2,-1.5847695E-3,-1.095986E-2,-9.280745E-3,5.1928363E-3,-9.009306E-3,6.3876477E-3,-9.871854E-3,-2.7202797E-4,-6.2975415E-4,6.8849167E-3,4.354574E-3,1.2584857E-2,8.278389E-3,7.278708E-4,-3.5438281E-3,-1.2589727E-2,9.375202E-3,-6.089375E-3,7.5382856E-4,-7.8765005E-3,-7.262761E-3,9.21961E-3,1.893933E-2,-2.6824945E-3,-1.4222388E-2,1.6935153E-3,9.16834E-3,-4.9597877E-3],"split_indices":[32,2,0,5,29,3,3,28,17,0,28,0,8,0,0,0,11,15,7,2,22,16,0,3,3,0,0,0,26,0,0,28,0,5,6,14,6,21,3,17,18,5,11,12,0,0,7,0,0,0,0,0,0,0,0,0,0,0,0,0,0,0,0,0,0,0,0,0,0,0,0,0,0,0,0,0,0],"split_type":[0,0,0,0,0,0,0,0,0,0,0,0,0,0,0,0,0,0,0,0,0,0,0,0,0,0,0,0,0,0,0,0,0,0,0,0,0,0,0,0,0,0,0,0,0,0,0,0,0,0,0,0,0,0,0,0,0,0,0,0,0,0,0,0,0,0,0,0,0,0,0,0,0,0,0,0,0],"sum_hessian":[7.4101135E2,5.243917E2,2.166196E2,2.445577E2,2.7983405E2,1.7821457E2,3.840503E1,2.1396177E1,2.2316151E2,1.773637E2,1.0247037E2,1.6424612E2,1.3968437E1,1.6368204E1,2.2036823E1,4.409476E0,1.6986702E1,1.7204022E2,5.1121304E1,5.416358E1,1.2320011E2,3.979967E1,6.2670692E1,1.3982597E2,2.442015E1,1.09640665E1,3.0043705E0,6.016741E0,1.6020082E1,4.6181345E0,1.2368567E1,1.6777557E2,4.264635E0,3.9470303E1,1.1651002E1,3.1751745E1,2.2411839E1,2.6552214E1,9.6647896E1,2.513749E1,1.4662183E1,4.7198814E1,1.5471878E1,2.4548424E1,1.1527756E2,1.0363957E1,1.4056193E1,3.3004584E0,1.27196245E1,1.6110692E2,6.6686635E0,3.5953518E1,3.5167837E0,4.375553E0,7.2754483E0,1.3824035E1,1.792771E1,1.4438251E1,7.973588E0,1.4506377E1,1.2045837E1,1.15276985E1,8.51202E1,1.0894219E1,1.4243271E1,4.714722E0,9.94746E0,3.4720917E1,1.2477896E1,3.2322247E0,1.2239654E1,1.2946083E1,1.160234E1,1.1854144E1,1.0342341E2,9.891419E0,4.1647735E0],"tree_param":{"num_deleted":"0","num_feature":"37","num_nodes":"77","size_leaf_vector":"1"}},{"base_weights":[1.2015634E-2,-1.5217551E-2,2.4978591E-2],"categories":[],"categories_nodes":[],"categories_segments":[],"categories_sizes":[],"default_left":[0,0,0],"id":7,"left_children":[1,-1,-1],"loss_changes":[2.8681648E3,0E0,0E0],"parents":[2147483647,0,0],"right_children":[2,-1,-1],"split_conditions":[1.2735458E-1,-1.5217551E-2,2.4978591E-2],"split_indices":[1,0,0],"split_type":[0,0,0],"sum_hessian":[7.502663E2,4.6422583E2,2.8604047E2],"tree_param":{"num_deleted":"0","num_feature":"37","num_nodes":"3","size_leaf_vector":"1"}},{"base_weights":[-1.6096838E-2,-1.5201481E-2,2.4613151E-2],"categories":[],"categories_nodes":[],"categories_segments":[],"categories_sizes":[],"default_left":[0,0,0],"id":8,"left_children":[1,-1,-1],"loss_changes":[2.7997397E3,0E0,0E0],"parents":[2147483647,0,0],"right_children":[2,-1,-1],"split_conditions":[1.2735458E-1,-1.5201481E-2,2.4613151E-2],"split_indices":[1,0,0],"split_type":[0,0,0],"sum_hessian":[7.493709E2,4.6652643E2,2.828445E2],"tree_param":{"num_deleted":"0","num_feature":"37","num_nodes":"3","size_leaf_vector":"1"}},{"base_weights":[-9.749725E-3,-1.5051565E0,2.4253318E-2,-1.509276E-2,-8.09282E-3],"categories":[],"categories_nodes":[],"categories_segments":[],"categories_sizes":[],"default_left":[0,0,0,0,0],"id":9,"left_children":[1,3,-1,-1,-1],"loss_changes":[2.7036104E3,9.716797E-2,0E0,0E0,0E0],"parents":[2147483647,0,0,1,1],"right_children":[2,4,-1,-1,-1],"split_conditions":[1.2735458E-1,4.2616234E0,2.4253318E-2,-1.509276E-2,-8.09282E-3],"split_indices":[1,7,0,0,0],"split_type":[0,0,0,0,0],"sum_hessian":[7.4045447E2,4.5897528E2,2.8147922E2,4.5511212E2,3.8631706E0],"tree_param":{"num_deleted":"0","num_feature":"37","num_nodes":"5","size_leaf_vector":"1"}},{"base_weights":[-1.5099966E-2,-1.632847E-1,8.5611117E-1,-4.7990066E-1,-1.2283347E-1,-2.4288264E-1,1.5223489E0,-6.5768087E-1,1.1194728E-1,-4.8910074E-2,-3.2338247E-1,6.973968E-1,-1.0649899E0,1.9424721E0,9.7114336E-1,-7.4510616E-1,1.9447815E-3,-3.2535154E-1,1.2325289E-2,-2.4711241E-1,1.2821802E-1,-3.610349E-1,1.0327909E-2,1.6775318E0,-3.0619138E-1,-1.4067821E-2,-3.7612444E-1,1.2483349E0,2.2068806E-2,-1.2559454E-2,1.4408907E0,-3.7583822E-1,-9.533334E-1,2.3496266E-1,-1.0928424E-2,-1.4598726E-1,-5.718841E-1,2.3249467E-1,-2.6546615E-1,-4.421764E-1,1.2910663E-1,1.976051E-2,9.366033E-3,-9.24647E-1,8.190117E-3,8.060747E-3,-1.2390009E-2,1.9124975E-2,-5.0057084E-3,1.834659E0,6.5469176E-1,-8.092829E-3,2.0987901E-3,-1.0987474E-2,-4.223573E-3,9.7819865E-3,-5.8128415E-3,4.5069093E-3,-2.500347E-3,-9.105617E-3,-1.2568859E-3,-2.5709078E-3,3.6493216E-3,4.2996067E-3,-4.840622E-3,6.7986464E-3,-4.8443154E-3,3.5346497E-3,-6.6757393E-3,-1.1555054E-2,-4.764606E-3,1.0320459E-2,2.0684684E-2,-3.8854098E-3,1.8629579E-2],"categories":[],"categories_nodes":[],"categories_segments":[],"categories_sizes":[],"default_left":[0,0,0,0,0,0,0,0,0,0,0,0,0,0,0,0,0,0,0,0,0,0,0,0,0,0,0,0,0,0,0,0,0,0,0,0,0,0,0,0,0,0,0,0,0,0,0,0,0,0,0,0,0,0,0,0,0,0,0,0,0,0,0,0,0,0,0,0,0,0,0,0,0,0,0],"id":10,"left_children":[1,3,5,7,9,11,13,15,17,19,21,23,25,27,29,31,-1,33,-1,35,37,39,-1,41,43,-1,45,47,-1,-1,49,51,53,55,-1,57,59,61,63,65,67,-1,-1,69,-1,-1,-1,-1,-1,71,73,-1,-1,-1,-1,-1,-1,-1,-1,-1,-1,-1,-1,-1,-1,-1,-1,-1,-1,-1,-1,-1,-1,-1,-1],"loss_changes":[9.5256424E1,8.01626E0,7.890483E1,7.5530415E0,8.292577E0,3.2702736E1,1.3609482E1,4.2282467E0,8.866097E0,1.444887E1,8.07114E0,2.007906E1,4.7577076E0,4.0309753E0,3.418064E1,3.479887E0,0E0,5.940482E0,0E0,6.2926865E0,8.991293E0,5.9204197E0,0E0,4.090805E-1,8.184761E0,0E0,9.987107E0,1.5478106E1,0E0,0E0,6.853649E0,5.1583376E0,1.9501457E0,5.7025404E0,0E0,9.387166E0,6.7998466E0,1.1278725E1,7.203492E0,6.3371162E0,4.117124E0,0E0,0E0,2.1069527E-1,0E0,0E0,0E0,0E0,0E0,1.0143318E0,1.3628201E1,0E0,0E0,0E0,0E0,0E0,0E0,0E0,0E0,0E0,0E0,0E0,0E0,0E0,0E0,0E0,0E0,0E0,0E0,0E0,0E0,0E0,0E0,0E0,0E0],"parents":[2147483647,0,0,1,1,2,2,3,3,4,4,5,5,6,6,7,7,8,8,9,9,10,10,11,11,12,12,13,13,14,14,15,15,17,17,19,19,20,20,21,21,23,23,24,24,26,26,27,27,30,30,31,31,32,32,33,33,35,35,36,36,37,37,38,38,39,39,40,40,43,43,49,49,50,50],"right_children":[2,4,6,8,10,12,14,16,18,20,22,24,26,28,30,32,-1,34,-1,36,38,40,-1,42,44,-1,46,48,-1,-1,50,52,54,56,-1,58,60,62,64,66,68,-1,-1,70,-1,-1,-1,-1,-1,72,74,-1,-1,-1,-1,-1,-1,-1,-1,-1,-1,-1,-1,-1,-1,-1,-1,-1,-1,-1,-1,-1,-1,-1,-1],"split_conditions":[7.0710677E-1,-1.004272E0,-4.548895E-1,7.7767307E-1,5.0128204E-1,-1.4176E0,8.0997163E-1,9.620867E-1,1.5578012E-1,-1.9082546E-1,1.4933715E0,2.4588114E-1,-9.665859E-1,1.0157891E-1,1.0199136E0,-4.7407037E-1,1.9447815E-3,-2.5881904E-1,1.2325289E-2,5.358436E-1,7.8881913E-1,9.201515E-1,1.0327909E-2,-4.635848E-2,6.2004495E-1,-1.4067821E-2,-5.1124483E-1,-2.4850678E-1,2.2068806E-2,-1.2559454E-2,2.593282E0,-8.11655E-2,3.342377E-1,1.3740613E0,-1.0928424E-2,-9.0525746E-1,-2.6448634E-1,-5.510705E-1,-6.2308234E-1,-3.81761E-1,1.6604322E0,1.976051E-2,9.366033E-3,-2.2716106E-1,8.190117E-3,8.060747E-3,-1.2390009E-2,1.9124975E-2,-5.0057084E-3,1.9008852E0,4.25925E0,-8.092829E-3,2.0987901E-3,-1.0987474E-2,-4.223573E-3,9.7819865E-3,-5.8128415E-3,4.5069093E-3,-2.500347E-3,-9.105617E-3,-1.2568859E-3,-2.5709078E-3,3.6493216E-3,4.2996067E-3,-4.840622E-3,6.7986464E-3,-4.8443154E-3,3.5346497E-3,-6.6757393E-3,-1.1555054E-2,-4.764606E-3,1.0320459E-2,2.0684684E-2,-3.8854098E-3,1.8629579E-2],"split_indices":[31,30,0,29,14,3,3,27,0,18,15,12,0,0,0,4,0,31,0,29,6,27,0,8,27,0,3,3,0,0,3,0,8,29,0,8,6,26,4,30,5,0,0,30,0,0,0,0,0,0,0,0,0,0,0,0,0,0,0,0,0,0,0,0,0,0,0,0,0,0,0,0,0,0,0],"split_type":[0,0,0,0,0,0,0,0,0,0,0,0,0,0,0,0,0,0,0,0,0,0,0,0,0,0,0,0,0,0,0,0,0,0,0,0,0,0,0,0,0,0,0,0,0,0,0,0,0,0,0,0,0,0,0,0,0,0,0,0,0,0,0,0,0,0,0,0,0,0,0,0,0,0,0],"sum_hessian":[7.35766E2,6.295057E2,1.0626036E2,7.008439E1,5.5942126E2,4.034486E1,6.5915504E1,5.3809715E1,1.6274675E1,4.0966174E2,1.4975954E2,1.8890583E1,2.1454275E1,3.5973118E1,2.9942385E1,4.891683E1,4.8928843E0,1.2216812E1,4.057863E0,1.9314346E2,2.1651826E2,1.4642793E2,3.3316004E0,9.217224E0,9.673359E0,1.3642932E1,7.811344E0,1.1501109E1,2.4472008E1,4.9239755E0,2.501841E1,1.8649302E1,3.0267527E1,7.4625564E0,4.754256E0,1.4838872E2,4.475474E1,1.7150145E2,4.501681E1,1.2571417E2,2.0713762E1,5.38188E0,3.8353448E0,6.3573503E0,3.3160083E0,3.3236063E0,4.4877377E0,8.267798E0,3.2333105E0,1.5780935E1,9.237474E0,1.0498482E1,8.150821E0,2.2921036E1,7.346492E0,3.8021169E0,3.6604395E0,2.1538853E1,1.2684987E2,2.4851149E1,1.9903593E1,3.6314693E1,1.3518677E2,1.0534894E1,3.448192E1,4.014835E0,1.2169934E2,1.6596298E1,4.117463E0,3.1543705E0,3.20298E0,4.7814336E0,1.0999501E1,5.3213677E0,3.9161072E0],"tree_param":{"num_deleted":"0","num_feature":"37","num_nodes":"75","size_leaf_vector":"1"}},{"base_weights":[5.4024165E-3,-1.4951966E0,2.3865847E-2,-1.4993588E-2,-7.663884E-3],"categories":[],"categories_nodes":[],"categories_segments":[],"categories_sizes":[],"default_left":[0,0,0,0,0],"id":11,"left_children":[1,3,-1,-1,-1],"loss_changes":[2.6433804E3,2.2753906E-1,0E0,0E0,0E0],"parents":[2147483647,0,0,1,1],"right_children":[2,4,-1,-1,-1],"split_conditions":[1.2735458E-1,4.2616234E0,2.3865847E-2,-1.4993588E-2,-7.663884E-3],"split_indices":[1,7,0,0,0],"split_type":[0,0,0,0,0],"sum_hessian":[7.3778094E2,4.5280164E2,2.849793E2,4.4917905E2,3.622576E0],"tree_param":{"num_deleted":"0","num_feature":"37","num_nodes":"5","size_leaf_vector":"1"}},{"base_weights":[-1.2435329E-2,-1.441236E-1,7.479696E-1,-2.8636992E-1,-4.1781265E-2,-1.5826307E-1,1.3543496E0,-3.0758664E-1,8.772155E-3,-6.225534E-2,1.0427869E-2,5.0570744E-1,-1.2041439E0,1.8088238E0,5.753838E-1,-4.839288E-1,-1.4736465E-1,8.781874E-2,-1.8673232E-1,-3.812758E-1,1.594971E0,-1.3317044E-2,-4.738085E-3,2.1731729E-2,1.325297E0,-1.2324734E-2,1.4349531E0,-9.4654816E-1,-3.7528378E-1,-8.726512E-2,-8.505017E-1,-1.1110834E-1,3.1614113E-1,4.5140794E-1,-2.4363016E-1,-8.9449424E-1,7.2701094E-3,1.878248E-2,5.9382278E-3,-7.10943E-3,1.9254189E0,2.3668327E-3,1.6654227E0,-2.4739152E-3,-1.0477636E-2,-2.9109386E-3,-1.1589706E-2,-1.3957082E-3,9.243591E-3,-1.2011965E-2,3.883293E-4,8.98063E-3,-1.7821552E-3,4.7391034E-3,-2.0575428E-3,-4.95845E-4,1.1590724E-2,2.2585496E-4,-3.6272055E-3,2.479541E-4,-1.2206317E-2,9.92988E-3,2.094652E-2,1.9566726E-2,9.554671E-3],"categories":[],"categories_nodes":[],"categories_segments":[],"categories_sizes":[],"default_left":[0,0,0,0,0,0,0,0,0,0,0,0,0,0,0,0,0,0,0,0,0,0,0,0,0,0,0,0,0,0,0,0,0,0,0,0,0,0,0,0,0,0,0,0,0,0,0,0,0,0,0,0,0,0,0,0,0,0,0,0,0,0,0,0,0],"id":12,"left_children":[1,3,5,7,9,11,13,15,-1,17,-1,19,21,23,25,27,29,31,33,35,37,-1,-1,-1,39,-1,41,43,45,47,49,51,53,55,57,59,-1,-1,-1,-1,61,-1,63,-1,-1,-1,-1,-1,-1,-1,-1,-1,-1,-1,-1,-1,-1,-1,-1,-1,-1,-1,-1,-1,-1],"loss_changes":[7.458878E1,9.229876E0,6.063889E1,6.823395E0,8.289296E0,3.1841675E1,2.2318413E1,7.3156166E0,0E0,6.8247275E0,0E0,2.78683E1,1.0236607E0,4.3789673E0,4.182781E1,5.878435E0,5.7752943E0,7.5710754E0,7.354953E0,9.9549465E0,2.5307732E0,0E0,0E0,0E0,2.6137825E1,0E0,4.5584297E0,1.3634834E0,6.398679E0,6.9357085E0,3.4104877E0,6.2149315E0,6.479752E0,5.972975E0,5.837001E0,3.5169067E0,0E0,0E0,0E0,0E0,4.3297577E-1,0E0,1.206234E0,0E0,0E0,0E0,0E0,0E0,0E0,0E0,0E0,0E0,0E0,0E0,0E0,0E0,0E0,0E0,0E0,0E0,0E0,0E0,0E0,0E0,0E0],"parents":[2147483647,0,0,1,1,2,2,3,3,4,4,5,5,6,6,7,7,9,9,11,11,12,12,13,13,14,14,15,15,16,16,17,17,18,18,19,19,20,20,24,24,26,26,27,27,28,28,29,29,30,30,31,31,32,32,33,33,34,34,35,35,40,40,42,42],"right_children":[2,4,6,8,10,12,14,16,-1,18,-1,20,22,24,26,28,30,32,34,36,38,-1,-1,-1,40,-1,42,44,46,48,50,52,54,56,58,60,-1,-1,-1,-1,62,-1,64,-1,-1,-1,-1,-1,-1,-1,-1,-1,-1,-1,-1,-1,-1,-1,-1,-1,-1,-1,-1,-1,-1],"split_conditions":[1E0,-1.8659712E-1,-3.174496E-1,2.4781373E0,9.628872E-1,-7.835295E-1,1.2571385E0,0E0,8.772155E-3,1.0914589E-1,1.0427869E-2,-1.6947517E0,-4.3920884E-1,9.803212E-2,1.9008852E0,-1.004272E0,6.6707546E-1,4.6073448E-2,-1.8946916E0,4.82105E-1,-1.0117399E0,-1.3317044E-2,-4.738085E-3,2.1731729E-2,3.3474824E-1,-1.2324734E-2,3.9519086E-1,-7.78751E-1,9.2692155E-1,9.93223E-1,2.9713413E-1,-9.6624035E-1,5.6894106E-1,3.066615E-1,-6.3691056E-1,2.2366199E-1,7.2701094E-3,1.878248E-2,5.9382278E-3,-7.10943E-3,9.425928E-1,2.3668327E-3,3.0090675E0,-2.4739152E-3,-1.0477636E-2,-2.9109386E-3,-1.1589706E-2,-1.3957082E-3,9.243591E-3,-1.2011965E-2,3.883293E-4,8.98063E-3,-1.7821552E-3,4.7391034E-3,-2.0575428E-3,-4.95845E-4,1.1590724E-2,2.2585496E-4,-3.6272055E-3,2.479541E-4,-1.2206317E-2,9.92988E-3,2.094652E-2,1.9566726E-2,9.554671E-3],"split_indices":[35,27,0,5,17,3,3,32,0,26,0,0,0,3,0,30,5,14,8,27,3,0,0,0,0,0,12,17,11,23,0,15,17,7,23,12,0,0,0,0,0,0,3,0,0,0,0,0,0,0,0,0,0,0,0,0,0,0,0,0,0,0,0,0,0],"split_type":[0,0,0,0,0,0,0,0,0,0,0,0,0,0,0,0,0,0,0,0,0,0,0,0,0,0,0,0,0,0,0,0,0,0,0,0,0,0,0,0,0,0,0,0,0,0,0,0,0,0,0,0,0,0,0,0,0,0,0,0,0,0,0,0,0],"sum_hessian":[7.427952E2,6.3383673E2,1.08958496E2,2.6446158E2,3.6937515E2,4.397581E1,6.498269E1,2.6044824E2,4.0133357E0,3.6345654E2,5.918598E0,2.7215015E1,1.6760796E1,4.020417E1,2.477852E1,1.23025085E2,1.3742316E2,1.649188E2,1.9853775E2,1.5358563E1,1.1856452E1,1.3567652E1,3.1931427E0,2.0934837E1,1.9269331E1,7.844997E0,1.6933523E1,2.193058E1,1.01094505E2,1.2763764E2,9.785517E0,8.840705E1,7.651174E1,1.56852665E1,1.8285248E2,1.06293125E1,4.729251E0,8.558664E0,3.2977874E0,4.344292E0,1.4925039E1,3.058511E0,1.3875012E1,3.208908E0,1.8721672E1,9.2526054E1,8.568451E0,1.2218228E2,5.4553614E0,6.7665625E0,3.0189538E0,4.7402163E0,8.366684E1,5.8821823E1,1.7689922E1,9.728142E0,5.957125E0,5.6766506E1,1.26085976E2,3.0254354E0,7.6038766E0,3.3476908E0,1.1577349E1,8.593567E0,5.2814455E0],"tree_param":{"num_deleted":"0","num_feature":"37","num_nodes":"65","size_leaf_vector":"1"}},{"base_weights":[1.5386216E-3,-1.47981E0,2.3497978E-2,-1.4838382E-2,-7.9829255E-3],"categories":[],"categories_nodes":[],"categories_segments":[],"categories_sizes":[],"default_left":[0,0,0,0,0],"id":13,"left_children":[1,3,-1,-1,-1],"loss_changes":[2.5846416E3,6.6223145E-2,0E0,0E0,0E0],"parents":[2147483647,0,0,1,1],"right_children":[2,4,-1,-1,-1],"split_conditions":[1.2735458E-1,4.2616234E0,2.3497978E-2,-1.4838382E-2,-7.9829255E-3],"split_indices":[1,7,0,0,0],"split_type":[0,0,0,0,0],"sum_hessian":[7.4101434E2,4.546059E2,2.8640845E2,4.5076437E2,3.8415093E0],"tree_param":{"num_deleted":"0","num_feature":"37","num_nodes":"5","size_leaf_vector":"1"}},{"base_weights":[2.1922901E-2,-1.47848595E-2,2.3184832E-2],"categories":[],"categories_nodes":[],"categories_segments":[],"categories_sizes":[],"default_left":[0,0,0],"id":14,"left_children":[1,-1,-1],"loss_changes":[2.5553958E3,0E0,0E0],"parents":[2147483647,0,0],"right_children":[2,-1,-1],"split_conditions":[1.2735458E-1,-1.47848595E-2,2.3184832E-2],"split_indices":[1,0,0],"split_type":[0,0,0],"sum_hessian":[7.396069E2,4.4755957E2,2.920473E2],"tree_param":{"num_deleted":"0","num_feature":"37","num_nodes":"3","size_leaf_vector":"1"}},{"base_weights":[-5.794069E-3,-1.4712363E0,2.2876611E-2,-1.4753499E-2,-7.4819517E-3],"categories":[],"categories_nodes":[],"categories_segments":[],"categories_sizes":[],"default_left":[0,0,0,0,0],"id":15,"left_children":[1,3,-1,-1,-1],"loss_changes":[2.4918816E3,2.4169922E-1,0E0,0E0,0E0],"parents":[2147483647,0,0,1,1],"right_children":[2,4,-1,-1,-1],"split_conditions":[1.2735458E-1,4.2616234E0,2.2876611E-2,-1.4753499E-2,-7.4819517E-3],"split_indices":[1,7,0,0,0],"split_type":[0,0,0,0,0],"sum_hessian":[7.394257E2,4.5137222E2,2.880535E2,4.4778418E2,3.588036E0],"tree_param":{"num_deleted":"0","num_feature":"37","num_nodes":"5","size_leaf_vector":"1"}},{"base_weights":[-1.90944E-2,-1.46576E-2,2.258387E-2],"categories":[],"categories_nodes":[],"categories_segments":[],"categories_sizes":[],"default_left":[0,0,0],"id":16,"left_children":[1,-1,-1],"loss_changes":[2.416677E3,0E0,0E0],"parents":[2147483647,0,0],"right_children":[2,-1,-1],"split_conditions":[1.2735458E-1,-1.46576E-2,2.258387E-2],"split_indices":[1,0,0],"split_type":[0,0,0],"sum_hessian":[7.314877E2,4.475552E2,2.839325E2],"tree_param":{"num_deleted":"0","num_feature":"37","num_nodes":"3","size_leaf_vector":"1"}},{"base_weights":[-1.7934063E-2,-1.460792E-2,2.2308258E-2],"categories":[],"categories_nodes":[],"categories_segments":[],"categories_sizes":[],"default_left":[0,0,0],"id":17,"left_children":[1,-1,-1],"loss_changes":[2.367118E3,0E0,0E0],"parents":[2147483647,0,0],"right_children":[2,-1,-1],"split_conditions":[1.2735458E-1,-1.460792E-2,2.2308258E-2],"split_indices":[1,0,0],"split_type":[0,0,0],"sum_hessian":[7.2754254E2,4.4339813E2,2.8414444E2],"tree_param":{"num_deleted":"0","num_feature":"37","num_nodes":"3","size_leaf_vector":"1"}},{"base_weights":[-2.994306E-3,-1.4471561E-2,2.2031976E-2],"categories":[],"categories_nodes":[],"categories_segments":[],"categories_sizes":[],"default_left":[0,0,0],"id":18,"left_children":[1,-1,-1],"loss_changes":[2.3494685E3,0E0,0E0],"parents":[2147483647,0,0],"right_children":[2,-1,-1],"split_conditions":[1.2735458E-1,-1.4471561E-2,2.2031976E-2],"split_indices":[1,0,0],"split_type":[0,0,0],"sum_hessian":[7.3541174E2,4.446743E2,2.9073743E2],"tree_param":{"num_deleted":"0","num_feature":"37","num_nodes":"3","size_leaf_vector":"1"}},{"base_weights":[1.3792742E-2,-1.4440076E-2,2.1768067E-2],"categories":[],"categories_nodes":[],"categories_segments":[],"categories_sizes":[],"default_left":[0,0,0],"id":19,"left_children":[1,-1,-1],"loss_changes":[2.3010466E3,0E0,0E0],"parents":[2147483647,0,0],"right_children":[2,-1,-1],"split_conditions":[1.2735458E-1,-1.4440076E-2,2.1768067E-2],"split_indices":[1,0,0],"split_type":[0,0,0],"sum_hessian":[7.27743E2,4.3494006E2,2.9280295E2],"tree_param":{"num_deleted":"0","num_feature":"37","num_nodes":"3","size_leaf_vector":"1"}},{"base_weights":[-1.0306954E-2,-1.3403228E-1,7.083328E-1,-2.7789575E-1,-3.3639155E-2,-3.14237E-1,1.1669436E0,-3.0827674E-1,7.541804E-1,1.1622145E-1,-1.477735E-1,3.7271553E-1,-9.661319E-1,1.4971004E0,6.1944246E-1,-2.4868953E-1,-8.11119E-1,1.7244826E-3,1.142381E-2,-1.2112957E-1,2.188809E-1,-6.554514E-1,-8.102123E-2,1.3847072E0,-5.640793E-1,-1.1896235E-2,-3.505042E-3,1.5867256E0,7.036927E-3,-1.3345558E-2,1.5722398E-2,2.2755468E-1,-3.2001138E-1,-9.1907096E-1,-2.9570004E-4,1.5958124E-1,-5.743611E-1,1.0114056E0,7.893264E-2,1.95525E-3,-8.1854624E-1,-2.821544E-1,1.0321719E-1,1.6725345E-2,7.7087176E-3,-1.0866431E-2,3.5201195E-3,1.6568408E0,8.130773E-3,9.867064E-3,-3.7958187E-1,-3.880776E-3,6.227173E-3,-4.792726E-3,-1.2474365E-3,-1.0625754E-2,-2.7051443E-4,-9.944611E-4,7.9769725E-3,2.0188957E-3,-8.92366E-3,5.1058835E-4,1.3234094E-2,1.6114865E-3,-5.8205854E-3,-1.0117233E-2,1.6270195E-3,-3.526472E-3,5.277786E-3,2.9579839E-3,-1.9601241E-3,9.2001315E-3,1.7223028E-2,2.5447865E-3,-8.013972E-3],"categories":[],"categories_nodes":[],"categories_segments":[],"categories_sizes":[],"default_left":[0,0,0,0,0,0,0,0,0,0,0,0,0,0,0,0,0,0,0,0,0,0,0,0,0,0,0,0,0,0,0,0,0,0,0,0,0,0,0,0,0,0,0,0,0,0,0,0,0,0,0,0,0,0,0,0,0,0,0,0,0,0,0,0,0,0,0,0,0,0,0,0,0,0,0],"id":20,"left_children":[1,3,5,7,9,11,13,15,17,19,21,23,25,27,29,31,33,-1,-1,35,37,39,41,43,45,-1,-1,47,-1,49,-1,51,53,55,-1,57,59,61,63,-1,65,67,69,-1,-1,-1,-1,71,-1,-1,73,-1,-1,-1,-1,-1,-1,-1,-1,-1,-1,-1,-1,-1,-1,-1,-1,-1,-1,-1,-1,-1,-1,-1,-1],"loss_changes":[6.488581E1,8.981411E0,5.0633873E1,8.25074E0,6.307824E0,1.5575274E1,1.248735E1,7.2626E0,1.5198593E0,3.9145348E0,7.0369997E0,1.7148615E1,2.0198765E0,2.1252518E0,1.7881187E1,7.6870213E0,2.1622944E0,0E0,0E0,6.3030515E0,1.2313967E1,3.514779E0,6.9233418E0,2.2813988E-1,5.0145903E0,0E0,0E0,8.31604E-1,0E0,7.2573333E0,0E0,7.4870605E0,6.0163918E0,2.885786E0,0E0,5.191936E0,4.8432174E0,4.93215E0,5.3139677E0,0E0,4.0460453E0,5.279679E0,5.695732E0,0E0,0E0,0E0,0E0,1.4533997E-1,0E0,0E0,4.075959E0,0E0,0E0,0E0,0E0,0E0,0E0,0E0,0E0,0E0,0E0,0E0,0E0,0E0,0E0,0E0,0E0,0E0,0E0,0E0,0E0,0E0,0E0,0E0,0E0],"parents":[2147483647,0,0,1,1,2,2,3,3,4,4,5,5,6,6,7,7,8,8,9,9,10,10,11,11,12,12,13,13,14,14,15,15,16,16,19,19,20,20,21,21,22,22,23,23,24,24,27,27,29,29,31,31,32,32,33,33,35,35,36,36,37,37,38,38,40,40,41,41,42,42,47,47,50,50],"right_children":[2,4,6,8,10,12,14,16,18,20,22,24,26,28,30,32,34,-1,-1,36,38,40,42,44,46,-1,-1,48,-1,50,-1,52,54,56,-1,58,60,62,64,-1,66,68,70,-1,-1,-1,-1,72,-1,-1,74,-1,-1,-1,-1,-1,-1,-1,-1,-1,-1,-1,-1,-1,-1,-1,-1,-1,-1,-1,-1,-1,-1,-1,-1],"split_conditions":[7.0710677E-1,-1.8659712E-1,-3.261306E-1,8.3031625E-1,5.3296246E-2,-1.4176E0,7.629728E-1,9.2111367E-1,1.5994006E-1,-3.566441E-1,-1.3490578E0,2.639988E-1,-4.9337137E-1,9.43118E-1,8.915376E-1,-8.8746935E-1,1.0708303E0,1.7244826E-3,1.142381E-2,-2.0455794E-1,-6.260117E-1,-8.684762E-2,2.2239794E-1,-2.0274084E0,6.2004495E-1,-1.1896235E-2,-3.505042E-3,4.3321565E-1,7.036927E-3,-5.0083077E-1,1.5722398E-2,-6.155115E-1,1.294296E-2,6.18034E-1,-2.9570004E-4,-6.2308234E-1,-2.1426928E-1,-3.302353E-1,1.0959224E0,1.95525E-3,-5.893531E-1,2.1079886E0,5.09157E-1,1.6725345E-2,7.7087176E-3,-1.0866431E-2,3.5201195E-3,-7.559709E-1,8.130773E-3,9.867064E-3,5.4141086E-2,-3.880776E-3,6.227173E-3,-4.792726E-3,-1.2474365E-3,-1.0625754E-2,-2.7051443E-4,-9.944611E-4,7.9769725E-3,2.0188957E-3,-8.92366E-3,5.1058835E-4,1.3234094E-2,1.6114865E-3,-5.8205854E-3,-1.0117233E-2,1.6270195E-3,-3.526472E-3,5.277786E-3,2.9579839E-3,-1.9601241E-3,9.2001315E-3,1.7223028E-2,2.5447865E-3,-8.013972E-3],"split_indices":[31,27,20,13,29,3,3,6,21,10,23,12,20,6,12,8,10,0,0,4,23,28,2,3,27,0,0,4,0,27,0,13,30,34,0,4,7,4,8,0,17,30,14,0,0,0,0,8,0,0,17,0,0,0,0,0,0,0,0,0,0,0,0,0,0,0,0,0,0,0,0,0,0,0,0],"split_type":[0,0,0,0,0,0,0,0,0,0,0,0,0,0,0,0,0,0,0,0,0,0,0,0,0,0,0,0,0,0,0,0,0,0,0,0,0,0,0,0,0,0,0,0,0,0,0,0,0,0,0,0,0,0,0,0,0,0,0,0,0,0,0,0,0,0,0,0,0,0,0,0,0,0,0],"sum_hessian":[7.276919E2,6.215036E2,1.0618829E2,2.547206E2,3.66783E2,3.2976044E1,7.321226E1,2.481181E2,6.60249E0,1.5856535E2,2.0821765E2,1.6264807E1,1.6711237E1,4.4589348E1,2.8622906E1,2.2316719E2,2.495092E1,3.2205737E0,3.381916E0,4.7821358E1,1.10743996E2,2.3171316E1,1.8504633E2,7.5887604E0,8.676045E0,1.157631E1,5.1349263E0,3.916526E1,5.424089E0,1.7792345E1,1.0830562E1,2.8782763E1,1.9438443E2,2.1768211E1,3.1827073E0,2.993123E1,1.789013E1,1.5686216E1,9.505778E1,3.6947014E0,1.9476614E1,8.821285E1,9.683348E1,3.9921257E0,3.5966344E0,5.4060893E0,3.2699566E0,3.4863968E1,4.301293E0,4.315145E0,1.3477199E1,1.1259414E1,1.752335E1,1.0626212E2,8.812231E1,1.8586836E1,3.1813753E0,2.1889776E1,8.041454E0,5.305218E0,1.258491E1,4.131897E0,1.1554319E1,8.521472E1,9.843054E0,1.6247026E1,3.229588E0,8.166933E1,6.543522E0,5.8922813E1,3.7910667E1,4.0730195E0,3.0790947E1,5.5425324E0,7.9346666E0],"tree_param":{"num_deleted":"0","num_feature":"37","num_nodes":"75","size_leaf_vector":"1"}},{"base_weights":[-1.0391813E-2,-1.4340879E0,2.1490587E-2,-1.4382913E-2,-7.4398117E-3],"categories":[],"categories_nodes":[],"categories_segments":[],"categories_sizes":[],"default_left":[0,0,0,0,0],"id":21,"left_children":[1,3,-1,-1,-1],"loss_changes":[2.2369329E3,2.0184326E-1,0E0,0E0,0E0],"parents":[2147483647,0,0,1,1],"right_children":[2,4,-1,-1,-1],"split_conditions":[1.2735458E-1,4.2616234E0,2.1490587E-2,-1.4382913E-2,-7.4398117E-3],"split_indices":[1,7,0,0,0],"split_type":[0,0,0,0,0],"sum_hessian":[7.2559705E2,4.374971E2,2.880999E2,4.3377087E2,3.7262342E0],"tree_param":{"num_deleted":"0","num_feature":"37","num_nodes":"5","size_leaf_vector":"1"}},{"base_weights":[-1.4884683E-2,-1.42715955E-2,2.12475E-2],"categories":[],"categories_nodes":[],"categories_segments":[],"categories_sizes":[],"default_left":[0,0,0],"id":22,"left_children":[1,-1,-1],"loss_changes":[2.179372E3,0E0,0E0],"parents":[2147483647,0,0],"right_children":[2,-1,-1],"split_conditions":[1.2735458E-1,-1.42715955E-2,2.12475E-2],"split_indices":[1,0,0],"split_type":[0,0,0],"sum_hessian":[7.192243E2,4.334541E2,2.857702E2],"tree_param":{"num_deleted":"0","num_feature":"37","num_nodes":"3","size_leaf_vector":"1"}},{"base_weights":[7.210926E-3,-1.4209015E-2,2.0994045E-2],"categories":[],"categories_nodes":[],"categories_segments":[],"categories_sizes":[],"default_left":[0,0,0],"id":23,"left_children":[1,-1,-1],"loss_changes":[2.1900352E3,0E0,0E0],"parents":[2147483647,0,0],"right_children":[2,-1,-1],"split_conditions":[1.2735458E-1,-1.4209015E-2,2.0994045E-2],"split_indices":[1,0,0],"split_type":[0,0,0],"sum_hessian":[7.3097266E2,4.3462347E2,2.9634918E2],"tree_param":{"num_deleted":"0","num_feature":"37","num_nodes":"3","size_leaf_vector":"1"}},{"base_weights":[3.2014426E-2,-1.4137261E-2,2.0786533E-2],"categories":[],"categories_nodes":[],"categories_segments":[],"categories_sizes":[],"default_left":[0,0,0],"id":24,"left_children":[1,-1,-1],"loss_changes":[2.1486785E3,0E0,0E0],"parents":[2147483647,0,0],"right_children":[2,-1,-1],"split_conditions":[1.2735458E-1,-1.4137261E-2,2.0786533E-2],"split_indices":[1,0,0],"split_type":[0,0,0],"sum_hessian":[7.2417944E2,4.2457205E2,2.9960736E2],"tree_param":{"num_deleted":"0","num_feature":"37","num_nodes":"3","size_leaf_vector":"1"}},{"base_weights":[1.2063553E-3,-1.12464346E-1,6.5343726E-1,-2.4884354E-1,-2.3355838E-2,-2.1651433E-1,1.2276465E0,-8.1478365E-2,-4.0922353E-1,1.9054157E-1,-1.2859443E-1,3.7890497E-1,-1.182164E-2,1.6646825E0,7.608759E-1,-3.3113506E-1,2.80306E-1,2.7092597E-1,-4.6225655E-1,3.0815396E-1,-1.3084964E-1,2.0257821E-2,-3.6092588E-1,-4.6963412E-1,1.1704632E0,7.7868085E-3,1.7700735E-2,-9.7136784E-1,1.332295E0,-4.3062365E-1,1.512562E-1,1.3671154E-1,1.0000777E0,-2.3990383E-3,9.59927E-3,-7.3637235E-1,-3.288673E-1,2.1184449E-1,1.0263796E0,1.17812015E-1,-1.1100676E-2,-5.32482E-2,5.537158E-1,-4.5052627E-1,3.5093626E-1,3.9007307E-3,-1.1462522E-2,4.1683584E-1,1.6770067E-2,-1.1816381E-2,-4.2803744E-3,1.7779788E-2,7.8989017E-1,1.4875589E-3,-5.252187E-3,4.5932177E-3,-4.4343583E-3,1.3324675E-4,1.1506104E-2,3.5127369E-3,1.3553141E-2,1.6059695E-3,-8.253284E-3,1.9257427E-3,-4.165859E-3,3.1575998E-3,-4.285306E-3,1.4765171E-2,5.6641847E-3,-8.9603465E-4,8.267146E-3,4.722881E-4,-3.991886E-3,8.27672E-3,-6.5201754E-3,-6.6677555E-3,-1.5008585E-3,-4.2615252E-4,8.3075175E-3,9.867435E-3,-2.5551866E-3,-6.666758E-3,1.2897518E-2],"categories":[],"categories_nodes":[],"categories_segments":[],"categories_sizes":[],"default_left":[0,0,0,0,0,0,0,0,0,0,0,0,0,0,0,0,0,0,0,0,0,0,0,0,0,0,0,0,0,0,0,0,0,0,0,0,0,0,0,0,0,0,0,0,0,0,0,0,0,0,0,0,0,0,0,0,0,0,0,0,0,0,0,0,0,0,0,0,0,0,0,0,0,0,0,0,0,0,0,0,0,0,0],"id":25,"left_children":[1,3,5,7,9,11,13,15,17,19,21,23,-1,25,27,29,31,33,35,37,39,41,43,45,47,-1,-1,49,51,53,55,57,59,-1,-1,61,63,65,67,69,-1,71,73,75,77,-1,-1,79,-1,-1,-1,-1,81,-1,-1,-1,-1,-1,-1,-1,-1,-1,-1,-1,-1,-1,-1,-1,-1,-1,-1,-1,-1,-1,-1,-1,-1,-1,-1,-1,-1,-1,-1],"loss_changes":[5.3973255E1,7.528276E0,5.4237793E1,6.5400763E0,8.489864E0,2.5636883E1,1.2041069E1,1.1029478E1,4.6270924E0,4.743161E0,8.74478E0,1.9260359E1,0E0,1.6889954E0,3.43412E1,3.5255604E0,5.0291557E0,3.629589E0,4.0047283E0,6.103593E0,8.417775E0,6.1049733E0,6.4543715E0,8.682885E0,4.9121456E0,0E0,0E0,5.0640965E-1,4.7664185E0,3.3684587E0,2.5978231E0,5.3424263E0,1.4033728E0,0E0,0E0,3.1017494E0,3.7365541E0,5.5811276E0,1.3469152E0,4.1978087E0,0E0,4.783856E0,6.7666187E0,5.6248074E0,2.2254643E0,0E0,0E0,3.0260315E0,0E0,0E0,0E0,0E0,1.0553052E1,0E0,0E0,0E0,0E0,0E0,0E0,0E0,0E0,0E0,0E0,0E0,0E0,0E0,0E0,0E0,0E0,0E0,0E0,0E0,0E0,0E0,0E0,0E0,0E0,0E0,0E0,0E0,0E0,0E0,0E0],"parents":[2147483647,0,0,1,1,2,2,3,3,4,4,5,5,6,6,7,7,8,8,9,9,10,10,11,11,13,13,14,14,15,15,16,16,17,17,18,18,19,19,20,20,21,21,22,22,23,23,24,24,27,27,28,28,29,29,30,30,31,31,32,32,35,35,36,36,37,37,38,38,39,39,41,41,42,42,43,43,44,44,47,47,52,52],"right_children":[2,4,6,8,10,12,14,16,18,20,22,24,-1,26,28,30,32,34,36,38,40,42,44,46,48,-1,-1,50,52,54,56,58,60,-1,-1,62,64,66,68,70,-1,72,74,76,78,-1,-1,80,-1,-1,-1,-1,82,-1,-1,-1,-1,-1,-1,-1,-1,-1,-1,-1,-1,-1,-1,-1,-1,-1,-1,-1,-1,-1,-1,-1,-1,-1,-1,-1,-1,-1,-1],"split_conditions":[7.0710677E-1,-1.9082546E-1,-3.4703523E-1,-5.942954E-1,-4.115121E-3,-7.835295E-1,7.252239E-1,-8.864472E-1,-8.851547E-1,3.2103813E-1,5E-1,-2.0771506E0,-1.182164E-2,-1.6202624E-1,1.1522799E0,5E-1,4.2666835E-1,5.6228455E-2,-4.0462145E-1,6.3704157E-1,9.1668886E-1,1.1024575E0,1.13068E0,-2.725831E0,-4.9123472E-1,7.7868085E-3,1.7700735E-2,1.8429148E-1,1.9228927E0,-9.258319E-1,-1.1660999E0,1.221823E0,-6.6427785E-1,-2.3990383E-3,9.59927E-3,-1.6409266E0,-6.260117E-1,4.1875404E-1,-3.3807534E-1,2.538512E-1,-1.1100676E-2,5.9663665E-1,1.7939383E0,1.0400038E-1,7.687831E-1,3.9007307E-3,-1.1462522E-2,-2.9047418E-1,1.6770067E-2,-1.1816381E-2,-4.2803744E-3,1.7779788E-2,9.5328546E-1,1.4875589E-3,-5.252187E-3,4.5932177E-3,-4.4343583E-3,1.3324675E-4,1.1506104E-2,3.5127369E-3,1.3553141E-2,1.6059695E-3,-8.253284E-3,1.9257427E-3,-4.165859E-3,3.1575998E-3,-4.285306E-3,1.4765171E-2,5.6641847E-3,-8.9603465E-4,8.267146E-3,4.722881E-4,-3.991886E-3,8.27672E-3,-6.5201754E-3,-6.6677555E-3,-1.5008585E-3,-4.2615252E-4,8.3075175E-3,9.867435E-3,-2.5551866E-3,-6.666758E-3,1.2897518E-2],"split_indices":[31,18,0,20,23,3,3,10,29,29,33,0,0,0,0,31,0,14,20,12,30,29,0,3,25,0,0,8,3,8,10,8,19,0,0,9,23,10,7,7,0,28,5,9,29,0,0,30,0,0,0,0,18,0,0,0,0,0,0,0,0,0,0,0,0,0,0,0,0,0,0,0,0,0,0,0,0,0,0,0,0,0,0],"split_type":[0,0,0,0,0,0,0,0,0,0,0,0,0,0,0,0,0,0,0,0,0,0,0,0,0,0,0,0,0,0,0,0,0,0,0,0,0,0,0,0,0,0,0,0,0,0,0,0,0,0,0,0,0,0,0,0,0,0,0,0,0,0,0,0,0,0,0,0,0,0,0,0,0,0,0,0,0,0,0,0,0,0,0],"sum_hessian":[7.260043E2,6.1895966E2,1.07044624E2,2.4389285E2,3.7506677E2,4.2809433E1,6.423519E1,1.2008536E2,1.238075E2,1.2341509E2,2.5165169E2,2.685702E1,1.59524145E1,3.1848833E1,3.238636E1,7.1103584E1,4.898177E1,8.658135E0,1.1514937E2,9.038141E1,3.303368E1,1.5393805E2,9.7713646E1,1.3158255E1,1.3698765E1,4.277474E0,2.757136E1,7.8597593E0,2.4526602E1,5.903541E1,1.2068173E1,4.1827183E1,7.1545854E0,5.3462214E0,3.3119137E0,3.6212322E1,7.893704E1,8.083668E1,9.544727E0,2.704547E1,5.988213E0,1.3608664E2,1.785141E1,8.7115715E1,1.0597929E1,5.981583E0,7.1766715E0,6.2391543E0,7.4596105E0,4.819712E0,3.0400472E0,1.2213248E1,1.2313353E1,8.205502E0,5.082991E1,8.099868E0,3.9683058E0,3.8192474E1,3.6347075E0,3.2350082E0,3.9195771E0,3.1946278E0,3.3017693E1,1.1194742E1,6.77423E1,6.998666E1,1.0850022E1,3.706902E0,5.837825E0,2.1599379E1,5.4460893E0,1.0612619E2,2.9960451E1,1.4801823E1,3.0495872E0,4.994631E1,3.7169407E1,6.322944E0,4.2749853E0,3.1237643E0,3.11539E0,3.060762E0,9.252591E0],"tree_param":{"num_deleted":"0","num_feature":"37","num_nodes":"83","size_leaf_vector":"1"}},{"base_weights":[9.740381E-3,-1.4087856E-2,2.051654E-2],"categories":[],"categories_nodes":[],"categories_segments":[],"categories_sizes":[],"default_left":[0,0,0],"id":26,"left_children":[1,-1,-1],"loss_changes":[2.0779568E3,0E0,0E0],"parents":[2147483647,0,0],"right_children":[2,-1,-1],"split_conditions":[1.2735458E-1,-1.4087856E-2,2.051654E-2],"split_indices":[1,0,0],"split_type":[0,0,0],"sum_hessian":[7.154029E2,4.223232E2,2.9307965E2],"tree_param":{"num_deleted":"0","num_feature":"37","num_nodes":"3","size_leaf_vector":"1"}},{"base_weights":[2.8461482E-2,-1.4029096E-2,2.0313563E-2],"categories":[],"categories_nodes":[],"categories_segments":[],"categories_sizes":[],"default_left":[0,0,0],"id":27,"left_children":[1,-1,-1],"loss_changes":[2.0993777E3,0E0,0E0],"parents":[2147483647,0,0],"right_children":[2,-1,-1],"split_conditions":[1.2735458E-1,-1.4029096E-2,2.0313563E-2],"split_indices":[1,0,0],"split_type":[0,0,0],"sum_hessian":[7.30291E2,4.26087E2,3.04204E2],"tree_param":{"num_deleted":"0","num_feature":"37","num_nodes":"3","size_leaf_vector":"1"}},{"base_weights":[2.8572733E-2,-1.3939255E-2,2.0092584E-2],"categories":[],"categories_nodes":[],"categories_segments":[],"categories_sizes":[],"default_left":[0,0,0],"id":28,"left_children":[1,-1,-1],"loss_changes":[2.0275054E3,0E0,0E0],"parents":[2147483647,0,0],"right_children":[2,-1,-1],"split_conditions":[1.2735458E-1,-1.3939255E-2,2.0092584E-2],"split_indices":[1,0,0],"split_type":[0,0,0],"sum_hessian":[7.176117E2,4.178293E2,2.9978238E2],"tree_param":{"num_deleted":"0","num_feature":"37","num_nodes":"3","size_leaf_vector":"1"}},{"base_weights":[-3.2276618E-3,-1.383691E-2,1.991328E-2],"categories":[],"categories_nodes":[],"categories_segments":[],"categories_sizes":[],"default_left":[0,0,0],"id":29,"left_children":[1,-1,-1],"loss_changes":[1.9677819E3,0E0,0E0],"parents":[2147483647,0,0],"right_children":[2,-1,-1],"split_conditions":[1.2735458E-1,-1.383691E-2,1.991328E-2],"split_indices":[1,0,0],"split_type":[0,0,0],"sum_hessian":[7.1266986E2,4.2135187E2,2.9131802E2],"tree_param":{"num_deleted":"0","num_feature":"37","num_nodes":"3","size_leaf_vector":"1"}},{"base_weights":[2.6666317E-3,-1.3849714E0,1.9707134E-2,-1.3893361E-2,-6.831387E-3],"categories":[],"categories_nodes":[],"categories_segments":[],"categories_sizes":[],"default_left":[0,0,0,0,0],"id":30,"left_children":[1,3,-1,-1,-1],"loss_changes":[1.9697856E3,3.466797E-1,0E0,0E0,0E0],"parents":[2147483647,0,0,1,1],"right_children":[2,4,-1,-1,-1],"split_conditions":[1.2735458E-1,4.2616234E0,1.9707134E-2,-1.3893361E-2,-6.831387E-3],"split_indices":[1,7,0,0,0],"split_type":[0,0,0,0,0],"sum_hessian":[7.192863E2,4.2202182E2,2.972645E2,4.1843994E2,3.5818777E0],"tree_param":{"num_deleted":"0","num_feature":"37","num_nodes":"5","size_leaf_vector":"1"}},{"base_weights":[4.4424096E-3,-1.3766683E0,1.9520303E-2,-1.3809744E-2,-7.4226353E-3],"categories":[],"categories_nodes":[],"categories_segments":[],"categories_sizes":[],"default_left":[0,0,0,0,0],"id":31,"left_children":[1,3,-1,-1,-1],"loss_changes":[1.9297622E3,1.217041E-1,0E0,0E0,0E0],"parents":[2147483647,0,0,1,1],"right_children":[2,4,-1,-1,-1],"split_conditions":[1.2735458E-1,4.2616234E0,1.9520303E-2,-1.3809744E-2,-7.4226353E-3],"split_indices":[1,7,0,0,0],"split_type":[0,0,0,0,0],"sum_hessian":[7.154288E2,4.1876166E2,2.966671E2,4.1476956E2,3.9920876E0],"tree_param":{"num_deleted":"0","num_feature":"37","num_nodes":"5","size_leaf_vector":"1"}},{"base_weights":[-1.4520522E-2,-1.2617072E-1,6.343427E-1,4.684837E-1,-1.4815766E-1,-1.820028E-1,1.1624494E0,-3.070446E-3,6.6667795E-1,-2.7336794E-1,-5.9252996E-2,3.5723493E-1,-1.1304461E0,1.6177871E0,6.689652E-1,8.511431E-1,-1.0399192E-3,-2.985647E-1,1.0870695E-2,-7.6811314E-1,-2.8380554E-2,-2.2666144E-1,1.5900109E-2,-1.2663649E-2,-4.66522E-3,1.7616106E-2,1.159502E0,-8.1292254E-1,1.2381382E0,1.092456E0,1.9202698E-3,-2.553393E-1,-8.0861783E-1,-1.4442612E-3,-1.0098138E0,-2.6074082E-1,3.2402538E-2,-1.1815073E-2,2.5045955E-1,9.598081E-4,1.5982945E-2,-3.7297845E-4,-1.1747766E-2,1.5482384E-2,6.4584374E-1,4.2268164E-3,1.3663424E-2,-3.1560182E-3,4.0738168E-4,-9.60917E-3,-9.099621E-4,-4.607014E-3,-1.1968967E-2,1.6328971E-3,-5.2763843E-3,8.063414E-3,-2.4269999E-5,-5.255931E-3,9.882903E-3,-2.7105957E-3,1.5031751E-2],"categories":[],"categories_nodes":[],"categories_segments":[],"categories_sizes":[],"default_left":[0,0,0,0,0,0,0,0,0,0,0,0,0,0,0,0,0,0,0,0,0,0,0,0,0,0,0,0,0,0,0,0,0,0,0,0,0,0,0,0,0,0,0,0,0,0,0,0,0,0,0,0,0,0,0,0,0,0,0,0,0],"id":32,"left_children":[1,3,5,7,9,11,13,-1,15,17,19,21,23,25,27,29,-1,31,-1,33,35,37,-1,-1,-1,-1,39,41,43,45,-1,47,49,-1,51,53,55,-1,57,-1,-1,-1,-1,-1,59,-1,-1,-1,-1,-1,-1,-1,-1,-1,-1,-1,-1,-1,-1,-1,-1],"loss_changes":[5.132173E1,7.9704847E0,4.505021E1,3.5535336E0,6.4794044E0,2.1740189E1,1.3138504E1,0E0,2.6002307E0,8.620382E0,7.473713E0,2.0052122E1,7.95454E-1,8.048248E-2,2.8061382E1,2.0749683E0,0E0,5.049488E0,0E0,2.003189E0,4.6586523E0,9.151987E0,0E0,0E0,0E0,0E0,4.8024797E0,2.6238618E0,3.3294716E0,1.3122416E0,0E0,3.9601593E0,1.8976908E0,0E0,4.8692417E-1,7.8249745E0,7.060923E0,0E0,8.413993E0,0E0,0E0,0E0,0E0,0E0,8.123585E0,0E0,0E0,0E0,0E0,0E0,0E0,0E0,0E0,0E0,0E0,0E0,0E0,0E0,0E0,0E0,0E0],"parents":[2147483647,0,0,1,1,2,2,3,3,4,4,5,5,6,6,8,8,9,9,10,10,11,11,12,12,13,13,14,14,15,15,17,17,19,19,20,20,21,21,26,26,27,27,28,28,29,29,31,31,32,32,34,34,35,35,36,36,38,38,44,44],"right_children":[2,4,6,8,10,12,14,-1,16,18,20,22,24,26,28,30,-1,32,-1,34,36,38,-1,-1,-1,-1,40,42,44,46,-1,48,50,-1,52,54,56,-1,58,-1,-1,-1,-1,-1,60,-1,-1,-1,-1,-1,-1,-1,-1,-1,-1,-1,-1,-1,-1,-1,-1],"split_conditions":[7.0710677E-1,-2.4393766E0,-3.174496E-1,-7.619382E-1,-1.959538E-1,-7.835295E-1,7.629728E-1,-3.070446E-3,4.6760425E-1,1.2897087E0,-1.7252424E0,-1.2885928E0,-4.3920884E-1,1.141342E-1,1.482205E0,-2.4279144E-1,-1.0399192E-3,1.0975373E0,1.0870695E-2,-1.1991503E0,-6.60258E-1,1.508602E0,1.5900109E-2,-1.2663649E-2,-4.66522E-3,1.7616106E-2,5.739156E-1,1.1156906E0,2.593282E0,-4.7384733E-1,1.9202698E-3,4.278261E-1,6.18034E-1,-1.4442612E-3,-1.8524373E0,-2.1678147E-1,-5.625004E-1,-1.1815073E-2,-2.7936833E0,9.598081E-4,1.5982945E-2,-3.7297845E-4,-1.1747766E-2,1.5482384E-2,4.25925E0,4.2268164E-3,1.3663424E-2,-3.1560182E-3,4.0738168E-4,-9.60917E-3,-9.099621E-4,-4.607014E-3,-1.1968967E-2,1.6328971E-3,-5.2763843E-3,8.063414E-3,-2.4269999E-5,-5.255931E-3,9.882903E-3,-2.7105957E-3,1.5031751E-2],"split_indices":[31,4,0,16,27,3,3,0,8,15,10,0,0,3,0,11,0,6,0,15,0,2,0,0,0,0,0,3,3,7,0,6,34,0,23,23,3,0,0,0,0,0,0,0,0,0,0,0,0,0,0,0,0,0,0,0,0,0,0,0,0],"split_type":[0,0,0,0,0,0,0,0,0,0,0,0,0,0,0,0,0,0,0,0,0,0,0,0,0,0,0,0,0,0,0,0,0,0,0,0,0,0,0,0,0,0,0,0,0,0,0,0,0,0,0,0,0,0,0,0,0,0,0,0,0],"sum_hessian":[7.063117E2,6.033061E2,1.0300561E2,2.078737E1,5.8251874E2,4.0718487E1,6.2287125E1,4.119333E0,1.6668037E1,2.4101149E2,3.415072E2,2.6356714E1,1.4361771E1,3.121071E1,3.1076416E1,1.3364687E1,3.3033504E0,2.3739522E2,3.6162786E0,1.3256035E1,3.282512E2,1.843923E1,7.9174848E0,1.116805E1,3.1937218E0,2.159092E1,9.619791E0,8.50492E0,2.2571495E1,9.301723E0,4.0629644E0,2.2023187E2,1.716335E1,4.1485677E0,9.107468E0,6.738056E1,2.608706E2,5.651916E0,1.27873125E1,3.165694E0,6.4540973E0,3.0564895E0,5.4484305E0,1.3755655E1,8.815841E0,3.4378707E0,5.863852E0,1.8293251E2,3.729936E1,1.3878844E1,3.2845054E0,3.1943092E0,5.9131584E0,2.6178295E1,4.1202267E1,1.0280436E1,2.5059018E2,6.372426E0,6.4148865E0,4.590356E0,4.2254844E0],"tree_param":{"num_deleted":"0","num_feature":"37","num_nodes":"61","size_leaf_vector":"1"}},{"base_weights":[3.2127225E-3,-1.3677367E-2,1.9303007E-2],"categories":[],"categories_nodes":[],"categories_segments":[],"categories_sizes":[],"default_left":[0,0,0],"id":33,"left_children":[1,-1,-1],"loss_changes":[1.8871229E3,0E0,0E0],"parents":[2147483647,0,0],"right_children":[2,-1,-1],"split_conditions":[1.2735458E-1,-1.3677367E-2,1.9303007E-2],"split_indices":[1,0,0],"split_type":[0,0,0],"sum_hessian":[7.12295E2,4.1637323E2,2.9592175E2],"tree_param":{"num_deleted":"0","num_feature":"37","num_nodes":"3","size_leaf_vector":"1"}},{"base_weights":[1.7098006E-2,-1.3710637E0,1.9126752E-2,-1.3756368E-2,-5.9168977E-3],"categories":[],"categories_nodes":[],"categories_segments":[],"categories_sizes":[],"default_left":[0,0,0,0,0],"id":34,"left_children":[1,3,-1,-1,-1],"loss_changes":[1.8531267E3,6.350708E-1,0E0,0E0,0E0],"parents":[2147483647,0,0,1,1],"right_children":[2,4,-1,-1,-1],"split_conditions":[1.2735458E-1,4.2616234E0,1.9126752E-2,-1.3756368E-2,-5.9168977E-3],"split_indices":[1,7,0,0,0],"split_type":[0,0,0,0,0],"sum_hessian":[7.0224805E2,4.0554074E2,2.967073E2,4.0241446E2,3.126272E0],"tree_param":{"num_deleted":"0","num_feature":"37","num_nodes":"5","size_leaf_vector":"1"}},{"base_weights":[1.1209103E-3,-1.3542195E-2,1.8950023E-2],"categories":[],"categories_nodes":[],"categories_segments":[],"categories_sizes":[],"default_left":[0,0,0],"id":35,"left_children":[1,-1,-1],"loss_changes":[1.8287333E3,0E0,0E0],"parents":[2147483647,0,0],"right_children":[2,-1,-1],"split_conditions":[1.2735458E-1,-1.3542195E-2,1.8950023E-2],"split_indices":[1,0,0],"split_type":[0,0,0],"sum_hessian":[7.1044165E2,4.1426285E2,2.961788E2],"tree_param":{"num_deleted":"0","num_feature":"37","num_nodes":"3","size_leaf_vector":"1"}},{"base_weights":[3.1001973E-3,-1.3579581E0,1.8790346E-2,-1.3624657E-2,-6.2004724E-3],"categories":[],"categories_nodes":[],"categories_segments":[],"categories_sizes":[],"default_left":[0,0,0,0,0],"id":36,"left_children":[1,3,-1,-1,-1],"loss_changes":[1.7936991E3,5.093994E-1,0E0,0E0,0E0],"parents":[2147483647,0,0,1,1],"right_children":[2,4,-1,-1,-1],"split_conditions":[1.2735458E-1,4.2616234E0,1.8790346E-2,-1.3624657E-2,-6.2004724E-3],"split_indices":[1,7,0,0,0],"split_type":[0,0,0,0,0],"sum_hessian":[7.00515E2,4.061295E2,2.9438553E2,4.0282236E2,3.3071194E0],"tree_param":{"num_deleted":"0","num_feature":"37","num_nodes":"5","size_leaf_vector":"1"}},{"base_weights":[-1.7565891E-2,-1.3303313E-1,6.6762596E-1,-2.6139387E-1,-4.668395E-2,-2.0903965E-2,1.1399367E0,-3.4814075E-1,-6.602052E-2,3.9868662E-1,-8.6605385E-2,4.9331874E-1,-1.0390588E0,1.5714196E-2,6.3097644E-1,-3.97804E-1,2.8177688E-1,6.757932E-2,-4.5528582E-1,-4.840868E-3,6.0721487E-1,-1.495062E-1,1.4826539E-1,-2.448143E-1,1.263064E0,-3.8173785E-3,-1.2311462E-2,-7.536905E-1,1.1646018E0,-2.1745008E-1,-6.120898E-1,9.253796E-3,-3.0912197E-1,-6.639042E-2,8.6679024E-1,-9.716568E-1,2.5858998E-2,-2.22236E-3,7.641457E-1,-5.7175554E-2,-3.7555125E-1,-7.6378467E-3,2.1310917E-1,5.7783094E-3,-7.5370973E-1,6.7561255E-3,1.5842684E-2,-3.5302292E-4,-1.1258531E-2,1.4931838E-2,5.914932E-1,5.218985E-3,-2.903814E-3,-5.3670555E-3,-1.1124667E-2,2.5315715E-3,-8.371136E-3,-4.8999223E-3,2.1133772E-3,1.1780773E-3,1.4642204E-2,-1.15843555E-2,-4.5843227E-3,6.899351E-3,-4.6869684E-3,1.0028043E-2,-2.5730068E-4,1.4440053E-4,-5.8406983E-3,-5.5335304E-3,2.0354474E-3,4.616237E-3,-1.148529E-3,-1.0526639E-2,-4.9893855E-4,-5.112837E-3,1.2806032E-2],"categories":[],"categories_nodes":[],"categories_segments":[],"categories_sizes":[],"default_left":[0,0,0,0,0,0,0,0,0,0,0,0,0,0,0,0,0,0,0,0,0,0,0,0,0,0,0,0,0,0,0,0,0,0,0,0,0,0,0,0,0,0,0,0,0,0,0,0,0,0,0,0,0,0,0,0,0,0,0,0,0,0,0,0,0,0,0,0,0,0,0,0,0,0,0,0,0],"id":37,"left_children":[1,3,5,7,9,11,13,15,17,19,21,23,25,-1,27,29,31,33,35,-1,37,39,41,43,45,-1,-1,47,49,51,53,-1,55,57,59,61,63,-1,65,67,69,-1,71,-1,73,-1,-1,-1,-1,-1,75,-1,-1,-1,-1,-1,-1,-1,-1,-1,-1,-1,-1,-1,-1,-1,-1,-1,-1,-1,-1,-1,-1,-1,-1,-1,-1],"loss_changes":[5.5283794E1,6.614381E0,3.279614E1,4.0483017E0,6.41105E0,2.249398E1,1.2139076E1,5.3090763E0,3.9362924E0,5.757715E0,4.896806E0,1.6544136E1,1.3495741E0,0E0,2.238223E1,5.8339787E0,5.125647E0,6.1369863E0,4.824639E0,0E0,3.352788E0,5.42072E0,4.314551E0,6.8926587E0,1.5995903E0,0E0,0E0,2.2870855E0,3.1467972E0,4.755809E0,2.043764E0,0E0,2.4040833E0,5.9337893E0,3.5068398E0,3.6462307E-1,3.9275181E0,0E0,3.9445543E0,7.0387955E0,7.8803453E0,0E0,5.458623E0,0E0,2.0438175E0,0E0,0E0,0E0,0E0,0E0,7.839543E0,0E0,0E0,0E0,0E0,0E0,0E0,0E0,0E0,0E0,0E0,0E0,0E0,0E0,0E0,0E0,0E0,0E0,0E0,0E0,0E0,0E0,0E0,0E0,0E0,0E0,0E0],"parents":[2147483647,0,0,1,1,2,2,3,3,4,4,5,5,6,6,7,7,8,8,9,9,10,10,11,11,12,12,14,14,15,15,16,16,17,17,18,18,20,20,21,21,22,22,23,23,24,24,27,27,28,28,29,29,30,30,32,32,33,33,34,34,35,35,36,36,38,38,39,39,40,40,42,42,44,44,50,50],"right_children":[2,4,6,8,10,12,14,16,18,20,22,24,26,-1,28,30,32,34,36,-1,38,40,42,44,46,-1,-1,48,50,52,54,-1,56,58,60,62,64,-1,66,68,70,-1,72,-1,74,-1,-1,-1,-1,-1,76,-1,-1,-1,-1,-1,-1,-1,-1,-1,-1,-1,-1,-1,-1,-1,-1,-1,-1,-1,-1,-1,-1,-1,-1,-1,-1],"split_conditions":[7.0710677E-1,-1.9082546E-1,-3.174496E-1,3.504157E-1,-6.260117E-1,-7.835295E-1,7.629728E-1,-2.196363E-2,-1.5470715E-1,-7.0507586E-1,8.579619E-1,-1.6947517E0,-4.5787773E-1,1.5714196E-2,1.482205E0,-5.686328E-1,0E0,-1.2696964E-1,8.09128E-2,-4.840868E-3,-2.1708643E0,3.7452173E-1,-1.004272E0,-2.725831E0,-1.1386126E0,-3.8173785E-3,-1.2311462E-2,1.2849817E0,2.593282E0,-1.7482804E0,-2.2993106E-1,9.253796E-3,1.8057E-1,-9.3069506E-1,1.1026878E-1,2.0285308E-1,0E0,-2.22236E-3,9.9198736E-2,1.2539213E0,1.3078009E0,-7.6378467E-3,7.493546E-1,5.7783094E-3,-2.0771506E0,6.7561255E-3,1.5842684E-2,-3.5302292E-4,-1.1258531E-2,1.4931838E-2,3.3957796E0,5.218985E-3,-2.903814E-3,-5.3670555E-3,-1.1124667E-2,2.5315715E-3,-8.371136E-3,-4.8999223E-3,2.1133772E-3,1.1780773E-3,1.4642204E-2,-1.15843555E-2,-4.5843227E-3,6.899351E-3,-4.6869684E-3,1.0028043E-2,-2.5730068E-4,1.4440053E-4,-5.8406983E-3,-5.5335304E-3,2.0354474E-3,4.616237E-3,-1.148529E-3,-1.0526639E-2,-4.9893855E-4,-5.112837E-3,1.2806032E-2],"split_indices":[31,18,0,9,23,3,3,10,21,6,5,0,3,0,0,20,33,11,7,0,7,26,30,3,0,0,0,3,3,9,18,0,28,10,30,19,34,0,21,6,13,0,19,0,0,0,0,0,0,0,0,0,0,0,0,0,0,0,0,0,0,0,0,0,0,0,0,0,0,0,0,0,0,0,0,0,0],"split_type":[0,0,0,0,0,0,0,0,0,0,0,0,0,0,0,0,0,0,0,0,0,0,0,0,0,0,0,0,0,0,0,0,0,0,0,0,0,0,0,0,0,0,0,0,0,0,0,0,0,0,0,0,0,0,0,0,0,0,0,0,0,0,0,0,0,0,0,0,0,0,0,0,0,0,0,0,0],"sum_hessian":[6.9663556E2,5.9685974E2,9.9775826E1,2.3922183E2,3.576379E2,4.098461E1,5.8791218E1,1.6512395E2,7.409789E1,2.8680988E1,3.289569E2,2.7573828E1,1.3410782E1,3.0687588E1,2.810363E1,1.5339836E2,1.1725583E1,5.578001E1,1.831788E1,5.2279196E0,2.3453068E1,2.5975525E2,6.9201675E1,1.4424078E1,1.314975E1,3.7083073E0,9.702475E0,7.7030725E0,2.0400557E1,8.4387924E1,6.901044E1,5.341551E0,6.3840322E0,4.8557384E1,7.2226243E0,8.343768E0,9.974112E0,3.6651163E0,1.9787952E1,1.8531442E2,7.444082E1,3.8779616E0,6.5323715E1,5.4609013E0,8.963178E0,5.7453814E0,7.404369E0,3.002392E0,4.7006803E0,1.1946071E1,8.454487E0,7.0241246E0,7.73638E1,6.1776154E1,7.2342844E0,3.343711E0,3.0403214E0,1.8926167E1,2.9631218E1,3.73604E0,3.4865844E0,5.1957126E0,3.1480556E0,4.088767E0,5.8853445E0,1.4989382E1,4.79857E0,1.6399657E2,2.1317862E1,5.6988037E1,1.7452778E1,3.6931316E1,2.8392399E1,5.9431157E0,3.0200615E0,3.350601E0,5.103886E0],"tree_param":{"num_deleted":"0","num_feature":"37","num_nodes":"77","size_leaf_vector":"1"}},{"base_weights":[-1.0745785E-2,-1.3473589E-2,1.8614054E-2],"categories":[],"categories_nodes":[],"categories_segments":[],"categories_sizes":[],"default_left":[0,0,0],"id":38,"left_children":[1,-1,-1],"loss_changes":[1.7464481E3,0E0,0E0],"parents":[2147483647,0,0],"right_children":[2,-1,-1],"split_conditions":[1.2735458E-1,-1.3473589E-2,1.8614054E-2],"split_indices":[1,0,0],"split_type":[0,0,0],"sum_hessian":[6.9592316E2,4.061994E2,2.8972375E2],"tree_param":{"num_deleted":"0","num_feature":"37","num_nodes":"3","size_leaf_vector":"1"}},{"base_weights":[8.112571E-3,-1.340632E-2,1.8441614E-2],"categories":[],"categories_nodes":[],"categories_segments":[],"categories_sizes":[],"default_left":[0,0,0],"id":39,"left_children":[1,-1,-1],"loss_changes":[1.6726621E3,0E0,0E0],"parents":[2147483647,0,0],"right_children":[2,-1,-1],"split_conditions":[1.2735458E-1,-1.340632E-2,1.8441614E-2],"split_indices":[1,0,0],"split_type":[0,0,0],"sum_hessian":[6.7345325E2,3.8840463E2,2.8504865E2],"tree_param":{"num_deleted":"0","num_feature":"37","num_nodes":"3","size_leaf_vector":"1"}},{"base_weights":[-3.0405694E-5,-1.07055694E-1,6.1935526E-1,5.499501E-1,-1.3085967E-1,-8.83486E-2,1.0898681E0,-3.3281024E-3,7.416255E-1,-6.177038E-1,-1.06713995E-1,4.5031935E-1,-1.0467795E0,1.5204477E-2,6.6278493E-1,1.9392198E-1,1.0995971E0,-9.0267575E-1,-3.0168265E-1,-3.830625E-1,-7.282264E-2,-3.559482E-1,1.2031285E0,-4.497482E-3,-1.2241768E-2,-9.1701573E-1,1.1752319E0,-3.2509537E-3,6.365828E-3,1.3700902E-2,4.7517032E-3,-1.1439741E-2,-1.8818121E-3,4.8678843E-3,-6.7056334E-1,-2.3535424E-1,-9.254254E-1,-4.0150028E-2,-3.102889E-1,3.1900015E-1,-1.1491424E-2,1.5357708E-2,6.865919E-1,-1.1032446E-2,-4.4038165E-3,1.417936E-2,5.856797E-1,-2.8720798E-4,-9.434557E-3,-3.881345E-3,2.722052E-3,-1.1182335E-2,-3.2062137E-3,-6.862473E-4,2.9786516E-3,-4.3557785E-3,4.5944587E-3,-5.902661E-3,1.2516704E-2,1.0784502E-3,1.0682869E-2,-4.6820184E-3,1.2296864E-2],"categories":[],"categories_nodes":[],"categories_segments":[],"categories_sizes":[],"default_left":[0,0,0,0,0,0,0,0,0,0,0,0,0,0,0,0,0,0,0,0,0,0,0,0,0,0,0,0,0,0,0,0,0,0,0,0,0,0,0,0,0,0,0,0,0,0,0,0,0,0,0,0,0,0,0,0,0,0,0,0,0,0,0],"id":40,"left_children":[1,3,5,7,9,11,13,-1,15,17,19,21,23,-1,25,27,29,31,33,35,37,39,41,-1,-1,43,45,-1,-1,-1,-1,-1,-1,-1,47,49,51,53,55,57,-1,-1,59,-1,-1,-1,61,-1,-1,-1,-1,-1,-1,-1,-1,-1,-1,-1,-1,-1,-1,-1,-1],"loss_changes":[4.548788E1,9.222478E0,3.376103E1,3.7408051E0,6.581002E0,2.1792917E1,1.0173264E1,0E0,3.173849E0,2.115096E0,5.02905E0,1.6900274E1,1.0550919E0,0E0,2.7224594E1,2.0546687E0,1.0773945E0,2.1014948E0,4.4193454E0,4.48868E0,3.7286556E0,7.79508E0,1.3961983E0,0E0,0E0,2.6617002E-1,2.7217102E0,0E0,0E0,0E0,0E0,0E0,0E0,0E0,1.7257733E0,3.790212E0,1.068099E0,4.1111703E0,5.8100567E0,7.7600327E0,0E0,0E0,1.5185065E0,0E0,0E0,0E0,6.645631E0,0E0,0E0,0E0,0E0,0E0,0E0,0E0,0E0,0E0,0E0,0E0,0E0,0E0,0E0,0E0,0E0],"parents":[2147483647,0,0,1,1,2,2,3,3,4,4,5,5,6,6,8,8,9,9,10,10,11,11,12,12,14,14,15,15,16,16,17,17,18,18,19,19,20,20,21,21,22,22,25,25,26,26,34,34,35,35,36,36,37,37,38,38,39,39,42,42,46,46],"right_children":[2,4,6,8,10,12,14,-1,16,18,20,22,24,-1,26,28,30,32,34,36,38,40,42,-1,-1,44,46,-1,-1,-1,-1,-1,-1,-1,48,50,52,54,56,58,-1,-1,60,-1,-1,-1,62,-1,-1,-1,-1,-1,-1,-1,-1,-1,-1,-1,-1,-1,-1,-1,-1],"split_conditions":[7.0710677E-1,-2.4393766E0,-3.174496E-1,-3.6202127E-1,-2.0070739E0,-7.835295E-1,7.252239E-1,-3.3281024E-3,-1.2288123E0,1.1346503E-2,-1.004272E0,-1.8298286E0,-4.5787773E-1,1.5204477E-2,1.1522799E0,-3.858138E0,6.906827E-1,6.773954E-1,1.668988E-2,4.531603E-1,1.0624259E0,-2.3443906E0,-1.6253873E0,-4.497482E-3,-1.2241768E-2,-5.0345217E-3,2.593282E0,-3.2509537E-3,6.365828E-3,1.3700902E-2,4.7517032E-3,-1.1439741E-2,-1.8818121E-3,4.8678843E-3,9.0739556E-2,1.04608074E-1,4.6965303E-3,1.7280715E0,1.6405002E0,-1.3287194E0,-1.1491424E-2,1.5357708E-2,-2.7831972E-1,-1.1032446E-2,-4.4038165E-3,1.417936E-2,3.3957796E0,-2.8720798E-4,-9.434557E-3,-3.881345E-3,2.722052E-3,-1.1182335E-2,-3.2062137E-3,-6.862473E-4,2.9786516E-3,-4.3557785E-3,4.5944587E-3,-5.902661E-3,1.2516704E-2,1.0784502E-3,1.0682869E-2,-4.6820184E-3,1.2296864E-2],"split_indices":[31,4,0,29,5,3,3,0,10,2,30,0,3,0,0,4,27,30,29,5,7,3,3,0,0,9,3,0,0,0,0,0,0,0,26,2,27,4,11,20,0,0,15,0,0,0,0,0,0,0,0,0,0,0,0,0,0,0,0,0,0,0,0],"split_type":[0,0,0,0,0,0,0,0,0,0,0,0,0,0,0,0,0,0,0,0,0,0,0,0,0,0,0,0,0,0,0,0,0,0,0,0,0,0,0,0,0,0,0,0,0,0,0,0,0,0,0,0,0,0,0,0,0,0,0,0,0,0,0],"sum_hessian":[6.841957E2,5.8409546E2,1.0010024E2,1.9649612E1,5.6444586E2,4.0298706E1,5.9801533E1,3.3740606E0,1.627555E1,2.551004E1,5.389358E2,2.6138311E1,1.4160394E1,2.8504045E1,3.129749E1,7.042347E0,9.233204E0,1.2437842E1,1.3072198E1,5.7749157E1,4.8118665E2,1.2875583E1,1.3262729E1,4.053519E0,1.0106874E1,7.47222E0,2.382527E1,3.3638453E0,3.6785016E0,5.609212E0,3.623992E0,8.848455E0,3.5893872E0,4.0646014E0,9.007597E0,4.6515083E1,1.1234075E1,4.2401602E2,5.7170624E1,7.2792873E0,5.596295E0,6.8671637E0,6.3955655E0,4.427618E0,3.0446022E0,1.5881953E1,7.9433155E0,3.016959E0,5.990638E0,3.593392E1,1.05811615E1,7.8747354E0,3.3593392E0,3.9180682E2,3.2209183E1,4.9541004E1,7.62962E0,3.8717835E0,3.407504E0,3.0514028E0,3.3441625E0,3.116432E0,4.8268833E0],"tree_param":{"num_deleted":"0","num_feature":"37","num_nodes":"63","size_leaf_vector":"1"}},{"base_weights":[1.693202E-2,-1.3306543E0,1.82834E-2,-1.3351161E-2,-6.6874498E-3],"categories":[],"categories_nodes":[],"categories_segments":[],"categories_sizes":[],"default_left":[0,0,0,0,0],"id":41,"left_children":[1,3,-1,-1,-1],"loss_changes":[1.6905773E3,2.8009033E-1,0E0,0E0,0E0],"parents":[2147483647,0,0,1,1],"right_children":[2,4,-1,-1,-1],"split_conditions":[1.2735458E-1,4.2616234E0,1.82834E-2,-1.3351161E-2,-6.6874498E-3],"split_indices":[1,7,0,0,0],"split_type":[0,0,0,0,0],"sum_hessian":[6.905709E2,3.9613446E2,2.944365E2,3.9247174E2,3.6627014E0],"tree_param":{"num_deleted":"0","num_feature":"37","num_nodes":"5","size_leaf_vector":"1"}},{"base_weights":[1.4402705E-2,-1.330489E-2,1.8115325E-2],"categories":[],"categories_nodes":[],"categories_segments":[],"categories_sizes":[],"default_left":[0,0,0],"id":42,"left_children":[1,-1,-1],"loss_changes":[1.6564806E3,0E0,0E0],"parents":[2147483647,0,0],"right_children":[2,-1,-1],"split_conditions":[1.2735458E-1,-1.330489E-2,1.8115325E-2],"split_indices":[1,0,0],"split_type":[0,0,0],"sum_hessian":[6.8336414E2,3.9100964E2,2.923545E2],"tree_param":{"num_deleted":"0","num_feature":"37","num_nodes":"3","size_leaf_vector":"1"}},{"base_weights":[1.4181148E-2,-1.3203592E-2,1.797155E-2],"categories":[],"categories_nodes":[],"categories_segments":[],"categories_sizes":[],"default_left":[0,0,0],"id":43,"left_children":[1,-1,-1],"loss_changes":[1.6262083E3,0E0,0E0],"parents":[2147483647,0,0],"right_children":[2,-1,-1],"split_conditions":[1.2735458E-1,-1.3203592E-2,1.797155E-2],"split_indices":[1,0,0],"split_type":[0,0,0],"sum_hessian":[6.814413E2,3.898794E2,2.9156186E2],"tree_param":{"num_deleted":"0","num_feature":"37","num_nodes":"3","size_leaf_vector":"1"}},{"base_weights":[1.2756811E-2,-1.3171803E-2,1.7824812E-2],"categories":[],"categories_nodes":[],"categories_segments":[],"categories_sizes":[],"default_left":[0,0,0],"id":44,"left_children":[1,-1,-1],"loss_changes":[1.5731326E3,0E0,0E0],"parents":[2147483647,0,0],"right_children":[2,-1,-1],"split_conditions":[1.2735458E-1,-1.3171803E-2,1.7824812E-2],"split_indices":[1,0,0],"split_type":[0,0,0],"sum_hessian":[6.6639026E2,3.8061563E2,2.8577463E2],"tree_param":{"num_deleted":"0","num_feature":"37","num_nodes":"3","size_leaf_vector":"1"}},{"base_weights":[-3.264511E-3,-1.3104682E0,1.7688273E-2,-1.315106E-2,-5.7236645E-3],"categories":[],"categories_nodes":[],"categories_segments":[],"categories_sizes":[],"default_left":[0,0,0,0,0],"id":45,"left_children":[1,3,-1,-1,-1],"loss_changes":[1.5588116E3,5.7281494E-1,0E0,0E0,0E0],"parents":[2147483647,0,0,1,1],"right_children":[2,4,-1,-1,-1],"split_conditions":[1.2735458E-1,4.2616234E0,1.7688273E-2,-1.315106E-2,-5.7236645E-3],"split_indices":[1,7,0,0,0],"split_type":[0,0,0,0,0],"sum_hessian":[6.709205E2,3.8625534E2,2.8466516E2,3.8306665E2,3.188713E0],"tree_param":{"num_deleted":"0","num_feature":"37","num_nodes":"5","size_leaf_vector":"1"}},{"base_weights":[1.4900125E-2,-8.674234E-2,5.9830385E-1,-2.1885149E-1,3.8671514E-3,-3.2851356E-1,9.160806E-1,-2.407024E-1,5.4926514E-3,-5.418807E-1,4.4337705E-2,-5.1578693E-3,-7.2052747E-1,5.589934E-1,1.1332159E0,5.001217E-3,-3.237041E-1,-2.3843178E-1,-1.0213622E-2,1.2950048E-1,-1.2223062E-1,-7.1427786E-1,5.218704E-1,-1.0403724E-2,-1.8012499E-3,8.5389495E-1,-6.300602E-2,1.1905358E0,2.4663345E-3,-8.748698E-2,6.9358885E-1,1.2846795E-1,-4.017948E-1,-7.312721E-1,2.90381E-1,3.296412E-1,5.5898473E-2,6.1813897E-1,-1.8575853E-1,-1.0054554E-2,-2.4465742E-3,9.27649E-3,-9.099254E-4,9.9696577E-1,3.996735E-4,6.027492E-3,-5.146083E-3,1.2539793E0,6.4644846E-3,1.6962381E-3,-3.4232289E-3,9.017459E-3,3.156463E-3,6.965963E-3,-1.7898099E-3,-8.175269E-3,-3.3277075E-3,-2.3317954E-3,-1.0655017E-2,-2.5862262E-3,6.5925885E-3,7.5002294E-4,6.614157E-3,1.5155536E-3,-2.319552E-3,9.7747715E-3,1.9694807E-3,-2.3503138E-3,3.9737565E-3,4.261781E-3,1.127719E-2,1.36375725E-2,8.057221E-3],"categories":[],"categories_nodes":[],"categories_segments":[],"categories_sizes":[],"default_left":[0,0,0,0,0,0,0,0,0,0,0,0,0,0,0,0,0,0,0,0,0,0,0,0,0,0,0,0,0,0,0,0,0,0,0,0,0,0,0,0,0,0,0,0,0,0,0,0,0,0,0,0,0,0,0,0,0,0,0,0,0,0,0,0,0,0,0,0,0,0,0,0,0],"id":46,"left_children":[1,3,5,7,9,11,13,15,-1,17,19,21,23,25,27,29,31,33,-1,35,37,39,41,-1,-1,43,45,47,-1,49,51,53,55,57,59,61,63,65,67,-1,-1,-1,-1,69,-1,-1,-1,71,-1,-1,-1,-1,-1,-1,-1,-1,-1,-1,-1,-1,-1,-1,-1,-1,-1,-1,-1,-1,-1,-1,-1,-1,-1],"loss_changes":[4.0252598E1,6.9223704E0,2.996341E1,4.0807905E0,7.621077E0,3.3492076E0,5.202175E0,4.680895E0,0E0,3.2225027E0,4.5713763E0,6.1662745E0,1.8779202E0,5.6361523E0,2.0353928E0,3.8132234E0,6.1081867E0,4.3545065E0,0E0,3.1189759E0,5.2490625E0,7.155044E-1,2.4396234E0,0E0,0E0,2.3722668E0,3.533077E0,6.66275E-1,0E0,3.5197592E0,2.7307534E-1,4.669191E0,3.9320087E0,1.1683955E0,1.8681238E0,4.7710752E0,4.3560276E0,1.1480572E0,3.0040855E0,0E0,0E0,0E0,0E0,8.310833E-1,0E0,0E0,0E0,7.343826E-1,0E0,0E0,0E0,0E0,0E0,0E0,0E0,0E0,0E0,0E0,0E0,0E0,0E0,0E0,0E0,0E0,0E0,0E0,0E0,0E0,0E0,0E0,0E0,0E0,0E0],"parents":[2147483647,0,0,1,1,2,2,3,3,4,4,5,5,6,6,7,7,9,9,10,10,11,11,12,12,13,13,14,14,15,15,16,16,17,17,19,19,20,20,21,21,22,22,25,25,26,26,27,27,29,29,30,30,31,31,32,32,33,33,34,34,35,35,36,36,37,37,38,38,43,43,47,47],"right_children":[2,4,6,8,10,12,14,16,-1,18,20,22,24,26,28,30,32,34,-1,36,38,40,42,-1,-1,44,46,48,-1,50,52,54,56,58,60,62,64,66,68,-1,-1,-1,-1,70,-1,-1,-1,72,-1,-1,-1,-1,-1,-1,-1,-1,-1,-1,-1,-1,-1,-1,-1,-1,-1,-1,-1,-1,-1,-1,-1,-1,-1],"split_conditions":[7.0710677E-1,-1.959538E-1,-4.6055597E-1,8.3031625E-1,-7.49718E-1,-5.8078706E-1,2.1738635E-1,-7.02498E-1,5.4926514E-3,3.423737E-2,6.237424E-1,-1.0846671E0,-4.7889096E-1,1.5591004E-1,4.2868214E0,8.280733E-1,-8.3282614E-1,-4.2852765E-1,-1.0213622E-2,-6.1100066E-1,-2.4393766E0,-7.668572E-1,-5.893531E-1,-1.0403724E-2,-1.8012499E-3,1.5567939E-1,-4.672074E-1,1.0003333E0,2.4663345E-3,-4.1193694E-1,-2.5436568E-1,-2.6857316E-1,-5.819714E-1,-8.0547446E-1,-7.9996765E-1,-1.5441409E-1,5.131825E-1,1.0020226E0,3.483818E0,-1.0054554E-2,-2.4465742E-3,9.27649E-3,-9.099254E-4,-3.261306E-1,3.996735E-4,6.027492E-3,-5.146083E-3,2.3543983E0,6.4644846E-3,1.6962381E-3,-3.4232289E-3,9.017459E-3,3.156463E-3,6.965963E-3,-1.7898099E-3,-8.175269E-3,-3.3277075E-3,-2.3317954E-3,-1.0655017E-2,-2.5862262E-3,6.5925885E-3,7.5002294E-4,6.614157E-3,1.5155536E-3,-2.319552E-3,9.7747715E-3,1.9694807E-3,-2.3503138E-3,3.9737565E-3,4.261781E-3,1.127719E-2,1.36375725E-2,8.057221E-3],"split_indices":[31,27,22,13,16,16,22,13,0,7,13,10,21,5,2,29,8,30,0,4,4,16,17,0,0,16,6,6,0,26,2,19,26,16,16,10,26,13,26,0,0,0,0,20,0,0,0,2,0,0,0,0,0,0,0,0,0,0,0,0,0,0,0,0,0,0,0,0,0,0,0,0,0],"split_type":[0,0,0,0,0,0,0,0,0,0,0,0,0,0,0,0,0,0,0,0,0,0,0,0,0,0,0,0,0,0,0,0,0,0,0,0,0,0,0,0,0,0,0,0,0,0,0,0,0,0,0,0,0,0,0,0,0,0,0,0,0,0,0,0,0,0,0,0,0,0,0,0,0],"sum_hessian":[6.769369E2,5.7722266E2,9.971426E1,2.3425792E2,3.4296472E2,2.5450977E1,7.426328E1,2.2844586E2,5.812057E0,2.2821802E1,3.201429E2,1.4502026E1,1.0948951E1,2.9433378E1,4.4829903E1,5.7922367E1,1.705235E2,1.4893462E1,7.9283404E0,2.1198308E2,1.0815983E2,6.031419E0,8.470607E0,6.2968736E0,4.652077E0,1.971385E1,9.719528E0,4.1785522E1,3.0443788E0,5.1833286E1,6.089082E0,2.501764E1,1.4550586E2,7.5107627E0,7.3826995E0,5.6061188E1,1.5592189E2,7.857416E0,1.0030241E2,3.018729E0,3.0126896E0,4.7872925E0,3.6833146E0,1.6575377E1,3.138474E0,3.7930691E0,5.926459E0,3.6253433E1,5.5320888E0,2.5967926E1,2.5865358E1,3.032795E0,3.0562868E0,8.340211E0,1.667743E1,1.9174374E1,1.2633148E2,3.6977603E0,3.813002E0,3.0870752E0,4.2956243E0,3.2411346E1,2.3649837E1,1.1738657E2,3.8535324E1,3.527333E0,4.3300834E0,9.303797E1,7.26444E0,3.8831897E0,1.2692186E1,2.7480999E1,8.772436E0],"tree_param":{"num_deleted":"0","num_feature":"37","num_nodes":"73","size_leaf_vector":"1"}},{"base_weights":[-1.6847533E-3,-9.6131526E-2,5.384932E-1,4.910321E-1,-1.1782297E-1,-1.4196062E-1,1.0087376E0,1.8214491E-1,8.524298E-1,-4.5398754E-1,-7.7521354E-2,-7.654162E-1,9.74123E-2,1.3932015E-2,6.874896E-1,4.7553933E-1,-4.059752E-3,2.2677574E-3,1.2278332E-2,2.2234917E-3,-5.3149295E-1,-3.021449E-1,-3.0532066E-2,-2.5250353E-3,-1.0396084E-2,-4.3838096E-1,5.3888136E-1,1.9955209E-1,1.1368315E0,7.978982E-3,1.4293191E-3,-6.6778773E-1,-1.4938849E-1,-4.366587E-1,2.2813205E-1,3.2249174E-1,-7.8714386E-2,-1.0669632E-2,-8.176129E-2,1.238433E-1,8.703555E-1,1.0237497E-2,-7.641739E-2,3.250872E-3,1.3004875E-2,-5.8390367E-5,-7.7027325E-3,-6.690761E-3,3.350306E-3,-2.7318783E-3,-8.363295E-3,7.540641E-3,-8.9994236E-4,8.321796E-3,1.6207532E-3,-8.609006E-3,-6.180093E-4,4.4288044E-3,-4.0541496E-3,5.337458E-3,-3.8516244E-3,1.10494E-2,2.682749E-3,-6.275316E-3,3.909313E-3],"categories":[],"categories_nodes":[],"categories_segments":[],"categories_sizes":[],"default_left":[0,0,0,0,0,0,0,0,0,0,0,0,0,0,0,0,0,0,0,0,0,0,0,0,0,0,0,0,0,0,0,0,0,0,0,0,0,0,0,0,0,0,0,0,0,0,0,0,0,0,0,0,0,0,0,0,0,0,0,0,0,0,0,0,0],"id":47,"left_children":[1,3,5,7,9,11,13,15,17,19,21,23,25,-1,27,29,-1,-1,-1,-1,31,33,35,-1,-1,37,39,41,43,-1,-1,45,47,49,51,53,55,-1,57,59,61,-1,63,-1,-1,-1,-1,-1,-1,-1,-1,-1,-1,-1,-1,-1,-1,-1,-1,-1,-1,-1,-1,-1,-1],"loss_changes":[3.4466824E1,7.3816013E0,3.2314735E1,2.1532283E0,7.488595E0,6.3372474E0,6.4005737E0,2.3364193E0,1.8960223E0,3.2237854E0,5.237606E0,1.390677E0,7.6183705E0,0E0,7.322317E0,8.238919E-1,0E0,0E0,0E0,0E0,2.6837912E0,6.2258406E0,7.0369205E0,0E0,0E0,3.196765E0,2.3079348E0,4.1086674E0,1.930193E0,0E0,0E0,2.6486015E0,4.086115E0,4.269884E0,3.0853572E0,3.9287395E0,4.755872E0,0E0,1.9505877E0,2.0756023E0,1.0589828E0,0E0,3.904118E0,0E0,0E0,0E0,0E0,0E0,0E0,0E0,0E0,0E0,0E0,0E0,0E0,0E0,0E0,0E0,0E0,0E0,0E0,0E0,0E0,0E0,0E0],"parents":[2147483647,0,0,1,1,2,2,3,3,4,4,5,5,6,6,7,7,8,8,9,9,10,10,11,11,12,12,14,14,15,15,20,20,21,21,22,22,25,25,26,26,27,27,28,28,31,31,32,32,33,33,34,34,35,35,36,36,38,38,39,39,40,40,42,42],"right_children":[2,4,6,8,10,12,14,16,18,20,22,24,26,-1,28,30,-1,-1,-1,-1,32,34,36,-1,-1,38,40,42,44,-1,-1,46,48,50,52,54,56,-1,58,60,62,-1,64,-1,-1,-1,-1,-1,-1,-1,-1,-1,-1,-1,-1,-1,-1,-1,-1,-1,-1,-1,-1,-1,-1],"split_conditions":[7.0710677E-1,-2.4393766E0,-3.174496E-1,-9.27892E-1,-1.004272E0,-9.0161806E-1,1.0401605E0,2.3138301E-1,-1.8993871E-2,-7.0131165E-1,-5.6306773E-1,-4.178866E-1,1.1857193E0,1.3932015E-2,1.9008852E0,-1.8725147E0,-4.059752E-3,2.2677574E-3,1.2278332E-2,2.2234917E-3,8.295145E-2,7.5907934E-1,-6.0184044E-1,-2.5250353E-3,-1.0396084E-2,-1.1876084E0,-8.1210725E-2,2.0369008E-2,1.5975775E-1,7.978982E-3,1.4293191E-3,-8.011898E-1,-4.6627522E-1,-5.686328E-1,-9.3796295E-1,-4.358622E-1,-2.0070739E0,-1.0669632E-2,-7.321866E-1,2.4588114E-1,-2.1562777E-1,1.0237497E-2,-1.7315538E-1,3.250872E-3,1.3004875E-2,-5.8390367E-5,-7.7027325E-3,-6.690761E-3,3.350306E-3,-2.7318783E-3,-8.363295E-3,7.540641E-3,-8.9994236E-4,8.321796E-3,1.6207532E-3,-8.609006E-3,-6.180093E-4,4.4288044E-3,-4.0541496E-3,5.337458E-3,-3.8516244E-3,1.10494E-2,2.682749E-3,-6.275316E-3,3.909313E-3],"split_indices":[31,4,0,20,30,25,2,9,5,12,25,5,2,0,0,20,0,0,0,0,2,9,23,0,0,0,6,0,13,0,0,17,18,20,22,12,5,0,0,12,18,0,9,0,0,0,0,0,0,0,0,0,0,0,0,0,0,0,0,0,0,0,0,0,0],"split_type":[0,0,0,0,0,0,0,0,0,0,0,0,0,0,0,0,0,0,0,0,0,0,0,0,0,0,0,0,0,0,0,0,0,0,0,0,0,0,0,0,0,0,0,0,0,0,0,0,0,0,0,0,0,0,0,0,0,0,0,0,0,0,0,0,0],"sum_hessian":[6.7356616E2,5.740237E2,9.954246E1,1.9679663E1,5.5434406E2,4.0964314E1,5.857814E1,1.1421603E1,8.2580595E0,5.824501E1,4.9609903E2,1.0754982E1,3.0209333E1,2.5146456E1,3.3431686E1,7.747865E0,3.673738E0,3.6983724E0,4.5596876E0,5.7962537E0,5.2448757E1,8.48862E1,4.1121283E2,4.415712E0,6.33927E0,1.3649942E1,1.6559391E1,1.6719828E1,1.6711859E1,3.224145E0,4.52372E0,3.810812E1,1.4340637E1,6.785115E1,1.7035053E1,4.870035E1,3.6251248E2,4.2199407E0,9.430001E0,7.9627995E0,8.596591E0,3.5143585E0,1.3205468E1,3.3050432E0,1.3406816E1,5.250751E0,3.285737E1,6.7345643E0,7.606073E0,4.9349895E1,1.8501253E1,5.9040475E0,1.1131006E1,1.0655912E1,3.8044437E1,6.616633E0,3.5589584E2,3.4573188E0,5.9726825E0,4.383866E0,3.5789337E0,5.585247E0,3.0113442E0,5.9024E0,7.3030686E0],"tree_param":{"num_deleted":"0","num_feature":"37","num_nodes":"65","size_leaf_vector":"1"}},{"base_weights":[1.0571475E-2,-1.3051903E-2,1.7525736E-2],"categories":[],"categories_nodes":[],"categories_segments":[],"categories_sizes":[],"default_left":[0,0,0],"id":48,"left_children":[1,-1,-1],"loss_changes":[1.5623297E3,0E0,0E0],"parents":[2147483647,0,0],"right_children":[2,-1,-1],"split_conditions":[1.2735458E-1,-1.3051903E-2,1.7525736E-2],"split_indices":[1,0,0],"split_type":[0,0,0],"sum_hessian":[6.796289E2,3.873261E2,2.9230276E2],"tree_param":{"num_deleted":"0","num_feature":"37","num_nodes":"3","size_leaf_vector":"1"}},{"base_weights":[9.249389E-3,-1.313093E-2,1.7407095E-2],"categories":[],"categories_nodes":[],"categories_segments":[],"categories_sizes":[],"default_left":[0,0,0],"id":49,"left_children":[1,-1,-1],"loss_changes":[1.5500339E3,0E0,0E0],"parents":[2147483647,0,0],"right_children":[2,-1,-1],"split_conditions":[1.2735458E-1,-1.313093E-2,1.7407095E-2],"split_indices":[1,0,0],"split_type":[0,0,0],"sum_hessian":[6.7499554E2,3.828493E2,2.921462E2],"tree_param":{"num_deleted":"0","num_feature":"37","num_nodes":"3","size_leaf_vector":"1"}},{"base_weights":[2.1496858E-2,-1.2977798E-2,1.7275365E-2],"categories":[],"categories_nodes":[],"categories_segments":[],"categories_sizes":[],"default_left":[0,0,0],"id":50,"left_children":[1,-1,-1],"loss_changes":[1.4989222E3,0E0,0E0],"parents":[2147483647,0,0],"right_children":[2,-1,-1],"split_conditions":[1.2735458E-1,-1.2977798E-2,1.7275365E-2],"split_indices":[1,0,0],"split_type":[0,0,0],"sum_hessian":[6.63973E2,3.7456335E2,2.894097E2],"tree_param":{"num_deleted":"0","num_feature":"37","num_nodes":"3","size_leaf_vector":"1"}},{"base_weights":[2.549117E-2,-1.293054E-2,1.7158771E-2],"categories":[],"categories_nodes":[],"categories_segments":[],"categories_sizes":[],"default_left":[0,0,0],"id":51,"left_children":[1,-1,-1],"loss_changes":[1.4771799E3,0E0,0E0],"parents":[2147483647,0,0],"right_children":[2,-1,-1],"split_conditions":[1.2735458E-1,-1.293054E-2,1.7158771E-2],"split_indices":[1,0,0],"split_type":[0,0,0],"sum_hessian":[6.607587E2,3.713394E2,2.8941937E2],"tree_param":{"num_deleted":"0","num_feature":"37","num_nodes":"3","size_leaf_vector":"1"}},{"base_weights":[-1.8322445E-2,-1.2923739E-2,1.7032044E-2],"categories":[],"categories_nodes":[],"categories_segments":[],"categories_sizes":[],"default_left":[0,0,0],"id":52,"left_children":[1,-1,-1],"loss_changes":[1.454483E3,0E0,0E0],"parents":[2147483647,0,0],"right_children":[2,-1,-1],"split_conditions":[1.2735458E-1,-1.2923739E-2,1.7032044E-2],"split_indices":[1,0,0],"split_type":[0,0,0],"sum_hessian":[6.611404E2,3.800936E2,2.810468E2],"tree_param":{"num_deleted":"0","num_feature":"37","num_nodes":"3","size_leaf_vector":"1"}},{"base_weights":[-2.9063036E-3,-1.2930417E0,1.6916776E-2,-1.2978342E-2,-6.0174144E-3],"categories":[],"categories_nodes":[],"categories_segments":[],"categories_sizes":[],"default_left":[0,0,0,0,0],"id":53,"left_children":[1,3,-1,-1,-1],"loss_changes":[1.4554357E3,4.7131348E-1,0E0,0E0,0E0],"parents":[2147483647,0,0,1,1],"right_children":[2,4,-1,-1,-1],"split_conditions":[1.2735458E-1,4.2616234E0,1.6916776E-2,-1.2978342E-2,-6.0174144E-3],"split_indices":[1,7,0,0,0],"split_type":[0,0,0,0,0],"sum_hessian":[6.637242E2,3.7696606E2,2.8675812E2,3.7349927E2,3.466777E0],"tree_param":{"num_deleted":"0","num_feature":"37","num_nodes":"5","size_leaf_vector":"1"}},{"base_weights":[2.0485805E-2,-1.2775483E0,1.6790396E-2,-1.2822826E-2,-6.27836E-3],"categories":[],"categories_nodes":[],"categories_segments":[],"categories_sizes":[],"default_left":[0,0,0,0,0],"id":54,"left_children":[1,3,-1,-1,-1],"loss_changes":[1.4239716E3,3.3624268E-1,0E0,0E0,0E0],"parents":[2147483647,0,0,1,1],"right_children":[2,4,-1,-1,-1],"split_conditions":[1.2735458E-1,4.2616234E0,1.6790396E-2,-1.2822826E-2,-6.27836E-3],"split_indices":[1,7,0,0,0],"split_type":[0,0,0,0,0],"sum_hessian":[6.5943634E2,3.700521E2,2.8938422E2,3.6640854E2,3.6435773E0],"tree_param":{"num_deleted":"0","num_feature":"37","num_nodes":"5","size_leaf_vector":"1"}},{"base_weights":[-1.6251061E-2,-1.2759196E0,1.6678192E-2,-1.2807639E-2,-5.602929E-3],"categories":[],"categories_nodes":[],"categories_segments":[],"categories_sizes":[],"default_left":[0,0,0,0,0],"id":55,"left_children":[1,3,-1,-1,-1],"loss_changes":[1.3649305E3,5.584717E-1,0E0,0E0,0E0],"parents":[2147483647,0,0,1,1],"right_children":[2,4,-1,-1,-1],"split_conditions":[1.2735458E-1,4.2616234E0,1.6678192E-2,-1.2807639E-2,-5.602929E-3],"split_indices":[1,7,0,0,0],"split_type":[0,0,0,0,0],"sum_hessian":[6.414162E2,3.6708356E2,2.7433267E2,3.638309E2,3.2526553E0],"tree_param":{"num_deleted":"0","num_feature":"37","num_nodes":"5","size_leaf_vector":"1"}},{"base_weights":[5.0095036E-3,-8.417371E-2,5.241283E-1,-2.1156664E-1,2.800323E-3,-1.0348689E-1,9.706964E-1,8.5688904E-2,-2.7105108E-1,1.5710412E-1,-1.2354696E-1,3.8897282E-1,-1.1354359E-2,1.4763846E-2,6.966151E-1,-2.2004986E-1,2.7978653E-1,-3.3826002E-1,2.1397951E-1,-6.504894E-2,3.6440027E-1,-2.0529419E-1,1.1301767E-1,-2.4862124E-1,1.1429981E0,-3.4864843E-1,1.0252558E0,4.5775096E-3,-5.255635E-1,4.619184E-1,-4.081689E-3,-3.7322173E-1,4.71914E-1,4.8390353E-1,-2.0827913E-1,5.257486E-1,-1.4212123E-1,5.999835E-1,-1.5867457E-2,-2.4473104E-1,4.277973E-1,2.2292128E-1,-5.759409E-3,4.5192575E-1,-7.860915E-1,4.4498835E-3,1.3641586E-2,3.8103817E-3,-1.0502989E-2,1.2698127E0,3.4189436E-1,-7.7490667E-3,-1.2424223E-3,3.7680927E-4,8.035923E-3,-4.021179E-3,4.437665E-3,9.934807E-3,-1.3872718E-3,8.433523E-3,-9.524656E-4,3.306673E-3,-6.8021864E-3,-9.6349034E-4,1.0039998E-2,-8.168898E-3,-7.657506E-4,6.814025E-3,-2.4623568E-3,-1.8543149E-3,1.02750575E-2,-5.1668505E-3,-1.4898492E-3,8.9709405E-3,-1.899715E-3,8.531657E-3,9.972804E-4,-3.2625915E-3,1.1285916E-2,-2.7175173E-3,-1.0669691E-2,1.3908099E-2,4.9969535E-3,-6.3010715E-3,9.400487E-3],"categories":[],"categories_nodes":[],"categories_segments":[],"categories_sizes":[],"default_left":[0,0,0,0,0,0,0,0,0,0,0,0,0,0,0,0,0,0,0,0,0,0,0,0,0,0,0,0,0,0,0,0,0,0,0,0,0,0,0,0,0,0,0,0,0,0,0,0,0,0,0,0,0,0,0,0,0,0,0,0,0,0,0,0,0,0,0,0,0,0,0,0,0,0,0,0,0,0,0,0,0,0,0,0,0],"id":56,"left_children":[1,3,5,7,9,11,13,15,17,19,21,23,-1,-1,25,27,29,31,33,35,37,39,41,43,45,47,49,-1,51,53,-1,55,57,59,61,63,65,67,69,71,73,75,-1,77,79,-1,-1,-1,-1,81,83,-1,-1,-1,-1,-1,-1,-1,-1,-1,-1,-1,-1,-1,-1,-1,-1,-1,-1,-1,-1,-1,-1,-1,-1,-1,-1,-1,-1,-1,-1,-1,-1,-1,-1],"loss_changes":[2.9757938E1,6.0787764E0,2.6511875E1,3.958992E0,6.39443E0,2.0809864E1,6.616001E0,2.3091679E0,6.1262436E0,6.823229E0,3.5107644E0,1.3686264E1,0E0,0E0,1.3294935E1,3.4020941E0,3.146504E0,4.8071747E0,2.7466617E0,3.3586311E0,6.8655033E0,3.459859E0,3.684133E0,6.3517246E0,1.3922195E0,5.3946404E0,4.396801E0,0E0,1.0033891E0,2.7433257E0,0E0,3.8917542E0,2.4325938E0,3.0910184E0,2.7052538E0,2.6361876E0,2.7939153E0,3.4253693E0,5.542277E0,3.2335396E0,2.5605223E0,3.1153257E0,0E0,4.343297E0,1.0646968E0,0E0,0E0,0E0,0E0,1.2543755E0,5.8174295E0,0E0,0E0,0E0,0E0,0E0,0E0,0E0,0E0,0E0,0E0,0E0,0E0,0E0,0E0,0E0,0E0,0E0,0E0,0E0,0E0,0E0,0E0,0E0,0E0,0E0,0E0,0E0,0E0,0E0,0E0,0E0,0E0,0E0,0E0],"parents":[2147483647,0,0,1,1,2,2,3,3,4,4,5,5,6,6,7,7,8,8,9,9,10,10,11,11,14,14,15,15,16,16,17,17,18,18,19,19,20,20,21,21,22,22,23,23,24,24,25,25,26,26,28,28,29,29,31,31,32,32,33,33,34,34,35,35,36,36,37,37,38,38,39,39,40,40,41,41,43,43,44,44,49,49,50,50],"right_children":[2,4,6,8,10,12,14,16,18,20,22,24,-1,-1,26,28,30,32,34,36,38,40,42,44,46,48,50,-1,52,54,-1,56,58,60,62,64,66,68,70,72,74,76,-1,78,80,-1,-1,-1,-1,82,84,-1,-1,-1,-1,-1,-1,-1,-1,-1,-1,-1,-1,-1,-1,-1,-1,-1,-1,-1,-1,-1,-1,-1,-1,-1,-1,-1,-1,-1,-1,-1,-1,-1,-1],"split_conditions":[7.0710677E-1,-1.959538E-1,-3.174496E-1,-8.1325847E-1,1.0914589E-1,-7.835295E-1,9.803212E-2,-8.391456E-2,7.079313E-1,-1.6688501E-2,6.6707546E-1,-1.6947517E0,-1.1354359E-2,1.4763846E-2,9.206008E-1,-7.532911E-1,5.443856E-1,1.7275516E0,7.437829E-2,-1.0442586E0,2.878787E-1,1.5147169E0,3.7380936E0,-2.725831E0,-1.2885928E0,7.252239E-1,2.593282E0,4.5775096E-3,4.2895723E-16,1.0282772E-1,-4.081689E-3,2.086794E0,3.8519886E-1,2.1861646E-1,1.6537309E-1,-1.8156451E-1,-1.8934472E0,6.8270266E-1,8.087228E-1,-6.230248E-1,-1.5342791E-1,1.0295427E-1,-5.759409E-3,-1.1048473E0,-2.0274084E0,4.4498835E-3,1.3641586E-2,3.8103817E-3,-1.0502989E-2,2.430473E0,3.1922588E0,-7.7490667E-3,-1.2424223E-3,3.7680927E-4,8.035923E-3,-4.021179E-3,4.437665E-3,9.934807E-3,-1.3872718E-3,8.433523E-3,-9.524656E-4,3.306673E-3,-6.8021864E-3,-9.6349034E-4,1.0039998E-2,-8.168898E-3,-7.657506E-4,6.814025E-3,-2.4623568E-3,-1.8543149E-3,1.02750575E-2,-5.1668505E-3,-1.4898492E-3,8.9709405E-3,-1.899715E-3,8.531657E-3,9.972804E-4,-3.2625915E-3,1.1285916E-2,-2.7175173E-3,-1.0669691E-2,1.3908099E-2,4.9969535E-3,-6.3010715E-3,9.400487E-3],"split_indices":[31,27,0,13,26,3,3,20,0,14,5,0,0,0,0,17,22,5,7,20,5,27,5,3,0,3,3,0,32,6,0,7,19,5,29,30,5,17,21,0,0,27,0,18,3,0,0,0,0,2,0,0,0,0,0,0,0,0,0,0,0,0,0,0,0,0,0,0,0,0,0,0,0,0,0,0,0,0,0,0,0,0,0,0,0],"split_type":[0,0,0,0,0,0,0,0,0,0,0,0,0,0,0,0,0,0,0,0,0,0,0,0,0,0,0,0,0,0,0,0,0,0,0,0,0,0,0,0,0,0,0,0,0,0,0,0,0,0,0,0,0,0,0,0,0,0,0,0,0,0,0,0,0,0,0,0,0,0,0,0,0,0,0,0,0,0,0,0,0,0,0,0,0],"sum_hessian":[6.4081323E2,5.4757855E2,9.3234665E1,2.2158507E2,3.2599347E2,3.9079647E1,5.4155014E1,3.6874634E1,1.8471043E2,1.4665054E2,1.7934293E2,2.6876768E1,1.2202879E1,1.7493084E1,3.666193E1,1.4267323E1,2.2607311E1,1.6249648E2,2.2213959E1,7.11198E1,7.553075E1,1.3338322E2,4.59597E1,1.4925897E1,1.1950872E1,8.755047E0,2.7906883E1,4.2780056E0,9.989317E0,1.81348E1,4.4725113E0,1.5629132E2,6.2051563E0,1.3462329E1,8.751629E0,7.5354333E0,6.3584366E1,4.6280987E1,2.9249762E1,1.26139145E2,7.2440863E0,4.0220165E1,5.7395387E0,6.548996E0,8.376901E0,3.6002142E0,8.350657E0,4.5157743E0,4.239273E0,1.9919895E1,7.986988E0,5.5871196E0,4.4021974E0,8.585254E0,9.549547E0,1.5144273E2,4.848599E0,3.0085325E0,3.1966238E0,8.025268E0,5.4370613E0,4.225513E0,4.526116E0,3.6222441E0,3.9131894E0,4.6147494E0,5.8969616E1,4.2396564E1,3.88442E0,2.5868082E1,3.3816803E0,3.1700817E1,9.4438324E1,3.8597903E0,3.384296E0,5.607471E0,3.4612694E1,3.2868586E0,3.2621374E0,3.6537337E0,4.7231674E0,1.6518599E1,3.401298E0,3.0223107E0,4.964677E0],"tree_param":{"num_deleted":"0","num_feature":"37","num_nodes":"85","size_leaf_vector":"1"}},{"base_weights":[8.918198E-3,-1.276264E-2,1.6550021E-2],"categories":[],"categories_nodes":[],"categories_segments":[],"categories_sizes":[],"default_left":[0,0,0],"id":57,"left_children":[1,-1,-1],"loss_changes":[1.3644385E3,0E0,0E0],"parents":[2147483647,0,0],"right_children":[2,-1,-1],"split_conditions":[1.2735458E-1,-1.276264E-2,1.6550021E-2],"split_indices":[1,0,0],"split_type":[0,0,0],"sum_hessian":[6.429683E2,3.6119193E2,2.817764E2],"tree_param":{"num_deleted":"0","num_feature":"37","num_nodes":"3","size_leaf_vector":"1"}},{"base_weights":[8.943869E-3,-1.2774051E0,1.645578E-2,-1.2851965E-2,-7.507108E-1,-2.7036758E-3,-1.0244807E-2],"categories":[],"categories_nodes":[],"categories_segments":[],"categories_sizes":[],"default_left":[0,0,0,0,0,0,0],"id":58,"left_children":[1,3,-1,-1,5,-1,-1],"loss_changes":[1.3385798E3,4.9609375E-1,0E0,0E0,7.216821E-1,0E0,0E0],"parents":[2147483647,0,0,1,1,4,4],"right_children":[2,4,-1,-1,6,-1,-1],"split_conditions":[1.2735458E-1,3.3976715E0,1.645578E-2,-1.2851965E-2,2.7877564E-2,-2.7036758E-3,-1.0244807E-2],"split_indices":[1,7,0,0,29,0,0],"split_type":[0,0,0,0,0,0,0],"sum_hessian":[6.33821E2,3.550114E2,2.788096E2,3.4841718E2,6.5942283E0,3.1154993E0,3.4787288E0],"tree_param":{"num_deleted":"0","num_feature":"37","num_nodes":"7","size_leaf_vector":"1"}},{"base_weights":[-1.4367327E-2,-1.2712606E0,1.6341895E-2,-1.2762258E-2,-5.466325E-3],"categories":[],"categories_nodes":[],"categories_segments":[],"categories_sizes":[],"default_left":[0,0,0,0,0],"id":59,"left_children":[1,3,-1,-1,-1],"loss_changes":[1.322538E3,6.0528564E-1,0E0,0E0,0E0],"parents":[2147483647,0,0,1,1],"right_children":[2,4,-1,-1,-1],"split_conditions":[1.2735458E-1,4.2616234E0,1.6341895E-2,-1.2762258E-2,-5.466325E-3],"split_indices":[1,7,0,0,0],"split_type":[0,0,0,0,0],"sum_hessian":[6.362694E2,3.611501E2,2.7511932E2,3.579363E2,3.2137878E0],"tree_param":{"num_deleted":"0","num_feature":"37","num_nodes":"5","size_leaf_vector":"1"}},{"base_weights":[6.2109916E-3,-1.2617732E0,1.6233625E-2,-1.2666494E-2,-5.776628E-3],"categories":[],"categories_nodes":[],"categories_segments":[],"categories_sizes":[],"default_left":[0,0,0,0,0],"id":60,"left_children":[1,3,-1,-1,-1],"loss_changes":[1.3208518E3,4.7283936E-1,0E0,0E0,0E0],"parents":[2147483647,0,0,1,1],"right_children":[2,4,-1,-1,-1],"split_conditions":[1.2735458E-1,4.2616234E0,1.6233625E-2,-1.2666494E-2,-5.776628E-3],"split_indices":[1,7,0,0,0],"split_type":[0,0,0,0,0],"sum_hessian":[6.4215485E2,3.6005832E2,2.8209656E2,3.5666458E2,3.393721E0],"tree_param":{"num_deleted":"0","num_feature":"37","num_nodes":"5","size_leaf_vector":"1"}},{"base_weights":[4.941051E-3,-1.2495519E0,1.6138507E-2,-1.256939E-2,-7.127099E-1,-9.872769E-3,-2.6762905E-3],"categories":[],"categories_nodes":[],"categories_segments":[],"categories_sizes":[],"default_left":[0,0,0,0,0,0,0],"id":61,"left_children":[1,3,-1,-1,5,-1,-1],"loss_changes":[1.2866803E3,5.2471924E-1,0E0,0E0,6.1217856E-1,0E0,0E0],"parents":[2147483647,0,0,1,1,4,4],"right_children":[2,4,-1,-1,6,-1,-1],"split_conditions":[1.2735458E-1,3.3976715E0,1.6138507E-2,-1.256939E-2,-1.8177466E-2,-9.872769E-3,-2.6762905E-3],"split_indices":[1,7,0,0,0,0,0],"split_type":[0,0,0,0,0,0,0],"sum_hessian":[6.35487E2,3.571976E2,2.7828937E2,3.51026E2,6.1716046E0,3.0635357E0,3.1080692E0],"tree_param":{"num_deleted":"0","num_feature":"37","num_nodes":"7","size_leaf_vector":"1"}},{"base_weights":[-3.253251E-2,-1.2541907E0,1.602926E-2,-1.2589651E-2,-6.582471E-3],"categories":[],"categories_nodes":[],"categories_segments":[],"categories_sizes":[],"default_left":[0,0,0,0,0],"id":62,"left_children":[1,3,-1,-1,-1],"loss_changes":[1.2478845E3,1.885376E-1,0E0,0E0,0E0],"parents":[2147483647,0,0,1,1],"right_children":[2,4,-1,-1,-1],"split_conditions":[1.2735458E-1,4.2616234E0,1.602926E-2,-1.2589651E-2,-6.582471E-3],"split_indices":[1,7,0,0,0],"split_type":[0,0,0,0,0],"sum_hessian":[6.225696E2,3.5650204E2,2.6606754E2,3.5256488E2,3.937166E0],"tree_param":{"num_deleted":"0","num_feature":"37","num_nodes":"5","size_leaf_vector":"1"}},{"base_weights":[1.7248386E-3,-1.2441838E0,1.5945094E-2,-1.2490563E-2,-5.9951586E-3],"categories":[],"categories_nodes":[],"categories_segments":[],"categories_sizes":[],"default_left":[0,0,0,0,0],"id":63,"left_children":[1,3,-1,-1,-1],"loss_changes":[1.239311E3,3.5186768E-1,0E0,0E0,0E0],"parents":[2147483647,0,0,1,1],"right_children":[2,4,-1,-1,-1],"split_conditions":[1.2735458E-1,4.2616234E0,1.5945094E-2,-1.2490563E-2,-5.9951586E-3],"split_indices":[1,7,0,0,0],"split_type":[0,0,0,0,0],"sum_hessian":[6.2250696E2,3.494101E2,2.7309683E2,3.458585E2,3.551616E0],"tree_param":{"num_deleted":"0","num_feature":"37","num_nodes":"5","size_leaf_vector":"1"}},{"base_weights":[-1.0260503E-3,-1.2455665E-2,1.5853157E-2],"categories":[],"categories_nodes":[],"categories_segments":[],"categories_sizes":[],"default_left":[0,0,0],"id":64,"left_children":[1,-1,-1],"loss_changes":[1.2187421E3,0E0,0E0],"parents":[2147483647,0,0],"right_children":[2,-1,-1],"split_conditions":[1.2735458E-1,-1.2455665E-2,1.5853157E-2],"split_indices":[1,0,0],"split_type":[0,0,0],"sum_hessian":[6.153137E2,3.449238E2,2.7038992E2],"tree_param":{"num_deleted":"0","num_feature":"37","num_nodes":"3","size_leaf_vector":"1"}},{"base_weights":[-1.8135658E-2,-1.0438675E-1,4.858505E-1,-4.6110663E-1,-7.8598745E-2,-2.2473809E-1,8.9728415E-1,-8.430324E-3,-3.445891E-1,-3.4284738E-1,-4.6855886E-2,2.452227E-1,-1.1476472E-2,1.247161E0,5.5231535E-1,3.7773554E-3,-4.8544326E-1,-4.9682483E-1,5.8022097E-2,1.3521755E-1,-8.823914E-2,7.9504246E-1,-3.7202594E-1,3.2290986E-3,1.3458708E-2,-9.682017E-3,9.221451E-1,-2.0973274E-1,-7.6776224E-1,-5.838394E-1,8.1242545E-4,3.284511E-1,-5.239474E-3,-5.08007E-2,4.2236036E-1,-4.3277545E-3,-2.0448023E-1,1.1078519E-2,1.004388E-3,1.734516E-3,-7.915158E-3,1.1141788E0,4.1026565E-1,-8.714801E-3,1.2719077E-3,-9.748262E-3,-1.3254636E-3,-9.521679E-3,-3.5129401E-3,6.1706607E-3,-3.169373E-3,-1.6261919E-3,4.023196E-3,6.436846E-3,-8.345147E-4,-6.610038E-3,4.2176805E-4,3.5643915E-4,-3.0075707E-3,3.6159938E-3,1.2559228E-2,-3.7686606E-3,1.1721156E-2],"categories":[],"categories_nodes":[],"categories_segments":[],"categories_sizes":[],"default_left":[0,0,0,0,0,0,0,0,0,0,0,0,0,0,0,0,0,0,0,0,0,0,0,0,0,0,0,0,0,0,0,0,0,0,0,0,0,0,0,0,0,0,0,0,0,0,0,0,0,0,0,0,0,0,0,0,0,0,0,0,0,0,0],"id":65,"left_children":[1,3,5,7,9,11,13,-1,15,17,19,21,-1,23,25,-1,27,29,31,33,35,37,39,-1,-1,-1,41,43,45,47,-1,49,-1,51,53,55,57,-1,-1,-1,-1,59,61,-1,-1,-1,-1,-1,-1,-1,-1,-1,-1,-1,-1,-1,-1,-1,-1,-1,-1,-1,-1],"loss_changes":[2.7009783E1,4.842785E0,2.6749191E1,1.2915945E0,4.1429567E0,1.5070212E1,6.2762833E0,0E0,3.1270318E0,3.3012109E0,3.3559752E0,8.242672E0,0E0,2.106701E0,1.8242176E1,0E0,1.7576027E0,1.9793491E0,2.6284978E0,4.4327607E0,3.5322533E0,2.6488924E0,2.817462E0,0E0,0E0,0E0,2.03265E0,3.197977E0,1.4231963E0,2.535303E0,0E0,2.2949917E0,0E0,2.6500432E0,3.7005138E0,6.4833736E0,3.5209513E0,0E0,0E0,0E0,0E0,1.4484825E0,5.534608E0,0E0,0E0,0E0,0E0,0E0,0E0,0E0,0E0,0E0,0E0,0E0,0E0,0E0,0E0,0E0,0E0,0E0,0E0,0E0,0E0],"parents":[2147483647,0,0,1,1,2,2,3,3,4,4,5,5,6,6,8,8,9,9,10,10,11,11,13,13,14,14,16,16,17,17,18,18,19,19,20,20,21,21,22,22,26,26,27,27,28,28,29,29,31,31,33,33,34,34,35,35,36,36,41,41,42,42],"right_children":[2,4,6,8,10,12,14,-1,16,18,20,22,-1,24,26,-1,28,30,32,34,36,38,40,-1,-1,-1,42,44,46,48,-1,50,-1,52,54,56,58,-1,-1,-1,-1,60,62,-1,-1,-1,-1,-1,-1,-1,-1,-1,-1,-1,-1,-1,-1,-1,-1,-1,-1,-1,-1],"split_conditions":[7.0710677E-1,-1.5398105E0,-4.0538853E-1,-1.4073504E0,-1.004272E0,-8.0195606E-1,7.252239E-1,-8.430324E-3,-1.1411793E0,6.98121E-1,-5.8911175E-1,2.1245669E-1,-1.1476472E-2,-2.8331614E-1,1.0199136E0,3.7773554E-3,7.902922E-3,7.54097E-1,-1.2888733E0,-3.8117313E-1,5.9484262E-2,-1.4176E0,-2.725831E0,3.2290986E-3,1.3458708E-2,-9.682017E-3,2.797599E0,-6.219234E-1,8.38886E-1,-2.4032159E-1,8.1242545E-4,6.85674E-2,-5.239474E-3,-7.041176E-1,3.1446463E-1,-5.034076E-1,2.5434421E-2,1.1078519E-2,1.004388E-3,1.734516E-3,-7.915158E-3,1.482205E0,