{"learner":{"attributes":{"scikit_learn":"{\"_estimator_type\": \"classifier\"}"},"feature_names":[],"feature_types":[],"gradient_booster":{"model":{"cats":{"enc":[],"feature_segments":[],"sorted_idx":[]},"gbtree_model_param":{"num_parallel_tree":"1","num_trees":"1000"},"iteration_indptr":[0,1,2,3,4,5,6,7,8,9,10,11,12,13,14,15,16,17,18,19,20,21,22,23,24,25,26,27,28,29,30,31,32,33,34,35,36,37,38,39,40,41,42,43,44,45,46,47,48,49,50,51,52,53,54,55,56,57,58,59,60,61,62,63,64,65,66,67,68,69,70,71,72,73,74,75,76,77,78,79,80,81,82,83,84,85,86,87,88,89,90,91,92,93,94,95,96,97,98,99,100,101,102,103,104,105,106,107,108,109,110,111,112,113,114,115,116,117,118,119,120,121,122,123,124,125,126,127,128,129,130,131,132,133,134,135,136,137,138,139,140,141,142,143,144,145,146,147,148,149,150,151,152,153,154,155,156,157,158,159,160,161,162,163,164,165,166,167,168,169,170,171,172,173,174,175,176,177,178,179,180,181,182,183,184,185,186,187,188,189,190,191,192,193,194,195,196,197,198,199,200,201,202,203,204,205,206,207,208,209,210,211,212,213,214,215,216,217,218,219,220,221,222,223,224,225,226,227,228,229,230,231,232,233,234,235,236,237,238,239,240,241,242,243,244,245,246,247,248,249,250,251,252,253,254,255,256,257,258,259,260,261,262,263,264,265,266,267,268,269,270,271,272,273,274,275,276,277,278,279,280,281,282,283,284,285,286,287,288,289,290,291,292,293,294,295,296,297,298,299,300,301,302,303,304,305,306,307,308,309,310,311,312,313,314,315,316,317,318,319,320,321,322,323,324,325,326,327,328,329,330,331,332,333,334,335,336,337,338,339,340,341,342,343,344,345,346,347,348,349,350,351,352,353,354,355,356,357,358,359,360,361,362,363,364,365,366,367,368,369,370,371,372,373,374,375,376,377,378,379,380,381,382,383,384,385,386,387,388,389,390,391,392,393,394,395,396,397,398,399,400,401,402,403,404,405,406,407,408,409,410,411,412,413,414,415,416,417,418,419,420,421,422,423,424,425,426,427,428,429,430,431,432,433,434,435,436,437,438,439,440,441,442,443,444,445,446,447,448,449,450,451,452,453,454,455,456,457,458,459,460,461,462,463,464,465,466,467,468,469,470,471,472,473,474,475,476,477,478,479,480,481,482,483,484,485,486,487,488,489,490,491,492,493,494,495,496,497,498,499,500,501,502,503,504,505,506,507,508,509,510,511,512,513,514,515,516,517,518,519,520,521,522,523,524,525,526,527,528,529,530,531,532,533,534,535,536,537,538,539,540,541,542,543,544,545,546,547,548,549,550,551,552,553,554,555,556,557,558,559,560,561,562,563,564,565,566,567,568,569,570,571,572,573,574,575,576,577,578,579,580,581,582,583,584,585,586,587,588,589,590,591,592,593,594,595,596,597,598,599,600,601,602,603,604,605,606,607,608,609,610,611,612,613,614,615,616,617,618,619,620,621,622,623,624,625,626,627,628,629,630,631,632,633,634,635,636,637,638,639,640,641,642,643,644,645,646,647,648,649,650,651,652,653,654,655,656,657,658,659,660,661,662,663,664,665,666,667,668,669,670,671,672,673,674,675,676,677,678,679,680,681,682,683,684,685,686,687,688,689,690,691,692,693,694,695,696,697,698,699,700,701,702,703,704,705,706,707,708,709,710,711,712,713,714,715,716,717,718,719,720,721,722,723,724,725,726,727,728,729,730,731,732,733,734,735,736,737,738,739,740,741,742,743,744,745,746,747,748,749,750,751,752,753,754,755,756,757,758,759,760,761,762,763,764,765,766,767,768,769,770,771,772,773,774,775,776,777,778,779,780,781,782,783,784,785,786,787,788,789,790,791,792,793,794,795,796,797,798,799,800,801,802,803,804,805,806,807,808,809,810,811,812,813,814,815,816,817,818,819,820,821,822,823,824,825,826,827,828,829,830,831,832,833,834,835,836,837,838,839,840,841,842,843,844,845,846,847,848,849,850,851,852,853,854,855,856,857,858,859,860,861,862,863,864,865,866,867,868,869,870,871,872,873,874,875,876,877,878,879,880,881,882,883,884,885,886,887,888,889,890,891,892,893,894,895,896,897,898,899,900,901,902,903,904,905,906,907,908,909,910,911,912,913,914,915,916,917,918,919,920,921,922,923,924,925,926,927,928,929,930,931,932,933,934,935,936,937,938,939,940,941,942,943,944,945,946,947,948,949,950,951,952,953,954,955,956,957,958,959,960,961,962,963,964,965,966,967,968,969,970,971,972,973,974,975,976,977,978,979,980,981,982,983,984,985,986,987,988,989,990,991,992,993,994,995,996,997,998,999,1000],"tree_info":[0,0,0,0,0,0,0,0,0,0,0,0,0,0,0,0,0,0,0,0,0,0,0,0,0,0,0,0,0,0,0,0,0,0,0,0,0,0,0,0,0,0,0,0,0,0,0,0,0,0,0,0,0,0,0,0,0,0,0,0,0,0,0,0,0,0,0,0,0,0,0,0,0,0,0,0,0,0,0,0,0,0,0,0,0,0,0,0,0,0,0,0,0,0,0,0,0,0,0,0,0,0,0,0,0,0,0,0,0,0,0,0,0,0,0,0,0,0,0,0,0,0,0,0,0,0,0,0,0,0,0,0,0,0,0,0,0,0,0,0,0,0,0,0,0,0,0,0,0,0,0,0,0,0,0,0,0,0,0,0,0,0,0,0,0,0,0,0,0,0,0,0,0,0,0,0,0,0,0,0,0,0,0,0,0,0,0,0,0,0,0,0,0,0,0,0,0,0,0,0,0,0,0,0,0,0,0,0,0,0,0,0,0,0,0,0,0,0,0,0,0,0,0,0,0,0,0,0,0,0,0,0,0,0,0,0,0,0,0,0,0,0,0,0,0,0,0,0,0,0,0,0,0,0,0,0,0,0,0,0,0,0,0,0,0,0,0,0,0,0,0,0,0,0,0,0,0,0,0,0,0,0,0,0,0,0,0,0,0,0,0,0,0,0,0,0,0,0,0,0,0,0,0,0,0,0,0,0,0,0,0,0,0,0,0,0,0,0,0,0,0,0,0,0,0,0,0,0,0,0,0,0,0,0,0,0,0,0,0,0,0,0,0,0,0,0,0,0,0,0,0,0,0,0,0,0,0,0,0,0,0,0,0,0,0,0,0,0,0,0,0,0,0,0,0,0,0,0,0,0,0,0,0,0,0,0,0,0,0,0,0,0,0,0,0,0,0,0,0,0,0,0,0,0,0,0,0,0,0,0,0,0,0,0,0,0,0,0,0,0,0,0,0,0,0,0,0,0,0,0,0,0,0,0,0,0,0,0,0,0,0,0,0,0,0,0,0,0,0,0,0,0,0,0,0,0,0,0,0,0,0,0,0,0,0,0,0,0,0,0,0,0,0,0,0,0,0,0,0,0,0,0,0,0,0,0,0,0,0,0,0,0,0,0,0,0,0,0,0,0,0,0,0,0,0,0,0,0,0,0,0,0,0,0,0,0,0,0,0,0,0,0,0,0,0,0,0,0,0,0,0,0,0,0,0,0,0,0,0,0,0,0,0,0,0,0,0,0,0,0,0,0,0,0,0,0,0,0,0,0,0,0,0,0,0,0,0,0,0,0,0,0,0,0,0,0,0,0,0,0,0,0,0,0,0,0,0,0,0,0,0,0,0,0,0,0,0,0,0,0,0,0,0,0,0,0,0,0,0,0,0,0,0,0,0,0,0,0,0,0,0,0,0,0,0,0,0,0,0,0,0,0,0,0,0,0,0,0,0,0,0,0,0,0,0,0,0,0,0,0,0,0,0,0,0,0,0,0,0,0,0,0,0,0,0,0,0,0,0,0,0,0,0,0,0,0,0,0,0,0,0,0,0,0,0,0,0,0,0,0,0,0,0,0,0,0,0,0,0,0,0,0,0,0,0,0,0,0,0,0,0,0,0,0,0,0,0,0,0,0,0,0,0,0,0,0,0,0,0,0,0,0,0,0,0,0,0,0,0,0,0,0,0,0,0,0,0,0,0,0,0,0,0,0,0,0,0,0,0,0,0,0,0,0,0,0,0,0,0,0,0,0,0,0,0,0,0,0,0,0,0,0,0,0,0,0,0,0,0,0,0,0,0,0,0,0,0,0,0,0,0,0,0,0,0,0,0,0,0,0,0,0,0,0,0,0,0,0,0,0,0,0,0,0,0,0,0,0,0,0,0,0,0,0,0,0,0,0,0,0,0,0,0,0,0,0,0,0,0,0,0,0,0,0,0,0,0,0,0,0,0,0,0,0,0,0,0,0,0,0,0,0,0,0,0,0,0,0,0,0,0,0,0,0,0,0,0,0,0,0,0,0,0,0,0,0,0,0,0,0,0,0,0,0,0,0,0,0,0,0,0,0,0,0,0,0,0,0,0,0,0,0,0,0,0,0,0,0,0,0,0,0,0,0,0,0,0,0,0,0,0,0,0,0,0,0,0,0,0,0,0,0,0,0,0,0,0,0,0,0,0,0,0,0,0,0,0,0,0,0,0,0,0,0,0,0,0,0,0,0,0,0,0,0,0,0,0,0,0,0,0,0,0,0,0,0,0,0,0,0],"trees":[{"base_weights":[8.750529E-3,-1.947136E-2,2.0397928E-2],"categories":[],"categories_nodes":[],"categories_segments":[],"categories_sizes":[],"default_left":[0,0,0],"id":0,"left_children":[1,-1,-1],"loss_changes":[3.1585852E3,0E0,0E0],"parents":[2147483647,0,0],"right_children":[2,-1,-1],"split_conditions":[1.577601E-2,-1.947136E-2,2.0397928E-2],"split_indices":[0,0,0],"split_type":[0,0,0],"sum_hessian":[7.931152E2,4.0405396E2,3.8906125E2],"tree_param":{"num_deleted":"0","num_feature":"37","num_nodes":"3","size_leaf_vector":"1"}},{"base_weights":[-3.270489E-3,-1.9312214E-2,2.0187115E-2],"categories":[],"categories_nodes":[],"categories_segments":[],"categories_sizes":[],"default_left":[0,0,0],"id":1,"left_children":[1,-1,-1],"loss_changes":[3.0944058E3,0E0,0E0],"parents":[2147483647,0,0],"right_children":[2,-1,-1],"split_conditions":[1.577601E-2,-1.9312214E-2,2.0187115E-2],"split_indices":[0,0,0],"split_type":[0,0,0],"sum_hessian":[7.917869E2,4.0534097E2,3.8644595E2],"tree_param":{"num_deleted":"0","num_feature":"37","num_nodes":"3","size_leaf_vector":"1"}},{"base_weights":[2.1695528E-2,-1.9132886E-2,1.9984161E-2],"categories":[],"categories_nodes":[],"categories_segments":[],"categories_sizes":[],"default_left":[0,0,0],"id":2,"left_children":[1,-1,-1],"loss_changes":[3.0639756E3,0E0,0E0],"parents":[2147483647,0,0],"right_children":[2,-1,-1],"split_conditions":[1.577601E-2,-1.9132886E-2,1.9984161E-2],"split_indices":[0,0,0],"split_type":[0,0,0],"sum_hessian":[7.990557E2,4.0380692E2,3.952488E2],"tree_param":{"num_deleted":"0","num_feature":"37","num_nodes":"3","size_leaf_vector":"1"}},{"base_weights":[3.3203259E-3,-1.7088023E0,1.8477231E0,-1.8236516E0,1.9960585E-1,1.7262883E-2,1.9463938E0,-1.8500947E0,-2.724333E-1,-1.3499591E0,1.6144048E-2,-1.5077008E-2,1.2526649E0,6.8054823E-3,1.9567367E-2,-1.8818714E-2,-1.1656555E0,-8.242368E-3,3.7543124E-3,-1.5829362E-2,-5.3893477E-3,3.323059E-4,1.7502367E-2,-1.6012437E0,5.448242E-3,-1.7534416E-2,-7.6769637E-3],"categories":[],"categories_nodes":[],"categories_segments":[],"categories_sizes":[],"default_left":[0,0,0,0,0,0,0,0,0,0,0,0,0,0,0,0,0,0,0,0,0,0,0,0,0,0,0],"id":3,"left_children":[1,3,5,7,9,11,13,15,17,19,-1,-1,21,-1,-1,-1,23,-1,-1,-1,-1,-1,-1,25,-1,-1,-1],"loss_changes":[2.5283691E3,9.137219E1,6.958203E1,1.5565063E1,5.5828236E1,4.093033E1,3.456665E0,6.1800537E0,3.0760183E0,1.4566193E0,0E0,0E0,7.2197742E0,0E0,0E0,0E0,1.5557297E1,0E0,0E0,0E0,0E0,0E0,0E0,6.790199E-1,0E0,0E0,0E0],"parents":[2147483647,0,0,1,1,2,2,3,3,4,4,5,5,6,6,7,7,8,8,9,9,12,12,16,16,23,23],"right_children":[2,4,6,8,10,12,14,16,18,20,-1,-1,22,-1,-1,-1,24,-1,-1,-1,-1,-1,-1,26,-1,-1,-1],"split_conditions":[2.6435152E-2,2.3047579E1,-1.6744207E1,1.8356653E-2,-1.221135E0,1.0169619E0,3.4591995E-2,3.7305498E0,-3.5119873E-1,1.7003942E-2,1.6144048E-2,-1.5077008E-2,-1.140558E-1,6.8054823E-3,1.9567367E-2,-1.8818714E-2,-1.8225567E-1,-8.242368E-3,3.7543124E-3,-1.5829362E-2,-5.3893477E-3,3.323059E-4,1.7502367E-2,-4.430689E-1,5.448242E-3,-1.7534416E-2,-7.6769637E-3],"split_indices":[3,1,1,3,3,3,3,1,12,20,0,0,21,0,0,0,3,0,0,0,0,0,0,3,0,0,0],"split_type":[0,0,0,0,0,0,0,0,0,0,0,0,0,0,0,0,0,0,0,0,0,0,0,0,0,0,0],"sum_hessian":[7.986633E2,4.1422238E2,3.8444095E2,3.9075113E2,2.3471235E1,1.9723387E1,3.6471756E2,3.8401233E2,6.7388015E0,1.1223966E1,1.224727E1,8.728559E0,1.0994828E1,3.4972346E0,3.612203E2,3.653028E2,1.8709558E1,3.4921813E0,3.24662E0,7.9798727E0,3.2440934E0,3.4953396E0,7.499489E0,1.4962972E1,3.7465858E0,1.171951E1,3.2434616E0],"tree_param":{"num_deleted":"0","num_feature":"37","num_nodes":"27","size_leaf_vector":"1"}},{"base_weights":[1.8153926E-2,-1.880007E-2,1.9603424E-2],"categories":[],"categories_nodes":[],"categories_segments":[],"categories_sizes":[],"default_left":[0,0,0],"id":4,"left_children":[1,-1,-1],"loss_changes":[2.947151E3,0E0,0E0],"parents":[2147483647,0,0],"right_children":[2,-1,-1],"split_conditions":[1.577601E-2,-1.880007E-2,1.9603424E-2],"split_indices":[0,0,0],"split_type":[0,0,0],"sum_hessian":[7.974257E2,4.0330008E2,3.9412567E2],"tree_param":{"num_deleted":"0","num_feature":"37","num_nodes":"3","size_leaf_vector":"1"}},{"base_weights":[2.1181325E-3,-1.8611213E-2,1.9416088E-2],"categories":[],"categories_nodes":[],"categories_segments":[],"categories_sizes":[],"default_left":[0,0,0],"id":5,"left_children":[1,-1,-1],"loss_changes":[2.898172E3,0E0,0E0],"parents":[2147483647,0,0],"right_children":[2,-1,-1],"split_conditions":[1.577601E-2,-1.8611213E-2,1.9416088E-2],"split_indices":[0,0,0],"split_type":[0,0,0],"sum_hessian":[7.9998785E2,4.0803513E2,3.9195276E2],"tree_param":{"num_deleted":"0","num_feature":"37","num_nodes":"3","size_leaf_vector":"1"}},{"base_weights":[-3.1198126E-3,-1.8474765E-2,1.9233415E-2],"categories":[],"categories_nodes":[],"categories_segments":[],"categories_sizes":[],"default_left":[0,0,0],"id":6,"left_children":[1,-1,-1],"loss_changes":[2.8201008E3,0E0,0E0],"parents":[2147483647,0,0],"right_children":[2,-1,-1],"split_conditions":[1.577601E-2,-1.8474765E-2,1.9233415E-2],"split_indices":[0,0,0],"split_type":[0,0,0],"sum_hessian":[7.9170557E2,4.0449292E2,3.8721265E2],"tree_param":{"num_deleted":"0","num_feature":"37","num_nodes":"3","size_leaf_vector":"1"}},{"base_weights":[9.747542E-3,-1.654599E0,1.775885E0,-1.768092E0,1.6818666E-1,-1.230254E-1,1.8744264E0,-1.8174534E0,-1.1507509E0,-1.4425173E0,1.4563702E0,-1.4656911E-2,1.0768453E0,1.1021876E-2,1.8840836E-2,-1.8328387E-2,-1.3554753E0,-1.4681183E0,1.08721275E-2,-1.6244384E-2,-7.3841778E-3,9.307361E-3,1.6949113E-2,-3.0409738E-3,1.6744247E-2,-1.6892165E-2,-7.6902006E-4,-1.6723484E-2,-4.8292098E-3],"categories":[],"categories_nodes":[],"categories_segments":[],"categories_sizes":[],"default_left":[0,0,0,0,0,0,0,0,0,0,0,0,0,0,0,0,0,0,0,0,0,0,0,0,0,0,0,0,0],"id":7,"left_children":[1,3,5,7,9,11,13,15,17,19,21,-1,23,-1,-1,-1,25,27,-1,-1,-1,-1,-1,-1,-1,-1,-1,-1,-1],"loss_changes":[2.3603557E3,8.5821045E1,7.312891E1,9.77063E0,5.4273315E1,3.4052864E1,6.859131E-1,6.530762E-2,2.4002285E1,2.960739E-1,2.3665428E-1,0E0,9.769315E0,0E0,0E0,0E0,6.4418926E0,4.83704E0,0E0,0E0,0E0,0E0,0E0,0E0,0E0,0E0,0E0,0E0,0E0],"parents":[2147483647,0,0,1,1,2,2,3,3,4,4,5,5,6,6,7,7,8,8,9,9,10,10,12,12,16,16,17,17],"right_children":[2,4,6,8,10,12,14,16,18,20,22,-1,24,-1,-1,-1,26,28,-1,-1,-1,-1,-1,-1,-1,-1,-1,-1,-1],"split_conditions":[2.6435152E-2,2.5016233E1,-1.6744207E1,-4.5684937E-2,-1.2980784E0,1.0169619E0,4.218455E-2,4.6449323E0,1.4283135E0,6.182915E1,3.8058777E1,-1.4656911E-2,-2.4608022E-1,1.1021876E-2,1.8840836E-2,-1.8328387E-2,-4.5233658E-1,1.8356653E-2,1.08721275E-2,-1.6244384E-2,-7.3841778E-3,9.307361E-3,1.6949113E-2,-3.0409738E-3,1.6744247E-2,-1.6892165E-2,-7.6902006E-4,-1.6723484E-2,-4.8292098E-3],"split_indices":[3,1,1,3,3,3,3,1,1,1,1,0,20,0,0,0,3,3,0,0,0,0,0,0,0,0,0,0,0],"split_type":[0,0,0,0,0,0,0,0,0,0,0,0,0,0,0,0,0,0,0,0,0,0,0,0,0,0,0,0,0],"sum_hessian":[8.0098865E2,4.124105E2,3.8857816E2,3.8826572E2,2.4144787E1,1.9157686E1,3.6942047E2,3.5771918E2,3.0546518E1,1.0676022E1,1.3468765E1,8.936323E0,1.0221363E1,5.9847875E0,3.6343567E2,3.433182E2,1.4400987E1,2.7053967E1,3.4925513E0,7.445247E0,3.2307746E0,5.7344594E0,7.7343063E0,3.2355254E0,6.985838E0,1.116536E1,3.235626E0,2.1830961E1,5.223006E0],"tree_param":{"num_deleted":"0","num_feature":"37","num_nodes":"29","size_leaf_vector":"1"}},{"base_weights":[7.2710216E-3,-1.817533E-2,1.8895185E-2],"categories":[],"categories_nodes":[],"categories_segments":[],"categories_sizes":[],"default_left":[0,0,0],"id":8,"left_children":[1,-1,-1],"loss_changes":[2.754524E3,0E0,0E0],"parents":[2147483647,0,0],"right_children":[2,-1,-1],"split_conditions":[1.577601E-2,-1.817533E-2,1.8895185E-2],"split_indices":[0,0,0],"split_type":[0,0,0],"sum_hessian":[7.999618E2,4.0619635E2,3.9376544E2],"tree_param":{"num_deleted":"0","num_feature":"37","num_nodes":"3","size_leaf_vector":"1"}},{"base_weights":[-5.3477786E-3,-1.6235616E0,1.760045E0,-1.7398828E0,4.1487464E-1,-7.6778434E-2,1.8380536E0,-1.7578629E0,-4.9510957E-3,-1.226938E0,1.4391882E0,-1.5525236E-2,9.096987E-1,8.172393E-3,1.8528325E-2,-1.7881159E-2,-9.667382E-1,-1.5221002E-2,-5.0383136E-3,9.463118E-3,1.6683498E-2,-3.867284E-3,1.6117053E-2,-1.5337209E-2,1.0168461E-2],"categories":[],"categories_nodes":[],"categories_segments":[],"categories_sizes":[],"default_left":[0,0,0,0,0,0,0,0,0,0,0,0,0,0,0,0,0,0,0,0,0,0,0,0,0],"id":9,"left_children":[1,3,5,7,9,11,13,15,-1,17,19,-1,21,-1,-1,-1,23,-1,-1,-1,-1,-1,-1,-1,-1],"loss_changes":[2.2627688E3,9.87113E1,5.441992E1,7.883911E0,4.0641754E1,2.5275988E1,3.968628E0,7.4901123E0,0E0,1.2439022E0,8.1056595E-2,0E0,1.0138681E1,0E0,0E0,0E0,1.9963413E1,0E0,0E0,0E0,0E0,0E0,0E0,0E0,0E0],"parents":[2147483647,0,0,1,1,2,2,3,3,4,4,5,5,6,6,7,7,9,9,10,10,12,12,16,16],"right_children":[2,4,6,8,10,12,14,16,-1,18,20,-1,22,-1,-1,-1,24,-1,-1,-1,-1,-1,-1,-1,-1],"split_conditions":[2.6435152E-2,2.5016233E1,-1.901268E1,1.8356653E-2,-1.3648459E0,1.0169619E0,4.218455E-2,4.6449323E0,-4.9510957E-3,6.644852E-1,-6.276769E-1,-1.5525236E-2,-1.140558E-1,8.172393E-3,1.8528325E-2,-1.7881159E-2,-2.806722E-1,-1.5221002E-2,-5.0383136E-3,9.463118E-3,1.6683498E-2,-3.867284E-3,1.6117053E-2,-1.5337209E-2,1.0168461E-2],"split_indices":[3,1,1,3,3,3,3,1,0,7,3,0,21,0,0,0,3,0,0,0,0,0,0,0,0],"split_type":[0,0,0,0,0,0,0,0,0,0,0,0,0,0,0,0,0,0,0,0,0,0,0,0,0],"sum_hessian":[7.900686E2,4.1225928E2,3.778093E2,3.9014264E2,2.2116634E1,1.5392254E1,3.6241705E2,3.8418118E2,5.9614635E0,8.421111E0,1.3695524E1,5.936938E0,9.455317E0,5.975494E0,3.5644156E2,3.6881723E2,1.53639555E1,5.195452E0,3.225659E0,5.974703E0,7.720821E0,3.479211E0,5.976105E0,1.2124976E1,3.2389793E0],"tree_param":{"num_deleted":"0","num_feature":"37","num_nodes":"25","size_leaf_vector":"1"}},{"base_weights":[-6.6056647E-3,-1.786544E-2,1.8572122E-2],"categories":[],"categories_nodes":[],"categories_segments":[],"categories_sizes":[],"default_left":[0,0,0],"id":10,"left_children":[1,-1,-1],"loss_changes":[2.6103828E3,0E0,0E0],"parents":[2147483647,0,0],"right_children":[2,-1,-1],"split_conditions":[1.577601E-2,-1.786544E-2,1.8572122E-2],"split_indices":[0,0,0],"split_type":[0,0,0],"sum_hessian":[7.8485675E2,4.014833E2,3.8337344E2],"tree_param":{"num_deleted":"0","num_feature":"37","num_nodes":"3","size_leaf_vector":"1"}},{"base_weights":[-1.3210345E-3,-4.2594516E-1,6.4193255E-1,-1.2862506E0,-2.2607915E-1,4.255093E-1,1.469847E0,-6.6262423E-3,-1.432306E0,3.786811E-1,-7.648116E-1,1.1185049E0,-7.355845E-2,1.0205309E0,1.771366E-2,-6.261126E-3,5.8537703E-3,-1.6697414E-2,-1.0345241E0,-1.0770675E-1,1.0067278E0,-1.4063361E0,-4.801933E-1,1.5488459E0,4.4240823E-1,2.9123807E-1,-5.734367E-1,1.4469389E0,2.3583691E-1,-1.2004266E-1,-1.4569598E0,6.145368E-1,-8.4416133E-1,-2.7034083E-1,1.1509514E0,-3.736993E-1,-1.5232542E0,-8.1983164E-2,-1.176566E0,1.6311101E0,9.3995535E-1,5.211846E-2,1.297189E0,-8.719261E-1,6.1109054E-1,-8.204176E-1,7.284116E-1,1.6012106E-2,5.5937725E-3,9.36867E-3,-2.8201106E-3,-8.343028E-3,5.0459905E-3,-9.008749E-3,-1.6616374E-2,1.1581061E-2,8.635979E-4,2.2472865E-3,-1.2210326E-2,4.318294E-3,-7.966667E-3,1.3882814E-2,2.589834E-3,3.4909977E-3,-9.744943E-3,-5.1135872E-3,-1.5906E-2,4.9911025E-3,-5.536205E-3,3.1629403E-3,-1.2977549E-2,9.373686E-3,1.6966505E-2,1.2653292E-3,1.4052852E-2,5.450552E-3,-6.92919E-3,1.47915585E-2,5.6129554E-3,-1.1388537E-2,2.3810393E-3,8.48343E-3,-1.826222E-3,-4.7905487E-3,-1.4363317E-2,1.0395026E-2,1.3112937E-3],"categories":[],"categories_nodes":[],"categories_segments":[],"categories_sizes":[],"default_left":[0,0,0,0,0,0,0,0,0,0,0,0,0,0,0,0,0,0,0,0,0,0,0,0,0,0,0,0,0,0,0,0,0,0,0,0,0,0,0,0,0,0,0,0,0,0,0,0,0,0,0,0,0,0,0,0,0,0,0,0,0,0,0,0,0,0,0,0,0,0,0,0,0,0,0,0,0,0,0,0,0,0,0,0,0,0,0],"id":11,"left_children":[1,3,5,7,9,11,13,15,17,19,21,23,25,27,-1,-1,-1,-1,29,31,33,35,37,39,41,43,45,47,49,51,53,55,57,59,61,63,65,67,69,71,73,75,77,79,81,83,85,-1,-1,-1,-1,-1,-1,-1,-1,-1,-1,-1,-1,-1,-1,-1,-1,-1,-1,-1,-1,-1,-1,-1,-1,-1,-1,-1,-1,-1,-1,-1,-1,-1,-1,-1,-1,-1,-1,-1,-1],"loss_changes":[2.1515027E2,8.129331E1,5.5496002E1,1.6668365E1,1.26128044E2,8.644542E1,6.93071E0,4.087632E0,5.8368683E0,5.5899506E1,3.6682922E1,2.9750015E1,2.6809977E1,9.11504E0,0E0,0E0,0E0,0E0,1.2405254E1,5.574585E1,1.5010391E1,6.95961E0,3.9625263E1,1.6485443E0,1.3972617E1,3.2204166E1,2.0525248E1,1.5849113E0,4.310179E0,5.498065E0,1.0281715E0,1.5116169E1,2.1153477E1,3.636215E0,1.4860916E1,3.669815E0,2.9818573E0,2.5546814E1,9.824913E0,8.9216614E-1,3.5771608E0,1.1371453E1,9.30727E-1,5.8333654E0,1.2838814E1,1.03636055E1,1.7984796E0,0E0,0E0,0E0,0E0,0E0,0E0,0E0,0E0,0E0,0E0,0E0,0E0,0E0,0E0,0E0,0E0,0E0,0E0,0E0,0E0,0E0,0E0,0E0,0E0,0E0,0E0,0E0,0E0,0E0,0E0,0E0,0E0,0E0,0E0,0E0,0E0,0E0,0E0,0E0,0E0],"parents":[2147483647,0,0,1,1,2,2,3,3,4,4,5,5,6,6,7,7,8,8,9,9,10,10,11,11,12,12,13,13,18,18,19,19,20,20,21,21,22,22,23,23,24,24,25,25,26,26,27,27,28,28,29,29,30,30,31,31,32,32,33,33,34,34,35,35,36,36,37,37,38,38,39,39,40,40,41,41,42,42,43,43,44,44,45,45,46,46],"right_children":[2,4,6,8,10,12,14,16,18,20,22,24,26,28,-1,-1,-1,-1,30,32,34,36,38,40,42,44,46,48,50,52,54,56,58,60,62,64,66,68,70,72,74,76,78,80,82,84,86,-1,-1,-1,-1,-1,-1,-1,-1,-1,-1,-1,-1,-1,-1,-1,-1,-1,-1,-1,-1,-1,-1,-1,-1,-1,-1,-1,-1,-1,-1,-1,-1,-1,-1,-1,-1,-1,-1,-1,-1],"split_conditions":[1.9489507E-1,-6.7592543E-1,8.344898E-1,-5E-1,-3.0925515E-1,4.4676808E-1,8.846834E-1,0E0,-7.393601E-1,-4.563752E-1,-2.7202097E-1,4.2243466E-1,2.7769905E-1,9.273139E-1,1.771366E-2,-6.261126E-3,5.8537703E-3,-1.6697414E-2,-7.5361896E-1,-6.0944986E-1,-5.727149E-1,-5E-1,2.2307993E-1,4.0728587E-1,3.5546026E-1,4.70554E-1,1.016257E0,1.4138306E0,3.85637E-1,-1.0850283E0,-6.9202334E-1,-2.126507E-1,-7.529418E-1,-1.9618149E-1,6.031734E-1,2.2865504E-1,-1.8990979E0,-5.250177E-2,-1.6417376E0,1.1156375E-1,3.7116945E-1,-1.3281244E-2,1.8961221E0,8.961432E-1,8.322876E-1,7.749848E-1,8.518843E-1,1.6012106E-2,5.5937725E-3,9.36867E-3,-2.8201106E-3,-8.343028E-3,5.0459905E-3,-9.008749E-3,-1.6616374E-2,1.1581061E-2,8.635979E-4,2.2472865E-3,-1.2210326E-2,4.318294E-3,-7.966667E-3,1.3882814E-2,2.589834E-3,3.4909977E-3,-9.744943E-3,-5.1135872E-3,-1.5906E-2,4.9911025E-3,-5.536205E-3,3.1629403E-3,-1.2977549E-2,9.373686E-3,1.6966505E-2,1.2653292E-3,1.4052852E-2,5.450552E-3,-6.92919E-3,1.47915585E-2,5.6129554E-3,-1.1388537E-2,2.3810393E-3,8.48343E-3,-1.826222E-3,-4.7905487E-3,-1.4363317E-2,1.0395026E-2,1.3112937E-3],"split_indices":[15,16,16,31,17,17,16,34,16,16,15,4,4,17,0,0,0,0,17,17,15,31,17,17,29,16,15,4,4,15,17,4,4,4,4,8,4,4,4,20,16,8,4,14,17,17,17,0,0,0,0,0,0,0,0,0,0,0,0,0,0,0,0,0,0,0,0,0,0,0,0,0,0,0,0,0,0,0,0,0,0,0,0,0,0,0,0],"split_type":[0,0,0,0,0,0,0,0,0,0,0,0,0,0,0,0,0,0,0,0,0,0,0,0,0,0,0,0,0,0,0,0,0,0,0,0,0,0,0,0,0,0,0,0,0,0,0,0,0,0,0,0,0,0,0,0,0,0,0,0,0,0,0,0,0,0,0,0,0,0,0,0,0,0,0,0,0,0,0,0,0,0,0,0,0,0,0],"sum_hessian":[7.856884E2,4.7347574E2,3.1221268E2,8.823603E1,3.8523972E2,2.487115E2,6.350116E1,9.146537E0,7.908949E1,1.8163753E2,2.0360219E2,1.0360562E2,1.4510588E2,2.726146E1,3.62397E1,4.441367E0,4.7051697E0,4.752454E1,3.156495E1,1.02829895E2,7.8807625E1,6.1358997E1,1.422432E2,6.2520157E1,4.108546E1,8.412864E1,6.097724E1,1.711636E1,1.0145099E1,1.0379581E1,2.118537E1,5.1999428E1,5.083047E1,7.908156E0,7.089947E1,6.6674457E0,5.469155E1,9.12061E1,5.1037086E1,5.3599743E1,8.920416E0,2.8934875E1,1.2150586E1,1.7772343E1,6.63563E1,5.1564465E1,9.412776E0,1.3896827E1,3.2195342E0,3.9664342E0,6.1786647E0,4.685824E0,5.6937575E0,7.1529884E0,1.4032381E1,2.5038548E1,2.6960878E1,1.3355376E1,3.7475094E1,3.4650202E0,4.4431357E0,5.5559948E1,1.5339521E1,3.216593E0,3.4508529E0,3.9490333E0,5.0742516E1,4.083545E1,5.0370655E1,3.7111776E0,4.7325912E1,5.9475393E0,4.7652203E1,3.708927E0,5.2114887E0,1.7575123E1,1.1359754E1,8.93194E0,3.2186458E0,1.4306186E1,3.466157E0,5.1032963E1,1.5323335E1,3.4320534E1,1.724393E1,5.7023516E0,3.710425E0],"tree_param":{"num_deleted":"0","num_feature":"37","num_nodes":"87","size_leaf_vector":"1"}},{"base_weights":[6.687884E-3,-1.7664887E-2,1.8352441E-2],"categories":[],"categories_nodes":[],"categories_segments":[],"categories_sizes":[],"default_left":[0,0,0],"id":12,"left_children":[1,-1,-1],"loss_changes":[2.5735198E3,0E0,0E0],"parents":[2147483647,0,0],"right_children":[2,-1,-1],"split_conditions":[1.577601E-2,-1.7664887E-2,1.8352441E-2],"split_indices":[0,0,0],"split_type":[0,0,0],"sum_hessian":[7.917198E2,4.0196378E2,3.8975598E2],"tree_param":{"num_deleted":"0","num_feature":"37","num_nodes":"3","size_leaf_vector":"1"}},{"base_weights":[2.0511908E-2,-1.7530333E-2,1.8201733E-2],"categories":[],"categories_nodes":[],"categories_segments":[],"categories_sizes":[],"default_left":[0,0,0],"id":13,"left_children":[1,-1,-1],"loss_changes":[2.522973E3,0E0,0E0],"parents":[2147483647,0,0],"right_children":[2,-1,-1],"split_conditions":[1.577601E-2,-1.7530333E-2,1.8201733E-2],"split_indices":[0,0,0],"split_type":[0,0,0],"sum_hessian":[7.884596E2,3.9712424E2,3.9133536E2],"tree_param":{"num_deleted":"0","num_feature":"37","num_nodes":"3","size_leaf_vector":"1"}},{"base_weights":[2.1570727E-2,-1.7449154E-2,1.8052442E-2],"categories":[],"categories_nodes":[],"categories_segments":[],"categories_sizes":[],"default_left":[0,0,0],"id":14,"left_children":[1,-1,-1],"loss_changes":[2.4830142E3,0E0,0E0],"parents":[2147483647,0,0],"right_children":[2,-1,-1],"split_conditions":[1.577601E-2,-1.7449154E-2,1.8052442E-2],"split_indices":[0,0,0],"split_type":[0,0,0],"sum_hessian":[7.860498E2,3.9493857E2,3.9111124E2],"tree_param":{"num_deleted":"0","num_feature":"37","num_nodes":"3","size_leaf_vector":"1"}},{"base_weights":[2.018009E-2,-1.5643181E0,1.6739902E0,-1.6641378E0,7.0051745E-2,-5.467247E-2,1.7597744E0,-1.7113348E0,-1.1233342E0,-1.41514335E-2,1.1832147E0,-1.3636766E-2,1.0727473E0,1.0663708E0,1.7711049E-2,-1.7287664E-2,-1.1724447E0,-1.4361587E0,1.0798777E-2,4.0004966E-3,1.5225846E-2,-7.584844E-4,1.5635693E-2,3.232106E-3,1.4634398E-2,-1.5711408E-2,3.2883583E-4,-1.595838E-2,-5.6725917E-3],"categories":[],"categories_nodes":[],"categories_segments":[],"categories_sizes":[],"default_left":[0,0,0,0,0,0,0,0,0,0,0,0,0,0,0,0,0,0,0,0,0,0,0,0,0,0,0,0,0],"id":15,"left_children":[1,3,5,7,9,11,13,15,17,-1,19,-1,21,23,-1,-1,25,27,-1,-1,-1,-1,-1,-1,-1,-1,-1,-1,-1],"loss_changes":[2.0648254E3,6.5768555E1,5.7269165E1,7.758911E0,4.1555923E1,2.9794872E1,9.974365E-1,1.2321777E0,2.4540154E1,0E0,3.2003613E0,0E0,6.248865E0,2.0113945E0,0E0,0E0,6.7691555E0,3.2068253E0,0E0,0E0,0E0,0E0,0E0,0E0,0E0,0E0,0E0,0E0,0E0],"parents":[2147483647,0,0,1,1,2,2,3,3,4,4,5,5,6,6,7,7,8,8,10,10,12,12,13,13,16,16,17,17],"right_children":[2,4,6,8,10,12,14,16,18,-1,20,-1,22,24,-1,-1,26,28,-1,-1,-1,-1,-1,-1,-1,-1,-1,-1,-1],"split_conditions":[2.6435152E-2,2.3047579E1,-1.6744207E1,-4.5684937E-2,-1.2980784E0,1.0169619E0,4.218455E-2,4.6449323E0,1.5565071E0,-1.41514335E-2,3.3652782E1,-1.3636766E-2,-1.4887121E-1,-3.6464888E-1,1.7711049E-2,-1.7287664E-2,-4.5233658E-1,1.2164591E-1,1.0798777E-2,4.0004966E-3,1.5225846E-2,-7.584844E-4,1.5635693E-2,3.232106E-3,1.4634398E-2,-1.5711408E-2,3.2883583E-4,-1.595838E-2,-5.6725917E-3],"split_indices":[3,1,1,3,3,3,3,1,1,0,1,0,25,27,0,0,3,1,0,0,0,0,0,0,0,0,0,0,0],"split_type":[0,0,0,0,0,0,0,0,0,0,0,0,0,0,0,0,0,0,0,0,0,0,0,0,0,0,0,0,0],"sum_hessian":[7.859639E2,4.014209E2,3.8454306E2,3.78298E2,2.3122887E1,1.8197754E1,3.663453E2,3.4594244E2,3.2355568E1,9.78986E0,1.3333028E1,8.323778E0,9.873977E0,7.419222E0,3.589261E2,3.3296396E2,1.2978474E1,2.8637592E1,3.7179756E0,4.6896086E0,8.643419E0,3.2092729E0,6.664704E0,3.2153385E0,4.2038836E0,9.524487E0,3.453988E0,2.3485075E1,5.152518E0],"tree_param":{"num_deleted":"0","num_feature":"37","num_nodes":"29","size_leaf_vector":"1"}},{"base_weights":[-7.457891E-4,-1.7175768E-2,1.7773958E-2],"categories":[],"categories_nodes":[],"categories_segments":[],"categories_sizes":[],"default_left":[0,0,0],"id":16,"left_children":[1,-1,-1],"loss_changes":[2.3796538E3,0E0,0E0],"parents":[2147483647,0,0],"right_children":[2,-1,-1],"split_conditions":[1.577601E-2,-1.7175768E-2,1.7773958E-2],"split_indices":[0,0,0],"split_type":[0,0,0],"sum_hessian":[7.775068E2,3.9559045E2,3.8191635E2],"tree_param":{"num_deleted":"0","num_feature":"37","num_nodes":"3","size_leaf_vector":"1"}},{"base_weights":[1.0897862E-2,-1.7026786E-2,1.7637577E-2],"categories":[],"categories_nodes":[],"categories_segments":[],"categories_sizes":[],"default_left":[0,0,0],"id":17,"left_children":[1,-1,-1],"loss_changes":[2.3274795E3,0E0,0E0],"parents":[2147483647,0,0],"right_children":[2,-1,-1],"split_conditions":[1.577601E-2,-1.7026786E-2,1.7637577E-2],"split_indices":[0,0,0],"split_type":[0,0,0],"sum_hessian":[7.728815E2,3.9083456E2,3.820469E2],"tree_param":{"num_deleted":"0","num_feature":"37","num_nodes":"3","size_leaf_vector":"1"}},{"base_weights":[-7.2998195E-3,-1.6908037E-2,1.7500645E-2],"categories":[],"categories_nodes":[],"categories_segments":[],"categories_sizes":[],"default_left":[0,0,0],"id":18,"left_children":[1,-1,-1],"loss_changes":[2.3150378E3,0E0,0E0],"parents":[2147483647,0,0],"right_children":[2,-1,-1],"split_conditions":[1.577601E-2,-1.6908037E-2,1.7500645E-2],"split_indices":[0,0,0],"split_type":[0,0,0],"sum_hessian":[7.8049585E2,3.986442E2,3.8185168E2],"tree_param":{"num_deleted":"0","num_feature":"37","num_nodes":"3","size_leaf_vector":"1"}},{"base_weights":[1.5764959E-3,-1.5226613E0,1.6143849E0,-1.6185523E0,2.3057906E-1,-9.417631E-2,1.7031846E0,-1.6379815E0,-4.1991037E-1,-1.1637162E0,1.2760504E0,-1.4169857E-2,9.9646777E-1,8.459004E-3,1.7145442E-2,-1.666871E-2,-8.72045E-1,-8.862044E-3,1.4421105E-3,-1.4368852E-2,-4.5503895E-3,6.841465E-3,1.532452E-2,-6.026877E-4,1.5155708E-2,-1.4182392E-2,9.468908E-3],"categories":[],"categories_nodes":[],"categories_segments":[],"categories_sizes":[],"default_left":[0,0,0,0,0,0,0,0,0,0,0,0,0,0,0,0,0,0,0,0,0,0,0,0,0,0,0],"id":19,"left_children":[1,3,5,7,9,11,13,15,17,19,21,-1,23,-1,-1,-1,25,-1,-1,-1,-1,-1,-1,-1,-1,-1,-1],"loss_changes":[1.9017001E3,6.723663E1,5.7187256E1,8.096985E0,3.2824818E1,2.9570435E1,2.0297852E0,6.7524414E0,2.0642388E0,1.230916E0,8.8866615E-1,0E0,6.281639E0,0E0,0E0,0E0,1.6818056E1,0E0,0E0,0E0,0E0,0E0,0E0,0E0,0E0,0E0,0E0],"parents":[2147483647,0,0,1,1,2,2,3,3,4,4,5,5,6,6,7,7,8,8,9,9,10,10,12,12,16,16],"right_children":[2,4,6,8,10,12,14,16,18,20,22,-1,24,-1,-1,-1,26,-1,-1,-1,-1,-1,-1,-1,-1,-1,-1],"split_conditions":[2.6435152E-2,2.5016233E1,-1.6744207E1,1.8356653E-2,-1.2980784E0,1.0169619E0,4.218455E-2,4.6449323E0,3.2158732E-1,-1.7297987E-2,3.8058777E1,-1.4169857E-2,-1.140558E-1,8.459004E-3,1.7145442E-2,-1.666871E-2,-2.806722E-1,-8.862044E-3,1.4421105E-3,-1.4368852E-2,-4.5503895E-3,6.841465E-3,1.532452E-2,-6.026877E-4,1.5155708E-2,-1.4182392E-2,9.468908E-3],"split_indices":[3,1,1,3,3,3,3,1,26,16,1,0,21,0,0,0,3,0,0,0,0,0,0,0,0,0,0],"split_type":[0,0,0,0,0,0,0,0,0,0,0,0,0,0,0,0,0,0,0,0,0,0,0,0,0,0,0],"sum_hessian":[7.7158234E2,3.9671225E2,3.7487012E2,3.7621265E2,2.0499588E1,1.8517693E1,3.5635242E2,3.6985107E2,6.3615828E0,8.735871E0,1.1763717E1,8.232961E0,1.0284731E1,5.647105E0,3.5070532E2,3.5527457E2,1.4576505E1,3.170199E0,3.1913838E0,5.5637074E0,3.1721637E0,4.6643386E0,7.099378E0,3.679099E0,6.605632E0,1.137968E1,3.196825E0],"tree_param":{"num_deleted":"0","num_feature":"37","num_nodes":"27","size_leaf_vector":"1"}},{"base_weights":[9.3849795E-3,-1.5078633E0,1.62066E0,-1.6164997E0,-8.7392294E-1,1.6953724E-2,1.1139675E0,-1.6415011E-2,-4.237687E-1,-1.4709028E0,-1.6198957E-1,-1.193884E-2,1.436283E0,-9.960314E-3,3.0335218E-3,-1.5825028E-2,-7.836954E-3,7.015234E-1,-5.183384E-1,2.2380108E-4,1.5502313E0,-5.8595435E-4,1.2511215E-2,-1.0636863E0,4.341949E-1,5.900696E-3,1.6197933E-2,-1.2666259E-2,-3.5248261E-3,1.0497125E-2,-3.5167509E-3],"categories":[],"categories_nodes":[],"categories_segments":[],"categories_sizes":[],"default_left":[0,0,0,0,0,0,0,0,0,0,0,0,0,0,0,0,0,0,0,0,0,0,0,0,0,0,0,0,0,0,0],"id":20,"left_children":[1,3,5,7,9,-1,11,-1,13,15,17,-1,19,-1,-1,-1,-1,21,23,-1,25,-1,-1,27,29,-1,-1,-1,-1,-1,-1],"loss_changes":[1.8923776E3,2.6043518E1,1.2322632E1,9.418457E0,2.547533E1,0E0,3.9767635E1,0E0,3.760624E0,1.2740479E0,9.20038E0,0E0,7.270302E0,0E0,0E0,0E0,0E0,3.755436E0,1.13205E1,0E0,1.8457565E0,0E0,0E0,1.5139799E0,4.39403E0,0E0,0E0,0E0,0E0,0E0,0E0],"parents":[2147483647,0,0,1,1,2,2,3,3,4,4,6,6,8,8,9,9,10,10,12,12,17,17,18,18,20,20,23,23,24,24],"right_children":[2,4,6,8,10,-1,12,-1,14,16,18,-1,20,-1,-1,-1,-1,22,24,-1,26,-1,-1,28,30,-1,-1,-1,-1,-1,-1],"split_conditions":[2.6435152E-2,7.0710677E-1,7.0710677E-1,1.0279329E-2,-2.245642E-1,1.6953724E-2,-5.483787E-1,-1.6415011E-2,-1.04236044E-1,-4.212938E-1,-1.6248924E-1,-1.193884E-2,2.4460424E-1,-9.960314E-3,3.0335218E-3,-1.5825028E-2,-7.836954E-3,-6.681888E-2,3.8923123E-1,2.2380108E-4,6.025512E-1,-5.8595435E-4,1.2511215E-2,2.8924307E-1,3.381614E-1,5.900696E-3,1.6197933E-2,-1.2666259E-2,-3.5248261E-3,1.0497125E-2,-3.5167509E-3],"split_indices":[3,31,31,3,20,0,22,0,15,22,17,0,3,0,0,0,0,20,22,0,2,0,0,22,6,0,0,0,0,0,0],"split_type":[0,0,0,0,0,0,0,0,0,0,0,0,0,0,0,0,0,0,0,0,0,0,0,0,0,0,0,0,0,0,0],"sum_hessian":[7.720727E2,3.976716E2,3.744011E2,3.381704E2,5.950118E1,3.2424484E2,5.015623E1,3.3085886E2,7.3115635E0,3.1783548E1,2.7717628E1,5.815053E0,4.434118E1,3.884519E0,3.4270446E0,2.6222334E1,5.5612144E0,7.8139753E0,1.9903654E1,3.3962302E0,4.094495E1,3.6538801E0,4.160095E0,1.2582934E1,7.3207192E0,3.4065845E0,3.7538364E1,9.181937E0,3.4009972E0,3.9170394E0,3.4036796E0],"tree_param":{"num_deleted":"0","num_feature":"37","num_nodes":"31","size_leaf_vector":"1"}},{"base_weights":[-9.149696E-3,-1.5045525E0,1.6006151E0,-1.6074089E0,2.1781997E-1,-8.872448E-2,1.67841E0,-1.6249588E0,-3.8000008E-3,-1.2685272E0,1.3113046E0,-1.3829953E-2,1.0423265E0,9.279867E-3,1.6873393E-2,-1.6447248E-2,-9.3187565E-1,-1.4455068E-2,-6.545582E-3,5.8528874E-3,1.4919602E-2,1.2942526E-3,1.463166E-2,-1.4890388E-2,4.324339E-3],"categories":[],"categories_nodes":[],"categories_segments":[],"categories_sizes":[],"default_left":[0,0,0,0,0,0,0,0,0,0,0,0,0,0,0,0,0,0,0,0,0,0,0,0,0],"id":21,"left_children":[1,3,5,7,9,11,13,15,-1,17,19,-1,21,-1,-1,-1,23,-1,-1,-1,-1,-1,-1,-1,-1],"loss_changes":[1.8534482E3,7.106201E1,4.887976E1,7.498535E0,3.965262E1,2.6727903E1,8.0981445E-1,3.552002E0,0E0,1.8557167E-1,9.5752335E-1,0E0,3.571107E0,0E0,0E0,0E0,1.0220838E1,0E0,0E0,0E0,0E0,0E0,0E0,0E0,0E0],"parents":[2147483647,0,0,1,1,2,2,3,3,4,4,5,5,6,6,7,7,9,9,10,10,12,12,16,16],"right_children":[2,4,6,8,10,12,14,16,-1,18,20,-1,22,-1,-1,-1,24,-1,-1,-1,-1,-1,-1,-1,-1],"split_conditions":[2.6435152E-2,2.3047579E1,-1.6744207E1,1.8356653E-2,-1.2980784E0,1.0169619E0,4.218455E-2,5.100385E0,-3.8000008E-3,-1.6081838E-1,-1.0718687E-1,-1.3829953E-2,-1.7918977E-1,9.279867E-3,1.6873393E-2,-1.6447248E-2,-5.1226074E-1,-1.4455068E-2,-6.545582E-3,5.8528874E-3,1.4919602E-2,1.2942526E-3,1.463166E-2,-1.4890388E-2,4.324339E-3],"split_indices":[3,1,1,3,3,3,3,1,0,18,10,0,11,0,0,0,3,0,0,0,0,0,0,0,0],"split_type":[0,0,0,0,0,0,0,0,0,0,0,0,0,0,0,0,0,0,0,0,0,0,0,0,0],"sum_hessian":[7.679448E2,3.9814786E2,3.6979697E2,3.7577417E2,2.2373686E1,1.6273455E1,3.5352353E2,3.7015765E2,5.616522E0,9.415435E0,1.2958251E1,7.4852586E0,8.788196E0,5.3909936E0,3.4813254E2,3.585588E2,1.1598853E1,6.257355E0,3.15808E0,3.4267395E0,9.531511E0,3.1855407E0,5.6026554E0,8.170659E0,3.428195E0],"tree_param":{"num_deleted":"0","num_feature":"37","num_nodes":"25","size_leaf_vector":"1"}},{"base_weights":[8.436125E-3,-1.6495978E-2,1.7022716E-2],"categories":[],"categories_nodes":[],"categories_segments":[],"categories_sizes":[],"default_left":[0,0,0],"id":22,"left_children":[1,-1,-1],"loss_changes":[2.1430571E3,0E0,0E0],"parents":[2147483647,0,0],"right_children":[2,-1,-1],"split_conditions":[1.577601E-2,-1.6495978E-2,1.7022716E-2],"split_indices":[0,0,0],"split_type":[0,0,0],"sum_hessian":[7.610784E2,3.8461697E2,3.764615E2],"tree_param":{"num_deleted":"0","num_feature":"37","num_nodes":"3","size_leaf_vector":"1"}},{"base_weights":[-1.0716796E-3,-1.477391E0,1.579428E0,-1.5772653E0,1.3779631E-1,4.925094E-3,1.6551405E0,-1.5990928E0,-1.1215601E-3,-1.3490146E-2,1.2480276E0,-1.4478877E-2,9.8337466E-1,6.843084E-3,1.6687365E-2,-1.6201317E-2,-1.1237164E0,5.0717723E-3,1.4124374E-2,-2.820773E-3,1.5018656E-2,-1.4430117E-2,3.5762787E-3],"categories":[],"categories_nodes":[],"categories_segments":[],"categories_sizes":[],"default_left":[0,0,0,0,0,0,0,0,0,0,0,0,0,0,0,0,0,0,0,0,0,0,0],"id":23,"left_children":[1,3,5,7,9,11,13,15,-1,-1,17,-1,19,-1,-1,-1,21,-1,-1,-1,-1,-1,-1],"loss_changes":[1.8067236E3,6.480029E1,4.45719E1,1.1880798E1,4.1686058E1,2.7239115E1,3.567627E0,1.8950195E0,0E0,0E0,1.0367813E0,0E0,7.9346113E0,0E0,0E0,0E0,9.50695E0,0E0,0E0,0E0,0E0,0E0,0E0],"parents":[2147483647,0,0,1,1,2,2,3,3,4,4,5,5,6,6,7,7,10,10,12,12,16,16],"right_children":[2,4,6,8,10,12,14,16,-1,-1,18,-1,20,-1,-1,-1,22,-1,-1,-1,-1,-1,-1],"split_conditions":[2.6435152E-2,2.3047579E1,-1.6744207E1,1.8356653E-2,-1.2980784E0,1.0169619E0,4.218455E-2,3.7305498E0,-1.1215601E-3,-1.3490146E-2,2.7489563E1,-1.4478877E-2,-5.2461445E-1,6.843084E-3,1.6687365E-2,-1.6201317E-2,-1.8225567E-1,5.0717723E-3,1.4124374E-2,-2.820773E-3,1.5018656E-2,-1.4430117E-2,3.5762787E-3],"split_indices":[3,1,1,3,3,3,3,1,0,0,1,0,19,0,0,0,3,0,0,0,0,0,0],"split_type":[0,0,0,0,0,0,0,0,0,0,0,0,0,0,0,0,0,0,0,0,0,0,0],"sum_hessian":[7.723138E2,3.9935135E2,3.7296246E2,3.7611777E2,2.3233574E1,1.7160553E1,3.558019E2,3.7050644E2,5.611346E0,9.84037E0,1.3393204E1,6.713096E0,1.0447457E1,5.6229525E0,3.5017896E2,3.5249768E2,1.8008766E1,3.1742945E0,1.0218909E1,3.1690066E0,7.278451E0,1.483668E1,3.1720867E0],"tree_param":{"num_deleted":"0","num_feature":"37","num_nodes":"23","size_leaf_vector":"1"}},{"base_weights":[-7.820868E-3,-1.6318236E-2,1.6794976E-2],"categories":[],"categories_nodes":[],"categories_segments":[],"categories_sizes":[],"default_left":[0,0,0],"id":24,"left_children":[1,-1,-1],"loss_changes":[2.0991326E3,0E0,0E0],"parents":[2147483647,0,0],"right_children":[2,-1,-1],"split_conditions":[1.577601E-2,-1.6318236E-2,1.6794976E-2],"split_indices":[0,0,0],"split_type":[0,0,0],"sum_hessian":[7.640479E2,3.893454E2,3.747025E2],"tree_param":{"num_deleted":"0","num_feature":"37","num_nodes":"3","size_leaf_vector":"1"}},{"base_weights":[-3.1724428E-3,-1.6194815E-2,1.6685165E-2],"categories":[],"categories_nodes":[],"categories_segments":[],"categories_sizes":[],"default_left":[0,0,0],"id":25,"left_children":[1,-1,-1],"loss_changes":[2.0771094E3,0E0,0E0],"parents":[2147483647,0,0],"right_children":[2,-1,-1],"split_conditions":[1.577601E-2,-1.6194815E-2,1.6685165E-2],"split_indices":[0,0,0],"split_type":[0,0,0],"sum_hessian":[7.6674E2,3.8984302E2,3.76897E2],"tree_param":{"num_deleted":"0","num_feature":"37","num_nodes":"3","size_leaf_vector":"1"}},{"base_weights":[3.7586216E-3,-1.6093476E-2,1.6570253E-2],"categories":[],"categories_nodes":[],"categories_segments":[],"categories_sizes":[],"default_left":[0,0,0],"id":26,"left_children":[1,-1,-1],"loss_changes":[2.0130913E3,0E0,0E0],"parents":[2147483647,0,0],"right_children":[2,-1,-1],"split_conditions":[1.577601E-2,-1.6093476E-2,1.6570253E-2],"split_indices":[0,0,0],"split_type":[0,0,0],"sum_hessian":[7.528446E2,3.8106393E2,3.717807E2],"tree_param":{"num_deleted":"0","num_feature":"37","num_nodes":"3","size_leaf_vector":"1"}},{"base_weights":[1.736416E-2,-5.977861E-1,3.6670274E-1,-1.4556882E0,-3.8441476E-1,2.2868803E-1,1.327041E0,-9.203166E-1,-1.5623388E-2,2.3314287E-1,-6.73201E-1,4.4318232E-1,-2.2994019E-1,1.5900414E-3,1.4117328E0,-1.0376452E-3,-1.3815992E-2,-8.19743E-1,3.7699848E-1,-3.8963607E-1,-1.1941589E0,2.4408956E-1,8.290768E-1,3.341584E-1,-3.895621E-1,1.4672137E0,4.9993014E-3,-1.2655982E-2,-2.5986747E-3,6.200923E-1,-4.3518507E-1,-7.6701856E-1,9.7630754E-2,2.9535678E-3,-1.3065724E0,6.521628E-1,-1.7413385E-1,5.048544E-1,1.2605932E0,8.8763964E-1,1.7210945E-2,6.2814456E-1,-4.863474E-1,7.7874665E-3,1.5150524E-2,9.230238E-3,2.0434654E-3,5.1091835E-3,-7.890021E-3,3.669499E-4,-9.28749E-3,3.975683E-3,-4.7430745E-3,-1.42907845E-2,-2.1597403E-3,7.4950173E-3,-6.5664616E-3,3.0242386E-3,-4.979355E-3,8.107743E-3,7.570245E-4,1.4391329E-2,4.55998E-3,1.2038623E-2,2.5934302E-3,-4.103659E-3,6.6416394E-3,-5.3404924E-4,9.487609E-3,3.0028815E-3,-5.8260034E-3],"categories":[],"categories_nodes":[],"categories_segments":[],"categories_sizes":[],"default_left":[0,0,0,0,0,0,0,0,0,0,0,0,0,0,0,0,0,0,0,0,0,0,0,0,0,0,0,0,0,0,0,0,0,0,0,0,0,0,0,0,0,0,0,0,0,0,0,0,0,0,0,0,0,0,0,0,0,0,0,0,0,0,0,0,0,0,0,0,0,0,0],"id":27,"left_children":[1,3,5,7,9,11,13,15,-1,17,19,21,23,-1,25,-1,-1,27,29,31,33,35,37,39,41,43,-1,-1,-1,45,47,49,51,-1,53,55,57,59,61,63,65,67,69,-1,-1,-1,-1,-1,-1,-1,-1,-1,-1,-1,-1,-1,-1,-1,-1,-1,-1,-1,-1,-1,-1,-1,-1,-1,-1,-1,-1],"loss_changes":[1.6533641E2,5.0453392E1,6.473152E1,1.7109451E0,4.0200676E1,4.242502E1,5.85421E0,4.223793E0,0E0,1.1257622E1,2.2173317E1,2.2345097E1,1.2533865E1,0E0,2.1584778E0,0E0,0E0,1.9187574E0,1.2961308E1,1.8595497E1,9.34906E0,3.3395607E1,1.3279282E1,5.4090037E0,1.0926933E1,5.779648E-1,0E0,0E0,0E0,6.0941124E0,5.556692E0,7.4265556E0,7.881737E0,0E0,6.365982E0,1.3093746E1,1.5133795E1,7.6136656E0,5.3776245E0,1.920846E0,5.9935107E0,2.1923137E0,7.673254E0,0E0,0E0,0E0,0E0,0E0,0E0,0E0,0E0,0E0,0E0,0E0,0E0,0E0,0E0,0E0,0E0,0E0,0E0,0E0,0E0,0E0,0E0,0E0,0E0,0E0,0E0,0E0,0E0],"parents":[2147483647,0,0,1,1,2,2,3,3,4,4,5,5,6,6,7,7,9,9,10,10,11,11,12,12,14,14,17,17,18,18,19,19,20,20,21,21,22,22,23,23,24,24,25,25,29,29,30,30,31,31,32,32,34,34,35,35,36,36,37,37,38,38,39,39,40,40,41,41,42,42],"right_children":[2,4,6,8,10,12,14,16,-1,18,20,22,24,-1,26,-1,-1,28,30,32,34,36,38,40,42,44,-1,-1,-1,46,48,50,52,-1,54,56,58,60,62,64,66,68,70,-1,-1,-1,-1,-1,-1,-1,-1,-1,-1,-1,-1,-1,-1,-1,-1,-1,-1,-1,-1,-1,-1,-1,-1,-1,-1,-1,-1],"split_conditions":[-2.7202097E-1,-7.393601E-1,8.344898E-1,-4.5518905E-1,-6.8126196E-1,4.296405E-1,-5.53332E-1,-8.847105E-1,-1.5623388E-2,-9.9835396E-1,3.267171E-1,4.063449E-1,-6.813594E-1,1.5900414E-3,2.6847296E0,-1.0376452E-3,-1.3815992E-2,-7.611063E-2,-2.2232446E-1,9.454255E-2,-1.7273735E0,6.516632E-2,2.2405602E-1,8.3357507E-1,-1.3764966E0,-3.9302468E-1,4.9993014E-3,-1.2655982E-2,-2.5986747E-3,3.2522404E-1,-7.528769E-1,-5E-1,4.3609682E-2,2.9535678E-3,-2.4608022E-1,1.6111996E0,-2.3827083E-1,7.459806E-1,9.1501087E-1,6.0055632E-2,4.73243E-1,3.7474725E-2,-3.697347E-1,7.7874665E-3,1.5150524E-2,9.230238E-3,2.0434654E-3,5.1091835E-3,-7.890021E-3,3.669499E-4,-9.28749E-3,3.975683E-3,-4.7430745E-3,-1.42907845E-2,-2.1597403E-3,7.4950173E-3,-6.5664616E-3,3.0242386E-3,-4.979355E-3,8.107743E-3,7.570245E-4,1.4391329E-2,4.55998E-3,1.2038623E-2,2.5934302E-3,-4.103659E-3,6.6416394E-3,-5.3404924E-4,9.487609E-3,3.0028815E-3,-5.8260034E-3],"split_indices":[15,16,16,2,4,4,2,21,0,25,2,15,6,0,26,0,0,26,11,26,23,21,2,4,5,2,0,0,0,27,8,31,6,0,20,5,26,14,26,23,20,2,11,0,0,0,0,0,0,0,0,0,0,0,0,0,0,0,0,0,0,0,0,0,0,0,0,0,0,0,0],"split_type":[0,0,0,0,0,0,0,0,0,0,0,0,0,0,0,0,0,0,0,0,0,0,0,0,0,0,0,0,0,0,0,0,0,0,0,0,0,0,0,0,0,0,0,0,0,0,0,0,0,0,0,0,0,0,0,0,0,0,0,0,0,0,0,0,0,0,0,0,0,0,0],"sum_hessian":[7.673597E2,2.7768063E2,4.8967902E2,5.414749E1,2.2353314E2,4.2923044E2,6.0448574E1,1.059438E1,4.3553112E1,7.128524E1,1.5224791E2,2.9247668E2,1.3675375E2,4.2812057E0,5.616737E1,4.266632E0,6.3277483E0,8.004147E0,6.3281094E1,9.9717926E1,5.2529984E1,1.9401299E2,9.846369E1,2.9920889E1,1.0683287E2,5.2371548E1,3.7958202E0,3.75409E0,4.2500567E0,4.888568E1,1.439541E1,5.5871765E1,4.3846157E1,3.5720284E0,4.8957954E1,9.7915E1,9.609799E1,5.7460415E1,4.1003277E1,1.02393875E1,1.9681501E1,8.800864E0,9.8032005E1,4.525254E0,4.7846294E1,2.7573898E1,2.1311785E1,3.7973406E0,1.0598069E1,9.489106E0,4.6382656E1,2.8962456E1,1.4883703E1,4.373489E1,5.223063E0,9.1534706E1,6.380296E0,3.8905106E1,5.7192883E1,3.302755E1,2.4432863E1,3.2911556E1,8.091719E0,6.2018924E0,4.037495E0,1.2070017E1,7.6114845E0,3.0822372E0,5.718627E0,1.0456398E1,8.757561E1],"tree_param":{"num_deleted":"0","num_feature":"37","num_nodes":"71","size_leaf_vector":"1"}},{"base_weights":[-1.466516E-2,-1.5943138E-2,1.6429316E-2],"categories":[],"categories_nodes":[],"categories_segments":[],"categories_sizes":[],"default_left":[0,0,0],"id":28,"left_children":[1,-1,-1],"loss_changes":[1.9835654E3,0E0,0E0],"parents":[2147483647,0,0],"right_children":[2,-1,-1],"split_conditions":[1.577601E-2,-1.5943138E-2,1.6429316E-2],"split_indices":[0,0,0],"split_type":[0,0,0],"sum_hessian":[7.555423E2,3.8688687E2,3.6865546E2],"tree_param":{"num_deleted":"0","num_feature":"37","num_nodes":"3","size_leaf_vector":"1"}},{"base_weights":[2.1195037E-3,-1.587309E-2,1.632348E-2],"categories":[],"categories_nodes":[],"categories_segments":[],"categories_sizes":[],"default_left":[0,0,0],"id":29,"left_children":[1,-1,-1],"loss_changes":[1.9519912E3,0E0,0E0],"parents":[2147483647,0,0],"right_children":[2,-1,-1],"split_conditions":[1.577601E-2,-1.587309E-2,1.632348E-2],"split_indices":[0,0,0],"split_type":[0,0,0],"sum_hessian":[7.5133545E2,3.8044156E2,3.7089386E2],"tree_param":{"num_deleted":"0","num_feature":"37","num_nodes":"3","size_leaf_vector":"1"}},{"base_weights":[1.0344195E-2,-1.575477E-2,1.6222756E-2],"categories":[],"categories_nodes":[],"categories_segments":[],"categories_sizes":[],"default_left":[0,0,0],"id":30,"left_children":[1,-1,-1],"loss_changes":[1.9417582E3,0E0,0E0],"parents":[2147483647,0,0],"right_children":[2,-1,-1],"split_conditions":[1.577601E-2,-1.575477E-2,1.6222756E-2],"split_indices":[0,0,0],"split_type":[0,0,0],"sum_hessian":[7.5761664E2,3.8191275E2,3.757039E2],"tree_param":{"num_deleted":"0","num_feature":"37","num_nodes":"3","size_leaf_vector":"1"}},{"base_weights":[5.018996E-4,-1.403763E0,1.493514E0,-1.4999496E0,2.289614E-1,-9.26107E-2,1.5776157E0,-1.5206963E0,-2.9587558E-1,-1.1159025E0,1.2703747E0,-1.3345239E-2,9.824493E-1,6.819911E-3,1.5907094E-2,-1.5453643E0,-8.7316E-1,1.9884284E-3,-6.9707087E-3,-1.3646757E-2,-3.990046E-3,6.5014777E-3,1.3975431E-2,-8.467676E-4,1.4152516E-2,-1.5661754E-2,-1.2250795E0,-1.3931701E-2,9.003277E-3,-1.4656584E-2,3.8580212E-3],"categories":[],"categories_nodes":[],"categories_segments":[],"categories_sizes":[],"default_left":[0,0,0,0,0,0,0,0,0,0,0,0,0,0,0,0,0,0,0,0,0,0,0,0,0,0,0,0,0,0,0],"id":31,"left_children":[1,3,5,7,9,11,13,15,17,19,21,-1,23,-1,-1,25,27,-1,-1,-1,-1,-1,-1,-1,-1,-1,29,-1,-1,-1,-1],"loss_changes":[1.5832864E3,6.1458496E1,4.8971863E1,8.733765E0,3.2955112E1,2.7179277E1,2.9918823E0,4.4198E0,1.6209993E0,1.3030577E0,1.2922668E-1,0E0,5.1822777E0,0E0,0E0,3.9160156E-1,1.5597563E1,0E0,0E0,0E0,0E0,0E0,0E0,0E0,0E0,0E0,1.05406E1,0E0,0E0,0E0,0E0],"parents":[2147483647,0,0,1,1,2,2,3,3,4,4,5,5,6,6,7,7,8,8,9,9,10,10,12,12,15,15,16,16,26,26],"right_children":[2,4,6,8,10,12,14,16,18,20,22,-1,24,-1,-1,26,28,-1,-1,-1,-1,-1,-1,-1,-1,-1,30,-1,-1,-1,-1],"split_conditions":[2.6435152E-2,2.5016233E1,-1.6744207E1,1.8356653E-2,-1.3648459E0,1.0169619E0,4.218455E-2,4.6449323E0,-2.3924316E-1,5.6489323E1,-9.522113E-1,-1.3345239E-2,-1.15347594E-1,6.819911E-3,1.5907094E-2,-4.5684937E-2,-3.3239794E-1,1.9884284E-3,-6.9707087E-3,-1.3646757E-2,-3.990046E-3,6.5014777E-3,1.3975431E-2,-8.467676E-4,1.4152516E-2,-1.5661754E-2,6.212583E-1,-1.3931701E-2,9.003277E-3,-1.4656584E-2,3.8580212E-3],"split_indices":[3,1,1,3,3,3,3,1,7,1,3,0,14,0,0,3,3,0,0,0,0,0,0,0,0,0,1,0,0,0,0],"split_type":[0,0,0,0,0,0,0,0,0,0,0,0,0,0,0,0,0,0,0,0,0,0,0,0,0,0,0,0,0,0,0],"sum_hessian":[7.5317426E2,3.8815323E2,3.65021E2,3.6663544E2,2.1517792E1,1.8375006E1,3.46646E2,3.601667E2,6.468769E0,9.359527E0,1.2158265E1,8.413895E0,9.96111E0,5.759741E0,3.4088626E2,3.456139E2,1.4552768E1,3.1226137E0,3.3461554E0,6.2775483E0,3.0819786E0,3.1087503E0,9.049515E0,3.1063595E0,6.8547506E0,3.208745E2,2.4739382E1,1.1419009E1,3.1337585E0,2.1603182E1,3.1362002E0],"tree_param":{"num_deleted":"0","num_feature":"37","num_nodes":"31","size_leaf_vector":"1"}},{"base_weights":[-2.7280955E-2,-1.5576416E-2,1.602969E-2],"categories":[],"categories_nodes":[],"categories_segments":[],"categories_sizes":[],"default_left":[0,0,0],"id":32,"left_children":[1,-1,-1],"loss_changes":[1.8612062E3,0E0,0E0],"parents":[2147483647,0,0],"right_children":[2,-1,-1],"split_conditions":[1.577601E-2,-1.5576416E-2,1.602969E-2],"split_indices":[0,0,0],"split_type":[0,0,0],"sum_hessian":[7.440124E2,3.837862E2,3.602262E2],"tree_param":{"num_deleted":"0","num_feature":"37","num_nodes":"3","size_leaf_vector":"1"}},{"base_weights":[4.0490036E-3,-1.5493177E-2,1.593186E-2],"categories":[],"categories_nodes":[],"categories_segments":[],"categories_sizes":[],"default_left":[0,0,0],"id":33,"left_children":[1,-1,-1],"loss_changes":[1.8492212E3,0E0,0E0],"parents":[2147483647,0,0],"right_children":[2,-1,-1],"split_conditions":[1.577601E-2,-1.5493177E-2,1.593186E-2],"split_indices":[0,0,0],"split_type":[0,0,0],"sum_hessian":[7.4712366E2,3.7782666E2,3.6929703E2],"tree_param":{"num_deleted":"0","num_feature":"37","num_nodes":"3","size_leaf_vector":"1"}},{"base_weights":[4.615349E-3,-1.5401824E-2,1.5838547E-2],"categories":[],"categories_nodes":[],"categories_segments":[],"categories_sizes":[],"default_left":[0,0,0],"id":34,"left_children":[1,-1,-1],"loss_changes":[1.7988491E3,0E0,0E0],"parents":[2147483647,0,0],"right_children":[2,-1,-1],"split_conditions":[1.577601E-2,-1.5401824E-2,1.5838547E-2],"split_indices":[0,0,0],"split_type":[0,0,0],"sum_hessian":[7.3535254E2,3.717423E2,3.6361023E2],"tree_param":{"num_deleted":"0","num_feature":"37","num_nodes":"3","size_leaf_vector":"1"}},{"base_weights":[-5.7642157E-3,-1.5321997E-2,1.5746081E-2],"categories":[],"categories_nodes":[],"categories_segments":[],"categories_sizes":[],"default_left":[0,0,0],"id":35,"left_children":[1,-1,-1],"loss_changes":[1.800967E3,0E0,0E0],"parents":[2147483647,0,0],"right_children":[2,-1,-1],"split_conditions":[1.577601E-2,-1.5321997E-2,1.5746081E-2],"split_indices":[0,0,0],"split_type":[0,0,0],"sum_hessian":[7.4456525E2,3.787613E2,3.65804E2],"tree_param":{"num_deleted":"0","num_feature":"37","num_nodes":"3","size_leaf_vector":"1"}},{"base_weights":[-7.856378E-3,-1.5258372E-2,1.5655264E-2],"categories":[],"categories_nodes":[],"categories_segments":[],"categories_sizes":[],"default_left":[0,0,0],"id":36,"left_children":[1,-1,-1],"loss_changes":[1.7563074E3,0E0,0E0],"parents":[2147483647,0,0],"right_children":[2,-1,-1],"split_conditions":[1.577601E-2,-1.5258372E-2,1.5655264E-2],"split_indices":[0,0,0],"split_type":[0,0,0],"sum_hessian":[7.333595E2,3.732666E2,3.600929E2],"tree_param":{"num_deleted":"0","num_feature":"37","num_nodes":"3","size_leaf_vector":"1"}},{"base_weights":[3.7321774E-3,-1.5182348E-2,1.5566313E-2],"categories":[],"categories_nodes":[],"categories_segments":[],"categories_sizes":[],"default_left":[0,0,0],"id":37,"left_children":[1,-1,-1],"loss_changes":[1.7298727E3,0E0,0E0],"parents":[2147483647,0,0],"right_children":[2,-1,-1],"split_conditions":[1.577601E-2,-1.5182348E-2,1.5566313E-2],"split_indices":[0,0,0],"split_type":[0,0,0],"sum_hessian":[7.2992346E2,3.6864438E2,3.6127905E2],"tree_param":{"num_deleted":"0","num_feature":"37","num_nodes":"3","size_leaf_vector":"1"}},{"base_weights":[2.5207752E-3,-1.5075459E-2,1.5483641E-2],"categories":[],"categories_nodes":[],"categories_segments":[],"categories_sizes":[],"default_left":[0,0,0],"id":38,"left_children":[1,-1,-1],"loss_changes":[1.6997937E3,0E0,0E0],"parents":[2147483647,0,0],"right_children":[2,-1,-1],"split_conditions":[1.577601E-2,-1.5075459E-2,1.5483641E-2],"split_indices":[0,0,0],"split_type":[0,0,0],"sum_hessian":[7.2617303E2,3.6734982E2,3.5882318E2],"tree_param":{"num_deleted":"0","num_feature":"37","num_nodes":"3","size_leaf_vector":"1"}},{"base_weights":[8.489088E-3,-1.4994026E-2,1.5397608E-2],"categories":[],"categories_nodes":[],"categories_segments":[],"categories_sizes":[],"default_left":[0,0,0],"id":39,"left_children":[1,-1,-1],"loss_changes":[1.624524E3,0E0,0E0],"parents":[2147483647,0,0],"right_children":[2,-1,-1],"split_conditions":[1.577601E-2,-1.4994026E-2,1.5397608E-2],"split_indices":[0,0,0],"split_type":[0,0,0],"sum_hessian":[7.015643E2,3.5349118E2,3.4807312E2],"tree_param":{"num_deleted":"0","num_feature":"37","num_nodes":"3","size_leaf_vector":"1"}},{"base_weights":[2.0075621E-2,-1.4923127E0,1.5315655E-2,-1.49741275E-2,-7.4749417E-3],"categories":[],"categories_nodes":[],"categories_segments":[],"categories_sizes":[],"default_left":[0,0,0,0,0],"id":40,"left_children":[1,3,-1,-1,-1],"loss_changes":[1.6338793E3,2.3779297E-1,0E0,0E0,0E0],"parents":[2147483647,0,0,1,1],"right_children":[2,4,-1,-1,-1],"split_conditions":[1.577601E-2,8.780701E-3,1.5315655E-2,-1.49741275E-2,-7.4749417E-3],"split_indices":[0,0,0,0,0],"split_type":[0,0,0,0,0],"sum_hessian":[7.127456E2,3.562733E2,3.5647235E2,3.5284674E2,3.426561E0],"tree_param":{"num_deleted":"0","num_feature":"37","num_nodes":"5","size_leaf_vector":"1"}},{"base_weights":[-9.99313E-3,-1.487795E-2,1.5233525E-2],"categories":[],"categories_nodes":[],"categories_segments":[],"categories_sizes":[],"default_left":[0,0,0],"id":41,"left_children":[1,-1,-1],"loss_changes":[1.6260945E3,0E0,0E0],"parents":[2147483647,0,0],"right_children":[2,-1,-1],"split_conditions":[1.577601E-2,-1.487795E-2,1.5233525E-2],"split_indices":[0,0,0],"split_type":[0,0,0],"sum_hessian":[7.156116E2,3.6442102E2,3.5119055E2],"tree_param":{"num_deleted":"0","num_feature":"37","num_nodes":"3","size_leaf_vector":"1"}},{"base_weights":[-6.7547676E-3,-1.4805493E-2,1.5151801E-2],"categories":[],"categories_nodes":[],"categories_segments":[],"categories_sizes":[],"default_left":[0,0,0],"id":42,"left_children":[1,-1,-1],"loss_changes":[1.5917573E3,0E0,0E0],"parents":[2147483647,0,0],"right_children":[2,-1,-1],"split_conditions":[1.577601E-2,-1.4805493E-2,1.5151801E-2],"split_indices":[0,0,0],"split_type":[0,0,0],"sum_hessian":[7.0764935E2,3.5952432E2,3.4812503E2],"tree_param":{"num_deleted":"0","num_feature":"37","num_nodes":"3","size_leaf_vector":"1"}},{"base_weights":[2.1260235E-2,-1.4703926E-2,1.5076979E-2],"categories":[],"categories_nodes":[],"categories_segments":[],"categories_sizes":[],"default_left":[0,0,0],"id":43,"left_children":[1,-1,-1],"loss_changes":[1.5689879E3,0E0,0E0],"parents":[2147483647,0,0],"right_children":[2,-1,-1],"split_conditions":[1.577601E-2,-1.4703926E-2,1.5076979E-2],"split_indices":[0,0,0],"split_type":[0,0,0],"sum_hessian":[7.056284E2,3.5220175E2,3.5342664E2],"tree_param":{"num_deleted":"0","num_feature":"37","num_nodes":"3","size_leaf_vector":"1"}},{"base_weights":[-2.7452845E-3,-1.4628883E-2,1.4994962E-2],"categories":[],"categories_nodes":[],"categories_segments":[],"categories_sizes":[],"default_left":[0,0,0],"id":44,"left_children":[1,-1,-1],"loss_changes":[1.5166866E3,0E0,0E0],"parents":[2147483647,0,0],"right_children":[2,-1,-1],"split_conditions":[1.577601E-2,-1.4628883E-2,1.4994962E-2],"split_indices":[0,0,0],"split_type":[0,0,0],"sum_hessian":[6.894499E2,3.4963712E2,3.3981277E2],"tree_param":{"num_deleted":"0","num_feature":"37","num_nodes":"3","size_leaf_vector":"1"}},{"base_weights":[3.6088312E-3,-1.3167711E0,1.3919381E0,-1.40322E0,1.9506663E-1,-5.607622E-2,1.4637024E0,-1.4200248E0,-5.982746E-1,-1.1394239E-2,1.1073366E0,-1.1868273E-2,7.7256435E-1,8.172899E-3,1.4717597E-2,-1.4461339E-2,-8.928951E-1,-1.090986E-2,1.8644935E-3,6.9420114E-3,1.3079345E-2,-3.0783291E-3,1.2927943E-2,-1.277336E-2,5.9247175E-3],"categories":[],"categories_nodes":[],"categories_segments":[],"categories_sizes":[],"default_left":[0,0,0,0,0,0,0,0,0,0,0,0,0,0,0,0,0,0,0,0,0,0,0,0,0],"id":45,"left_children":[1,3,5,7,9,11,13,15,17,-1,19,-1,21,-1,-1,-1,23,-1,-1,-1,-1,-1,-1,-1,-1],"loss_changes":[1.2772769E3,4.69494E1,3.537677E1,3.7216187E0,2.5846867E1,1.6846931E1,4.8291016E-1,3.2545776E0,3.5435178E0,0E0,1.2811661E-1,0E0,6.252933E0,0E0,0E0,0E0,1.1150616E1,0E0,0E0,0E0,0E0,0E0,0E0,0E0,0E0],"parents":[2147483647,0,0,1,1,2,2,3,3,4,4,5,5,6,6,7,7,8,8,10,10,12,12,16,16],"right_children":[2,4,6,8,10,12,14,16,18,-1,20,-1,22,-1,-1,-1,24,-1,-1,-1,-1,-1,-1,-1,-1],"split_conditions":[2.6435152E-2,2.5016233E1,-1.6744207E1,1.0279329E-2,-1.2980784E0,1.0169619E0,4.218455E-2,3.8823535E0,3.7866116E-2,-1.1394239E-2,-6.276769E-1,-1.1868273E-2,-1.140558E-1,8.172899E-3,1.4717597E-2,-1.4461339E-2,-2.7637833E-1,-1.090986E-2,1.8644935E-3,6.9420114E-3,1.3079345E-2,-3.0783291E-3,1.2927943E-2,-1.277336E-2,5.9247175E-3],"split_indices":[3,1,1,3,3,3,3,1,30,0,3,0,21,0,0,0,3,0,0,0,0,0,0,0,0],"split_type":[0,0,0,0,0,0,0,0,0,0,0,0,0,0,0,0,0,0,0,0,0,0,0,0,0],"sum_hessian":[6.9477686E2,3.5612924E2,3.386476E2,3.369347E2,1.9194532E1,1.600135E1,3.2264627E2,3.2929596E2,7.6387415E0,7.692605E0,1.1501927E1,6.5842786E0,9.417071E0,5.2332616E0,3.17413E2,3.1209424E2,1.7201714E1,4.4527035E0,3.186038E0,5.2173505E0,6.284577E0,3.1933985E0,6.223673E0,1.3776222E1,3.425492E0],"tree_param":{"num_deleted":"0","num_feature":"37","num_nodes":"25","size_leaf_vector":"1"}},{"base_weights":[-2.4515815E-4,-4.73734E-1,4.155464E-1,-2.3846933E-1,-9.565096E-1,2.402821E-1,1.063855E0,-7.6422143E-1,3.5030663E-1,6.452143E-2,-1.045243E0,6.5568346E-1,-3.0204713E-1,6.067986E-1,1.3331952E0,-1.2673026E0,-4.5378357E-1,8.9810294E-1,7.6923825E-2,-5.60061E-3,8.77177E-3,-1.16605066E-1,-1.1465777E0,7.918946E-1,-4.1882855E-1,1.2167236E-3,-7.7680916E-1,2.845271E-1,1.2624715E-2,6.471898E-3,1.3649252E-2,-7.309633E-1,-1.40573215E-2,4.2231354E-1,-8.722421E-1,1.1409042E0,1.2618938E-1,5.76478E-1,-2.8037593E-1,3.175725E-1,-9.313496E-3,-1.3523067E-2,-8.9461905E-1,4.7717535E-1,1.288177E0,-7.187553E-1,7.359494E-3,-6.1838865E-1,4.8135498E-1,-4.145838E-1,-1.1518878E0,7.429945E-1,-3.7842134E-1,-1.8338433E-4,-1.1516047E-2,-8.701935E-3,7.7606486E-3,-1.4194848E-3,-1.09554315E-2,3.3472287E-3,1.23201795E-2,-1.0066232E-2,1.0120351E-2,-4.4235676E-3,7.36179E-3,-1.2448984E-2,2.8966765E-3,-2.1027431E-3,7.455796E-3,-3.973868E-3,-1.1045005E-2,1.1359237E-2,1.8797443E-3,1.3259502E-2,4.7260234E-3,-1.0602509E-2,-1.1406235E-3,-8.0347486E-4,-1.0269695E-2,7.968462E-3,-3.053351E-3,-1.077732E-2,1.7934183E-4,-1.2555386E-2,-4.8979283E-3,2.4749E-4,1.1362476E-2,2.4876553E-3,-7.3580346E-3],"categories":[],"categories_nodes":[],"categories_segments":[],"categories_sizes":[],"default_left":[0,0,0,0,0,0,0,0,0,0,0,0,0,0,0,0,0,0,0,0,0,0,0,0,0,0,0,0,0,0,0,0,0,0,0,0,0,0,0,0,0,0,0,0,0,0,0,0,0,0,0,0,0,0,0,0,0,0,0,0,0,0,0,0,0,0,0,0,0,0,0,0,0,0,0,0,0,0,0,0,0,0,0,0,0,0,0,0,0],"id":46,"left_children":[1,3,5,7,9,11,13,15,17,19,21,23,25,27,29,31,33,35,37,-1,-1,39,41,43,45,47,49,51,-1,-1,-1,53,-1,55,57,59,61,63,65,67,-1,-1,69,71,73,75,-1,77,79,81,83,85,87,-1,-1,-1,-1,-1,-1,-1,-1,-1,-1,-1,-1,-1,-1,-1,-1,-1,-1,-1,-1,-1,-1,-1,-1,-1,-1,-1,-1,-1,-1,-1,-1,-1,-1,-1,-1],"loss_changes":[1.3807765E2,3.701764E1,4.2175507E1,6.892999E1,9.771744E0,6.6713776E1,8.938087E0,1.7774338E1,1.5703546E1,5.3163447E0,9.145416E0,2.4847992E1,1.8537544E1,6.2321577E0,1.8288422E-1,2.2598267E0,2.7576426E1,6.4100075E0,1.2897213E1,0E0,0E0,4.121375E0,3.3927155E0,2.2658707E1,7.2824945E0,2.3966751E1,6.340725E0,7.030172E0,0E0,0E0,0E0,3.32623E0,0E0,1.195211E1,8.088234E0,1.5324936E0,1.0543723E1,5.2199583E0,2.3602283E1,1.9191337E0,0E0,0E0,4.034569E0,1.7460436E1,1.1366043E0,3.1799307E0,0E0,7.6497498E0,1.1508244E1,7.790014E0,1.038454E0,3.7749362E0,2.3663573E0,0E0,0E0,0E0,0E0,0E0,0E0,0E0,0E0,0E0,0E0,0E0,0E0,0E0,0E0,0E0,0E0,0E0,0E0,0E0,0E0,0E0,0E0,0E0,0E0,0E0,0E0,0E0,0E0,0E0,0E0,0E0,0E0,0E0,0E0,0E0,0E0],"parents":[2147483647,0,0,1,1,2,2,3,3,4,4,5,5,6,6,7,7,8,8,9,9,10,10,11,11,12,12,13,13,14,14,15,15,16,16,17,17,18,18,21,21,22,22,23,23,24,24,25,25,26,26,27,27,31,31,33,33,34,34,35,35,36,36,37,37,38,38,39,39,42,42,43,43,44,44,45,45,47,47,48,48,49,49,50,50,51,51,52,52],"right_children":[2,4,6,8,10,12,14,16,18,20,22,24,26,28,30,32,34,36,38,-1,-1,40,42,44,46,48,50,52,-1,-1,-1,54,-1,56,58,60,62,64,66,68,-1,-1,70,72,74,76,-1,78,80,82,84,86,88,-1,-1,-1,-1,-1,-1,-1,-1,-1,-1,-1,-1,-1,-1,-1,-1,-1,-1,-1,-1,-1,-1,-1,-1,-1,-1,-1,-1,-1,-1,-1,-1,-1,-1,-1,-1],"split_conditions":[-5.7120048E-2,-2.91286E-1,7.7574724E-1,-5.8794093E-1,-1.8990979E0,4.19088E-1,-7.85138E-3,-7.393601E-1,-5.137824E-1,-3.88526E-1,-6.2346363E-1,1.2887286E0,2.6344845E-1,8.846834E-1,6.007461E-1,-4.0907502E-1,-7.2369695E-1,-3.8295278E-1,-5.745153E-1,-5.60061E-3,8.77177E-3,-1.3208665E-1,-2.6854452E-1,2.3695844E-1,4.5208502E-1,4.1736016E-1,6.7269397E-1,8.9700454E-1,1.2624715E-2,6.471898E-3,1.3649252E-2,-1.0688746E0,-1.40573215E-2,-1.106421E0,-8.6885655E-1,-8.6915576E-1,-4.2636353E-1,-7.02563E-1,-4.5128816E-1,-1.6658272E-1,-9.313496E-3,-1.3523067E-2,-1.03600994E-1,-1.9493783E-1,1.1545014E0,3.5289901E-1,7.359494E-3,-4.470074E-1,7.6714385E-1,4.892846E-1,1.6702323E0,7.227756E-1,3.3872175E-1,-1.8338433E-4,-1.1516047E-2,-8.701935E-3,7.7606486E-3,-1.4194848E-3,-1.09554315E-2,3.3472287E-3,1.23201795E-2,-1.0066232E-2,1.0120351E-2,-4.4235676E-3,7.36179E-3,-1.2448984E-2,2.8966765E-3,-2.1027431E-3,7.455796E-3,-3.973868E-3,-1.1045005E-2,1.1359237E-2,1.8797443E-3,1.3259502E-2,4.7260234E-3,-1.0602509E-2,-1.1406235E-3,-8.0347486E-4,-1.0269695E-2,7.968462E-3,-3.053351E-3,-1.077732E-2,1.7934183E-4,-1.2555386E-2,-4.8979283E-3,2.4749E-4,1.1362476E-2,2.4876553E-3,-7.3580346E-3],"split_indices":[22,17,16,16,4,17,2,16,4,15,2,4,4,16,20,2,17,17,17,0,0,4,22,22,29,15,17,17,0,0,0,22,0,15,4,15,16,25,16,16,0,0,17,17,7,16,0,4,17,16,11,15,4,0,0,0,0,0,0,0,0,0,0,0,0,0,0,0,0,0,0,0,0,0,0,0,0,0,0,0,0,0,0,0,0,0,0,0,0],"split_type":[0,0,0,0,0,0,0,0,0,0,0,0,0,0,0,0,0,0,0,0,0,0,0,0,0,0,0,0,0,0,0,0,0,0,0,0,0,0,0,0,0,0,0,0,0,0,0,0,0,0,0,0,0,0,0,0,0,0,0,0,0,0,0,0,0,0,0,0,0,0,0,0,0,0,0,0,0,0,0,0,0,0,0,0,0,0,0,0,0],"sum_hessian":[6.993552E2,3.2692505E2,3.7243015E2,2.2081308E2,1.0611198E2,2.9425235E2,7.8177795E1,1.1649235E2,1.0432073E2,8.506213E0,9.760577E1,1.6650644E2,1.27745926E2,3.0193644E1,4.7984154E1,4.3277134E1,7.321522E1,3.3969173E1,7.035156E1,4.985407E0,3.5208063E0,9.814619E0,8.7791145E1,1.4800723E2,1.8499205E1,7.856096E1,4.918497E1,2.1205046E1,8.988599E0,3.0672324E0,4.491692E1,1.0166782E1,3.311035E1,2.366347E1,4.9551746E1,2.547738E1,8.491792E0,2.9080122E1,4.127144E1,6.8007274E0,3.0138912E0,4.5925182E1,4.1865963E1,9.177151E1,5.623572E1,1.4984825E1,3.514379E0,3.41733E1,4.4387657E1,2.6092215E1,2.3092756E1,1.2464427E1,8.740619E0,4.161025E0,6.0057573E0,4.7711477E0,1.8892323E1,1.198644E1,3.7565308E1,3.0616221E0,2.2415758E1,3.6666138E0,4.825178E0,3.7007523E0,2.537937E1,1.4891287E1,2.6380154E1,3.2729814E0,3.527746E0,1.3285216E1,2.8580748E1,2.7104488E1,6.466702E1,5.3148376E1,3.0873463E0,9.09508E0,5.889745E0,1.5266375E1,1.8906927E1,3.1672802E1,1.2714853E1,9.711113E0,1.6381102E1,1.9191948E1,3.9008083E0,4.7860403E0,7.6783867E0,3.2830176E0,5.4576006E0],"tree_param":{"num_deleted":"0","num_feature":"37","num_nodes":"89","size_leaf_vector":"1"}},{"base_weights":[4.6117394E-3,-1.4467881E0,1.4821238E-2,-1.4518321E-2,-7.7942917E-3],"categories":[],"categories_nodes":[],"categories_segments":[],"categories_sizes":[],"default_left":[0,0,0,0,0],"id":47,"left_children":[1,3,-1,-1,-1],"loss_changes":[1.4961586E3,5.3100586E-2,0E0,0E0,0E0],"parents":[2147483647,0,0,1,1],"right_children":[2,4,-1,-1,-1],"split_conditions":[1.577601E-2,8.780701E-3,1.4821238E-2,-1.4518321E-2,-7.7942917E-3],"split_indices":[0,0,0,0,0],"split_type":[0,0,0,0,0],"sum_hessian":[6.956852E2,3.5095422E2,3.4473096E2,3.4715488E2,3.7993643E0],"tree_param":{"num_deleted":"0","num_feature":"37","num_nodes":"5","size_leaf_vector":"1"}},{"base_weights":[-6.9261985E-3,-1.4405375E-2,1.4751857E-2],"categories":[],"categories_nodes":[],"categories_segments":[],"categories_sizes":[],"default_left":[0,0,0],"id":48,"left_children":[1,-1,-1],"loss_changes":[1.4874644E3,0E0,0E0],"parents":[2147483647,0,0],"right_children":[2,-1,-1],"split_conditions":[1.577601E-2,-1.4405375E-2,1.4751857E-2],"split_indices":[0,0,0],"split_type":[0,0,0],"sum_hessian":[6.9805804E2,3.5484906E2,3.4320895E2],"tree_param":{"num_deleted":"0","num_feature":"37","num_nodes":"3","size_leaf_vector":"1"}},{"base_weights":[-1.2667875E-2,-1.2951094E0,1.368838E0,-1.3778952E0,1.0973795E-1,-9.3261614E-2,1.4371375E0,-1.3983876E0,-4.4697592E-1,-1.1387996E-2,1.0006142E0,-1.1785265E-2,8.743474E-1,1.0136306E0,1.456055E-2,-1.4218592E-2,-8.2785267E-1,-7.545152E-3,3.2025384E-4,2.7907812E-3,1.2527898E-2,1.8019647E-3,1.22089535E-2,-4.160438E-3,1.3770095E-2,-1.31565295E-2,3.005826E-3],"categories":[],"categories_nodes":[],"categories_segments":[],"categories_sizes":[],"default_left":[0,0,0,0,0,0,0,0,0,0,0,0,0,0,0,0,0,0,0,0,0,0,0,0,0,0,0],"id":49,"left_children":[1,3,5,7,9,11,13,15,17,-1,19,-1,21,23,-1,-1,25,-1,-1,-1,-1,-1,-1,-1,-1,-1,-1],"loss_changes":[1.2305309E3,4.2041016E1,3.3523926E1,5.8651123E0,2.4464481E1,1.7686556E1,1.0838013E0,3.274414E0,1.3201532E0,0E0,1.9739714E0,0E0,1.9352055E0,9.380018E0,0E0,0E0,8.943297E0,0E0,0E0,0E0,0E0,0E0,0E0,0E0,0E0,0E0,0E0],"parents":[2147483647,0,0,1,1,2,2,3,3,4,4,5,5,6,6,7,7,8,8,10,10,12,12,13,13,16,16],"right_children":[2,4,6,8,10,12,14,16,18,-1,20,-1,22,24,-1,-1,26,-1,-1,-1,-1,-1,-1,-1,-1,-1,-1],"split_conditions":[2.6435152E-2,2.3047579E1,-1.6744207E1,1.0279329E-2,-1.2980784E0,1.0169619E0,6.570067E-2,3.8823535E0,2.2981766E-1,-1.1387996E-2,3.068111E1,-1.1785265E-2,-3.7735526E-2,-3.1770158E-1,1.456055E-2,-1.4218592E-2,-4.430689E-1,-7.545152E-3,3.2025384E-4,2.7907812E-3,1.2527898E-2,1.8019647E-3,1.22089535E-2,-4.160438E-3,1.3770095E-2,-1.31565295E-2,3.005826E-3],"split_indices":[3,1,1,3,3,3,3,1,26,0,1,0,21,1,0,0,3,0,0,0,0,0,0,0,0,0,0],"split_type":[0,0,0,0,0,0,0,0,0,0,0,0,0,0,0,0,0,0,0,0,0,0,0,0,0,0,0],"sum_hessian":[6.9254736E2,3.59183E2,3.3336438E2,3.3921283E2,1.9970188E1,1.4861273E1,3.185031E2,3.3141522E2,7.797599E0,8.19993E0,1.1770259E1,6.9020233E0,7.9592495E0,1.5952631E1,3.0255048E2,3.1688644E2,1.4528782E1,4.3984327E0,3.399166E0,3.5939035E0,8.176355E0,3.156539E0,4.8027105E0,3.2035773E0,1.2749054E1,1.0027977E1,4.5008054E0],"tree_param":{"num_deleted":"0","num_feature":"37","num_nodes":"27","size_leaf_vector":"1"}},{"base_weights":[-6.950217E-3,-1.4282487E-2,1.4614548E-2],"categories":[],"categories_nodes":[],"categories_segments":[],"categories_sizes":[],"default_left":[0,0,0],"id":50,"left_children":[1,-1,-1],"loss_changes":[1.4243231E3,0E0,0E0],"parents":[2147483647,0,0],"right_children":[2,-1,-1],"split_conditions":[1.577601E-2,-1.4282487E-2,1.4614548E-2],"split_indices":[0,0,0],"split_type":[0,0,0],"sum_hessian":[6.8046014E2,3.457902E2,3.3466992E2],"tree_param":{"num_deleted":"0","num_feature":"37","num_nodes":"3","size_leaf_vector":"1"}},{"base_weights":[-2.0233272E-2,-3.5111487E-1,4.047133E-1,-1.2676794E-2,-2.2154324E-1,2.8267285E-1,1.3467218E-2,1.23427846E-1,-5.6982774E-1,6.973902E-1,-1.1901237E-2,-2.396188E-1,7.5380915E-1,-1.0804284E0,-3.9441264E-1,9.862847E-1,2.2540405E-1,-9.046247E-1,1.5942779E-1,1.747719E-1,-8.185248E-1,-5.0366647E-3,8.453127E-1,-2.5532865E-3,-1.1712271E0,8.409342E-2,-6.8149036E-1,1.3137348E-1,1.0831778E0,-1.799819E-3,8.4429365E-1,-2.218571E-3,-1.0763861E0,4.7922033E-1,-2.723366E-1,-1.8371458E-3,9.364065E-3,2.4574873E-4,-1.1669994E-2,1.0063403E-2,1.6793524E-3,-3.3967074E-3,-1.2380775E-2,-3.8071203E-3,6.461049E-3,-2.6333092E-3,-9.73901E-3,7.4196607E-3,-5.4304996E-3,1.3573007E-3,1.1523308E-2,4.4633755E-3,-6.9606206E-3,1.1145614E-2,1.5658484E-3,-1.2512798E-2,-5.0491425E-3,1.1704321E-2,2.562517E-3,-5.908134E-3,2.555443E-3],"categories":[],"categories_nodes":[],"categories_segments":[],"categories_sizes":[],"default_left":[0,0,0,0,0,0,0,0,0,0,0,0,0,0,0,0,0,0,0,0,0,0,0,0,0,0,0,0,0,0,0,0,0,0,0,0,0,0,0,0,0,0,0,0,0,0,0,0,0,0,0,0,0,0,0,0,0,0,0,0,0],"id":51,"left_children":[1,3,5,-1,7,9,-1,11,13,15,17,19,21,23,25,27,29,31,33,35,37,-1,39,-1,41,43,45,47,49,51,53,-1,55,57,59,-1,-1,-1,-1,-1,-1,-1,-1,-1,-1,-1,-1,-1,-1,-1,-1,-1,-1,-1,-1,-1,-1,-1,-1,-1,-1],"loss_changes":[9.540747E1,4.5021675E1,3.3771297E1,0E0,4.0371063E1,3.2291924E1,0E0,3.893456E1,1.4539562E1,1.4744873E1,2.3927172E1,2.6102245E1,7.5740623E0,2.8587418E0,1.7357376E1,5.473419E0,6.044137E0,2.7149544E0,1.826093E1,1.7616566E1,1.3343748E1,0E0,6.1884384E0,0E0,1.6747932E0,1.2814792E1,9.381752E0,3.7135355E0,3.8241577E0,1.0400847E1,1.9707003E0,0E0,1.353632E0,1.1381985E1,9.651363E0,0E0,0E0,0E0,0E0,0E0,0E0,0E0,0E0,0E0,0E0,0E0,0E0,0E0,0E0,0E0,0E0,0E0,0E0,0E0,0E0,0E0,0E0,0E0,0E0,0E0,0E0],"parents":[2147483647,0,0,1,1,2,2,4,4,5,5,7,7,8,8,9,9,10,10,11,11,12,12,13,13,14,14,15,15,16,16,17,17,18,18,19,19,20,20,22,22,24,24,25,25,26,26,27,27,28,28,29,29,30,30,32,32,33,33,34,34],"right_children":[2,4,6,-1,8,10,-1,12,14,16,18,20,22,24,26,28,30,32,34,36,38,-1,40,-1,42,44,46,48,50,52,54,-1,56,58,60,-1,-1,-1,-1,-1,-1,-1,-1,-1,-1,-1,-1,-1,-1,-1,-1,-1,-1,-1,-1,-1,-1,-1,-1,-1,-1],"split_conditions":[1.1891261E-1,-7.393601E-1,8.802172E-1,-1.2676794E-2,-3.1701377E-1,4.0120894E-1,1.3467218E-2,-4.77975E-1,-2.5608933E-1,4.296405E-1,4.4793242E-1,-6.0944986E-1,-8.237429E-1,-5E-1,3.736148E-2,-3.448085E-1,4.2424566E-1,4.3530887E-1,3.608529E-1,-5.9950197E-1,-7.192097E-1,-5.0366647E-3,6.031734E-1,-2.5532865E-3,-1.8990979E0,-6.193213E-2,-2.9695022E-1,-3.329836E-1,1.3783881E-1,1.8309878E-2,9.413923E-1,-2.218571E-3,6.242057E-1,5.9201926E-1,7.7574724E-1,-1.8371458E-3,9.364065E-3,2.4574873E-4,-1.1669994E-2,1.0063403E-2,1.6793524E-3,-3.3967074E-3,-1.2380775E-2,-3.8071203E-3,6.461049E-3,-2.6333092E-3,-9.73901E-3,7.4196607E-3,-5.4304996E-3,1.3573007E-3,1.1523308E-2,4.4633755E-3,-6.9606206E-3,1.1145614E-2,1.5658484E-3,-1.2512798E-2,-5.0491425E-3,1.1704321E-2,2.562517E-3,-5.908134E-3,2.555443E-3],"split_indices":[20,16,16,0,17,17,0,16,16,4,16,17,25,31,17,21,16,17,4,16,4,0,4,0,4,21,4,17,20,17,18,0,21,17,16,0,0,0,0,0,0,0,0,0,0,0,0,0,0,0,0,0,0,0,0,0,0,0,0,0,0],"split_type":[0,0,0,0,0,0,0,0,0,0,0,0,0,0,0,0,0,0,0,0,0,0,0,0,0,0,0,0,0,0,0,0,0,0,0,0,0,0,0,0,0,0,0,0,0,0,0,0,0,0,0,0,0,0,0,0,0,0,0,0,0],"sum_hessian":[6.7652936E2,3.804604E2,2.9606897E2,4.6034885E1,3.3442548E2,2.6326248E2,3.280649E1,1.6833629E2,1.660892E2,1.0876699E2,1.544955E2,1.0721141E2,6.1124878E1,4.1149998E1,1.249392E2,6.679394E1,4.1973053E1,2.4187027E1,1.3030847E2,6.289104E1,4.432037E1,3.840668E0,5.728421E1,4.4573665E0,3.669263E1,4.71147E1,7.782451E1,7.0394053E0,5.9754528E1,3.1431252E1,1.0541803E1,5.322248E0,1.886478E1,7.4798195E1,5.5510277E1,4.327917E1,1.961187E1,1.3233271E1,3.10871E1,4.588959E1,1.1394617E1,3.1827905E0,3.3509842E1,2.5964027E1,2.1150673E1,3.2808098E1,4.5016407E1,3.641976E0,3.3974295E0,4.266269E0,5.5488262E1,1.9318508E1,1.2112743E1,7.122135E0,3.4196684E0,1.3533424E1,5.331356E0,1.7206871E1,5.759132E1,3.45479E1,2.0962374E1],"tree_param":{"num_deleted":"0","num_feature":"37","num_nodes":"61","size_leaf_vector":"1"}},{"base_weights":[2.401949E-2,-1.4199508E-2,1.4528168E-2],"categories":[],"categories_nodes":[],"categories_segments":[],"categories_sizes":[],"default_left":[0,0,0],"id":52,"left_children":[1,-1,-1],"loss_changes":[1.4103246E3,0E0,0E0],"parents":[2147483647,0,0],"right_children":[2,-1,-1],"split_conditions":[1.577601E-2,-1.4199508E-2,1.4528168E-2],"split_indices":[0,0,0],"split_type":[0,0,0],"sum_hessian":[6.815814E2,3.3899384E2,3.4258755E2],"tree_param":{"num_deleted":"0","num_feature":"37","num_nodes":"3","size_leaf_vector":"1"}},{"base_weights":[-6.5012765E-3,-1.4136281E-2,1.4462574E-2],"categories":[],"categories_nodes":[],"categories_segments":[],"categories_sizes":[],"default_left":[0,0,0],"id":53,"left_children":[1,-1,-1],"loss_changes":[1.3994805E3,0E0,0E0],"parents":[2147483647,0,0],"right_children":[2,-1,-1],"split_conditions":[1.577601E-2,-1.4136281E-2,1.4462574E-2],"split_indices":[0,0,0],"split_type":[0,0,0],"sum_hessian":[6.826049E2,3.467619E2,3.3584302E2],"tree_param":{"num_deleted":"0","num_feature":"37","num_nodes":"3","size_leaf_vector":"1"}},{"base_weights":[4.449437E-3,-1.2570729E0,1.33995E0,-1.3481346E0,2.3109162E-1,-5.7185285E-2,1.4086472E0,-1.366146E0,-2.1578807E-3,-9.917329E-1,1.1771275E-2,-1.1488008E-2,7.8414994E-1,6.4052516E-3,1.4208748E-2,-1.3932223E-2,-7.083322E-1,-1.2115203E-2,-3.8473818E-3,-1.536615E-3,1.2350781E-2,-1.2921605E-2,6.911913E-3],"categories":[],"categories_nodes":[],"categories_segments":[],"categories_sizes":[],"default_left":[0,0,0,0,0,0,0,0,0,0,0,0,0,0,0,0,0,0,0,0,0,0,0],"id":54,"left_children":[1,3,5,7,9,11,13,15,-1,17,-1,-1,19,-1,-1,-1,21,-1,-1,-1,-1,-1,-1],"loss_changes":[1.143677E3,4.7618164E1,3.172937E1,6.4172974E0,2.5441128E1,1.5976423E1,2.0422974E0,4.779785E0,0E0,8.2732487E-1,0E0,0E0,4.361308E0,0E0,0E0,0E0,1.3013641E1,0E0,0E0,0E0,0E0,0E0,0E0],"parents":[2147483647,0,0,1,1,2,2,3,3,4,4,5,5,6,6,7,7,9,9,12,12,16,16],"right_children":[2,4,6,8,10,12,14,16,-1,18,-1,-1,20,-1,-1,-1,22,-1,-1,-1,-1,-1,-1],"split_conditions":[2.6435152E-2,2.5016233E1,-1.6744207E1,1.8356653E-2,-1.3648459E0,1.0169619E0,4.218455E-2,4.6449323E0,-2.1578807E-3,5.6489323E1,1.1771275E-2,-1.1488008E-2,-1.15347594E-1,6.4052516E-3,1.4208748E-2,-1.3932223E-2,-4.430689E-1,-1.2115203E-2,-3.8473818E-3,-1.536615E-3,1.2350781E-2,-1.2921605E-2,6.911913E-3],"split_indices":[3,1,1,3,3,3,3,1,0,1,0,0,14,0,0,0,3,0,0,0,0,0,0],"split_type":[0,0,0,0,0,0,0,0,0,0,0,0,0,0,0,0,0,0,0,0,0,0,0],"sum_hessian":[6.7683545E2,3.48088E2,3.2874744E2,3.2810516E2,1.9982866E1,1.54148E1,3.1333264E2,3.227647E2,5.3404427E0,8.695263E0,1.1287603E1,6.5503736E0,8.864427E0,5.7462726E0,3.0758636E2,3.0893082E2,1.3833907E1,5.652581E0,3.042682E0,3.0923624E0,5.772064E0,9.815828E0,4.018079E0],"tree_param":{"num_deleted":"0","num_feature":"37","num_nodes":"23","size_leaf_vector":"1"}},{"base_weights":[1.3414848E-2,-1.4021794E-2,1.4337465E-2],"categories":[],"categories_nodes":[],"categories_segments":[],"categories_sizes":[],"default_left":[0,0,0],"id":55,"left_children":[1,-1,-1],"loss_changes":[1.3317959E3,0E0,0E0],"parents":[2147483647,0,0],"right_children":[2,-1,-1],"split_conditions":[1.577601E-2,-1.4021794E-2,1.4337465E-2],"split_indices":[0,0,0],"split_type":[0,0,0],"sum_hessian":[6.6038293E2,3.3074948E2,3.2963348E2],"tree_param":{"num_deleted":"0","num_feature":"37","num_nodes":"3","size_leaf_vector":"1"}},{"base_weights":[2.7125413E-4,-1.398941E-2,1.4269092E-2],"categories":[],"categories_nodes":[],"categories_segments":[],"categories_sizes":[],"default_left":[0,0,0],"id":56,"left_children":[1,-1,-1],"loss_changes":[1.3165078E3,0E0,0E0],"parents":[2147483647,0,0],"right_children":[2,-1,-1],"split_conditions":[1.577601E-2,-1.398941E-2,1.4269092E-2],"split_indices":[0,0,0],"split_type":[0,0,0],"sum_hessian":[6.5751715E2,3.3195908E2,3.2555807E2],"tree_param":{"num_deleted":"0","num_feature":"37","num_nodes":"3","size_leaf_vector":"1"}},{"base_weights":[2.048498E-3,-1.3930493E-2,1.4208187E-2],"categories":[],"categories_nodes":[],"categories_segments":[],"categories_sizes":[],"default_left":[0,0,0],"id":57,"left_children":[1,-1,-1],"loss_changes":[1.3030421E3,0E0,0E0],"parents":[2147483647,0,0],"right_children":[2,-1,-1],"split_conditions":[1.577601E-2,-1.3930493E-2,1.4208187E-2],"split_indices":[0,0,0],"split_type":[0,0,0],"sum_hessian":[6.563271E2,3.3093344E2,3.2539362E2],"tree_param":{"num_deleted":"0","num_feature":"37","num_nodes":"3","size_leaf_vector":"1"}},{"base_weights":[1.5780937E-2,-1.2364478E0,1.3336633E0,-1.3231182E0,2.5210696E-1,-6.1764205E-3,1.3683933E0,-1.368546E0,-8.09998E-1,-9.865033E-3,1.0916814E0,6.2013507E-1,1.3840665E0,-1.3836432E-2,-7.411921E-1,-1.2079303E0,4.7064933E-1,6.031044E-3,1.2556996E-2,-2.5531038E-4,1.1286567E-2,6.461779E-3,1.3942524E-2,-1.1517534E-2,-1.4797674E-4,-1.32184895E-2,-5.5158995E-3,-2.0682449E-3,9.880038E-3],"categories":[],"categories_nodes":[],"categories_segments":[],"categories_sizes":[],"default_left":[0,0,0,0,0,0,0,0,0,0,0,0,0,0,0,0,0,0,0,0,0,0,0,0,0,0,0,0,0],"id":58,"left_children":[1,3,5,7,9,-1,11,13,15,-1,17,19,21,-1,23,25,27,-1,-1,-1,-1,-1,-1,-1,-1,-1,-1,-1,-1],"loss_changes":[1.0704874E3,4.3246582E1,2.2263E1,6.222107E0,2.0982067E1,0E0,2.7868652E0,1.6970215E0,1.4851759E1,0E0,1.9493389E-1,2.7174869E0,1.3812256E0,0E0,2.6397986E0,8.906708E-1,2.785386E0,0E0,0E0,0E0,0E0,0E0,0E0,0E0,0E0,0E0,0E0,0E0,0E0],"parents":[2147483647,0,0,1,1,2,2,3,3,4,4,6,6,7,7,8,8,10,10,11,11,12,12,14,14,15,15,16,16],"right_children":[2,4,6,8,10,-1,12,14,16,-1,18,20,22,-1,24,26,28,-1,-1,-1,-1,-1,-1,-1,-1,-1,-1,-1,-1],"split_conditions":[2.6435152E-2,2.5016233E1,-5.513241E1,-4.5684937E-2,-1.2980784E0,-6.1764205E-3,-1.901268E1,1.044895E1,2.5720325E-1,-9.865033E-3,3.3652782E1,1.3640474E0,4.218455E-2,-1.3836432E-2,-6.571332E-1,1.8356653E-2,-7.483242E-2,6.031044E-3,1.2556996E-2,-2.5531038E-4,1.1286567E-2,6.461779E-3,1.3942524E-2,-1.1517534E-2,-1.4797674E-4,-1.32184895E-2,-5.5158995E-3,-2.0682449E-3,9.880038E-3],"split_indices":[3,1,1,3,3,0,1,1,1,0,1,3,3,0,3,3,8,0,0,0,0,0,0,0,0,0,0,0,0],"split_type":[0,0,0,0,0,0,0,0,0,0,0,0,0,0,0,0,0,0,0,0,0,0,0,0,0,0,0,0,0],"sum_hessian":[6.466668E2,3.3162466E2,3.1504214E2,3.134834E2,1.814128E1,5.215666E0,3.0982648E2,2.8645563E2,2.7027756E1,7.258269E0,1.088301E1,7.1887984E0,3.026377E2,2.7854694E2,7.908719E0,2.0663744E1,6.364012E0,3.910749E0,6.972261E0,3.5857687E0,3.6030297E0,4.9981747E0,2.9763953E2,4.678714E0,3.230005E0,1.6743639E1,3.9201047E0,3.015479E0,3.3485324E0],"tree_param":{"num_deleted":"0","num_feature":"37","num_nodes":"29","size_leaf_vector":"1"}},{"base_weights":[-6.9537335E-3,-1.3800976E-2,1.4096497E-2],"categories":[],"categories_nodes":[],"categories_segments":[],"categories_sizes":[],"default_left":[0,0,0],"id":59,"left_children":[1,-1,-1],"loss_changes":[1.2691177E3,0E0,0E0],"parents":[2147483647,0,0],"right_children":[2,-1,-1],"split_conditions":[1.577601E-2,-1.3800976E-2,1.4096497E-2],"split_indices":[0,0,0],"split_type":[0,0,0],"sum_hessian":[6.504353E2,3.302971E2,3.2013824E2],"tree_param":{"num_deleted":"0","num_feature":"37","num_nodes":"3","size_leaf_vector":"1"}},{"base_weights":[1.0514227E-2,-1.37439165E-2,1.4040888E-2],"categories":[],"categories_nodes":[],"categories_segments":[],"categories_sizes":[],"default_left":[0,0,0],"id":60,"left_children":[1,-1,-1],"loss_changes":[1.2681091E3,0E0,0E0],"parents":[2147483647,0,0],"right_children":[2,-1,-1],"split_conditions":[1.577601E-2,-1.37439165E-2,1.4040888E-2],"split_indices":[0,0,0],"split_type":[0,0,0],"sum_hessian":[6.5506177E2,3.2855966E2,3.265021E2],"tree_param":{"num_deleted":"0","num_feature":"37","num_nodes":"3","size_leaf_vector":"1"}},{"base_weights":[1.3264489E-3,-1.3692007E0,1.3983872E-2,-1.3745391E-2,-6.959439E-3],"categories":[],"categories_nodes":[],"categories_segments":[],"categories_sizes":[],"default_left":[0,0,0,0,0],"id":61,"left_children":[1,3,-1,-1,-1],"loss_changes":[1.244751E3,2.2290039E-1,0E0,0E0,0E0],"parents":[2147483647,0,0,1,1],"right_children":[2,4,-1,-1,-1],"split_conditions":[1.577601E-2,8.780701E-3,1.3983872E-2,-1.3745391E-2,-6.959439E-3],"split_indices":[0,0,0,0,0],"split_type":[0,0,0,0,0],"sum_hessian":[6.4809906E2,3.2716632E2,3.209327E2,3.235591E2,3.6072035E0],"tree_param":{"num_deleted":"0","num_feature":"37","num_nodes":"5","size_leaf_vector":"1"}},{"base_weights":[-2.5679555E-3,-1.3675276E-2,1.3926864E-2],"categories":[],"categories_nodes":[],"categories_segments":[],"categories_sizes":[],"default_left":[0,0,0],"id":62,"left_children":[1,-1,-1],"loss_changes":[1.2167043E3,0E0,0E0],"parents":[2147483647,0,0],"right_children":[2,-1,-1],"split_conditions":[1.577601E-2,-1.3675276E-2,1.3926864E-2],"split_indices":[0,0,0],"split_type":[0,0,0],"sum_hessian":[6.36869E2,3.2193954E2,3.1492947E2],"tree_param":{"num_deleted":"0","num_feature":"37","num_nodes":"3","size_leaf_vector":"1"}},{"base_weights":[-1.5192125E-4,-1.3592982E0,1.3874804E-2,-1.3647216E-2,-7.14767E-3],"categories":[],"categories_nodes":[],"categories_segments":[],"categories_sizes":[],"default_left":[0,0,0,0,0],"id":63,"left_children":[1,3,-1,-1,-1],"loss_changes":[1.2002285E3,1.4837646E-1,0E0,0E0,0E0],"parents":[2147483647,0,0,1,1],"right_children":[2,4,-1,-1,-1],"split_conditions":[1.577601E-2,8.780701E-3,1.3874804E-2,-1.3647216E-2,-7.14767E-3],"split_indices":[0,0,0,0,0],"split_type":[0,0,0,0,0],"sum_hessian":[6.3438995E2,3.2049484E2,3.1389514E2,3.167125E2,3.7823265E0],"tree_param":{"num_deleted":"0","num_feature":"37","num_nodes":"5","size_leaf_vector":"1"}},{"base_weights":[-8.064852E-3,-4.289028E-1,3.555882E-1,-1.1797819E0,-2.9152146E-1,9.094939E-1,1.8432441E-1,-6.192886E-1,-1.3114421E-2,1.06890336E-1,-7.705567E-1,1.0214659E0,-2.2281192E-1,-6.9292806E-2,9.516172E-1,1.7749418E-3,-1.0701299E-2,-1.4681898E-1,8.3400065E-1,-3.27177E-1,-9.7706467E-1,7.7897656E-1,1.282913E-2,2.8838753E-3,-6.256455E-3,8.435593E-2,-8.194459E-1,5.147856E-1,1.2257661E0,2.716209E-1,-5.2746433E-1,-4.832226E-4,9.4159657E-1,-1.0552238E-2,-5.978746E-2,-1.1218153E0,-5.76571E-1,1.0914865E0,4.3866414E-1,-3.9624423E-1,4.2782637E-1,-9.8202217E-1,4.671378E-3,2.0666854E-1,1.1406968E-2,6.2140566E-3,1.2728936E-2,-2.2197717E-3,7.352194E-3,-1.6531827E-3,-1.1723494E-2,1.0606327E-2,1.7852146E-4,5.364947E-3,-5.6941425E-3,-3.8430686E-3,-1.1867468E-2,-5.5678707E-4,-9.23533E-3,6.7778286E-3,1.2427542E-2,9.284222E-3,-1.0800083E-3,-7.712741E-4,-8.940701E-3,7.868932E-3,-9.82004E-4,-1.2795693E-2,-6.0218964E-3,7.213985E-3,-3.9793444E-3],"categories":[],"categories_nodes":[],"categories_segments":[],"categories_sizes":[],"default_left":[0,0,0,0,0,0,0,0,0,0,0,0,0,0,0,0,0,0,0,0,0,0,0,0,0,0,0,0,0,0,0,0,0,0,0,0,0,0,0,0,0,0,0,0,0,0,0,0,0,0,0,0,0,0,0,0,0,0,0,0,0,0,0,0,0,0,0,0,0,0,0],"id":64,"left_children":[1,3,5,7,9,11,13,15,-1,17,19,21,23,25,27,-1,-1,29,31,33,35,37,-1,-1,-1,39,41,43,45,47,49,-1,51,-1,53,55,57,59,61,63,65,67,-1,69,-1,-1,-1,-1,-1,-1,-1,-1,-1,-1,-1,-1,-1,-1,-1,-1,-1,-1,-1,-1,-1,-1,-1,-1,-1,-1,-1],"loss_changes":[9.62041E1,2.9715141E1,3.1823921E1,2.4893723E0,4.7347675E1,1.029332E1,5.0436825E1,3.927651E0,0E0,2.5226158E1,9.987434E0,3.5923004E0,1.8207088E0,2.259949E1,7.0778427E0,0E0,0E0,1.6346859E1,3.4014435E0,7.1930723E0,3.7762527E0,3.7881107E0,0E0,0E0,0E0,2.710096E1,7.4291477E0,4.883556E0,3.148613E-1,1.1403458E1,1.2326816E1,0E0,3.4510078E0,0E0,8.91187E0,2.176979E0,3.9811301E0,4.2448235E-1,5.6900406E0,1.0816369E1,1.8139784E1,2.6096306E0,0E0,6.2029934E0,0E0,0E0,0E0,0E0,0E0,0E0,0E0,0E0,0E0,0E0,0E0,0E0,0E0,0E0,0E0,0E0,0E0,0E0,0E0,0E0,0E0,0E0,0E0,0E0,0E0,0E0,0E0],"parents":[2147483647,0,0,1,1,2,2,3,3,4,4,5,5,6,6,7,7,9,9,10,10,11,11,12,12,13,13,14,14,17,17,18,18,19,19,20,20,21,21,25,25,26,26,27,27,28,28,29,29,30,30,32,32,34,34,35,35,36,36,37,37,38,38,39,39,40,40,41,41,43,43],"right_children":[2,4,6,8,10,12,14,16,-1,18,20,22,24,26,28,-1,-1,30,32,34,36,38,-1,-1,-1,40,42,44,46,48,50,-1,52,-1,54,56,58,60,62,64,66,68,-1,70,-1,-1,-1,-1,-1,-1,-1,-1,-1,-1,-1,-1,-1,-1,-1,-1,-1,-1,-1,-1,-1,-1,-1,-1,-1,-1,-1],"split_conditions":[-5.7120048E-2,-7.393601E-1,3.736148E-2,-4.0907502E-1,-3.87334E-1,1.2214661E0,7.9465896E-1,-1.0688746E0,-1.3114421E-2,-4.563752E-1,-5.46986E-1,1.77289E-1,-8.147512E-2,7.749848E-1,-7.85138E-3,1.7749418E-3,-1.0701299E-2,-3.0196655E-1,-6.1335087E-1,-4.563752E-1,-1.5317844E-1,-1.9493783E-1,1.282913E-2,2.8838753E-3,-6.256455E-3,2.9590732E-1,1.0589529E0,8.846834E-1,-9.8758054E-1,-6.2586E-1,-5.98707E-1,-4.832226E-4,9.169264E-1,-1.0552238E-2,-4.0239576E-2,-1.6414708E0,-1.03600994E-1,-4.6813747E-1,-3.1779537E-3,1.5445492E-1,4.2243466E-1,6.7920846E-1,4.671378E-3,9.021888E-1,1.1406968E-2,6.2140566E-3,1.2728936E-2,-2.2197717E-3,7.352194E-3,-1.6531827E-3,-1.1723494E-2,1.0606327E-2,1.7852146E-4,5.364947E-3,-5.6941425E-3,-3.8430686E-3,-1.1867468E-2,-5.5678707E-4,-9.23533E-3,6.7778286E-3,1.2427542E-2,9.284222E-3,-1.0800083E-3,-7.712741E-4,-8.940701E-3,7.868932E-3,-9.82004E-4,-1.2795693E-2,-6.0218964E-3,7.213985E-3,-3.9793444E-3],"split_indices":[22,16,17,2,17,4,16,22,0,16,4,22,5,17,2,0,0,4,15,16,22,17,0,0,0,22,15,16,8,16,17,0,4,0,17,6,17,12,10,4,4,15,0,17,0,0,0,0,0,0,0,0,0,0,0,0,0,0,0,0,0,0,0,0,0,0,0,0,0,0,0],"split_type":[0,0,0,0,0,0,0,0,0,0,0,0,0,0,0,0,0,0,0,0,0,0,0,0,0,0,0,0,0,0,0,0,0,0,0,0,0,0,0,0,0,0,0,0,0,0,0,0,0,0,0,0,0,0,0,0,0,0,0,0,0,0,0,0,0,0,0,0,0,0,0],"sum_hessian":[6.266282E2,2.9039212E2,3.3623608E2,4.37395E1,2.466526E2,7.83911E1,2.5784497E2,9.404995E0,3.4334503E1,1.3508215E2,1.1157045E2,7.14258E1,6.965298E0,1.9447414E2,6.3370842E1,3.6176815E0,5.787313E0,1.00732E2,3.435016E1,3.627376E1,7.529669E1,3.9120987E1,3.230481E1,3.1949635E0,3.7703347E0,1.6214967E2,3.232446E1,2.5544977E1,3.7825867E1,4.8120262E1,5.2611736E1,3.7934537E0,3.0556707E1,8.952244E0,2.7321518E1,5.39841E1,2.1312588E1,1.9242886E1,1.9878103E1,6.7519516E1,9.4630165E1,2.8908257E1,3.4162047E0,1.8009592E1,7.5353847E0,3.762429E0,3.4063435E1,2.3558487E1,2.4561775E1,3.449618E1,1.8115555E1,2.6937305E1,3.6194005E0,1.25660515E1,1.47554655E1,4.928107E0,4.9055992E1,8.984572E0,1.2328016E1,6.6195908E0,1.2623295E1,1.0116434E1,9.761669E0,4.184861E1,2.5670906E1,5.5945644E1,3.8684517E1,1.4881694E1,1.4026562E1,9.623462E0,8.386131E0],"tree_param":{"num_deleted":"0","num_feature":"37","num_nodes":"71","size_leaf_vector":"1"}},{"base_weights":[1.2924383E-2,-1.3521669E0,1.37991505E-2,-1.3576143E-2,-7.347046E-3],"categories":[],"categories_nodes":[],"categories_segments":[],"categories_sizes":[],"default_left":[0,0,0,0,0],"id":65,"left_children":[1,3,-1,-1,-1],"loss_changes":[1.1868041E3,7.299805E-2,0E0,0E0,0E0],"parents":[2147483647,0,0,1,1],"right_children":[2,4,-1,-1,-1],"split_conditions":[1.577601E-2,8.780701E-3,1.37991505E-2,-1.3576143E-2,-7.347046E-3],"split_indices":[0,0,0,0,0],"split_type":[0,0,0,0,0],"sum_hessian":[6.339923E2,3.1722195E2,3.1677032E2,3.1325952E2,3.9624274E0],"tree_param":{"num_deleted":"0","num_feature":"37","num_nodes":"5","size_leaf_vector":"1"}},{"base_weights":[6.019296E-5,-1.350796E-2,1.3750286E-2],"categories":[],"categories_nodes":[],"categories_segments":[],"categories_sizes":[],"default_left":[0,0,0],"id":66,"left_children":[1,-1,-1],"loss_changes":[1.1796707E3,0E0,0E0],"parents":[2147483647,0,0],"right_children":[2,-1,-1],"split_conditions":[1.577601E-2,-1.350796E-2,1.3750286E-2],"split_indices":[0,0,0],"split_type":[0,0,0],"sum_hessian":[6.331245E2,3.1937137E2,3.1375314E2],"tree_param":{"num_deleted":"0","num_feature":"37","num_nodes":"3","size_leaf_vector":"1"}},{"base_weights":[1.7512897E-3,-1.3424968E-2,1.3694967E-2],"categories":[],"categories_nodes":[],"categories_segments":[],"categories_sizes":[],"default_left":[0,0,0],"id":67,"left_children":[1,-1,-1],"loss_changes":[1.1606519E3,0E0,0E0],"parents":[2147483647,0,0],"right_children":[2,-1,-1],"split_conditions":[1.577601E-2,-1.3424968E-2,1.3694967E-2],"split_indices":[0,0,0],"split_type":[0,0,0],"sum_hessian":[6.2927313E2,3.1737195E2,3.1190118E2],"tree_param":{"num_deleted":"0","num_feature":"37","num_nodes":"3","size_leaf_vector":"1"}},{"base_weights":[1.5123576E-4,-1.3382086E0,1.3640281E-2,-1.34372795E-2,-7.1409536E-3],"categories":[],"categories_nodes":[],"categories_segments":[],"categories_sizes":[],"default_left":[0,0,0,0,0],"id":68,"left_children":[1,3,-1,-1,-1],"loss_changes":[1.1426572E3,1.2884521E-1,0E0,0E0,0E0],"parents":[2147483647,0,0,1,1],"right_children":[2,4,-1,-1,-1],"split_conditions":[1.577601E-2,8.780701E-3,1.3640281E-2,-1.34372795E-2,-7.1409536E-3],"split_indices":[0,0,0,0,0],"split_type":[0,0,0,0,0],"sum_hessian":[6.2399084E2,3.1495108E2,3.0903976E2,3.1104727E2,3.9038E0],"tree_param":{"num_deleted":"0","num_feature":"37","num_nodes":"5","size_leaf_vector":"1"}},{"base_weights":[4.01391E-3,-1.1972172E0,1.2618783E0,-1.2693423E0,6.136813E-2,-8.198031E-3,1.3307632E0,-1.2940117E0,-3.5507017E-1,-9.93174E-3,9.982104E-1,-1.08876275E-2,7.9116756E-1,6.8311756E-3,1.3407151E-2,-1.3186779E-2,-7.1184766E-1,-1.0160589E-2,4.6895277E-3,5.226659E-3,1.1703199E-2,1.0117542E-3,1.1693586E-2,-1.2146372E-2,4.4408618E-3],"categories":[],"categories_nodes":[],"categories_segments":[],"categories_sizes":[],"default_left":[0,0,0,0,0,0,0,0,0,0,0,0,0,0,0,0,0,0,0,0,0,0,0,0,0],"id":69,"left_children":[1,3,5,7,9,11,13,15,17,-1,19,-1,21,-1,-1,-1,23,-1,-1,-1,-1,-1,-1,-1,-1],"loss_changes":[9.324086E2,2.8731262E1,2.638327E1,6.2750244E0,1.8835838E1,1.5115005E1,9.27063E-1,3.230896E0,5.5000634E0,0E0,2.1198177E-1,0E0,2.5079198E0,0E0,0E0,0E0,8.661955E0,0E0,0E0,0E0,0E0,0E0,0E0,0E0,0E0],"parents":[2147483647,0,0,1,1,2,2,3,3,4,4,5,5,6,6,7,7,8,8,10,10,12,12,16,16],"right_children":[2,4,6,8,10,12,14,16,18,-1,20,-1,22,-1,-1,-1,24,-1,-1,-1,-1,-1,-1,-1,-1],"split_conditions":[2.6435152E-2,2.5016233E1,-1.6744207E1,1.0279329E-2,-1.2980784E0,1.0169619E0,4.218455E-2,4.6449323E0,3.7866116E-2,-9.93174E-3,-6.804723E-1,-1.08876275E-2,-5.513241E1,6.8311756E-3,1.3407151E-2,-1.3186779E-2,-4.430689E-1,-1.0160589E-2,4.6895277E-3,5.226659E-3,1.1703199E-2,1.0117542E-3,1.1693586E-2,-1.2146372E-2,4.4408618E-3],"split_indices":[3,1,1,3,3,3,3,1,30,0,3,0,1,0,0,0,3,0,0,0,0,0,0,0,0],"split_type":[0,0,0,0,0,0,0,0,0,0,0,0,0,0,0,0,0,0,0,0,0,0,0,0,0],"sum_hessian":[6.150864E2,3.1465063E2,3.0043582E2,2.9758835E2,1.7062279E1,1.5501699E1,2.849341E2,2.893652E2,8.223165E0,7.998622E0,9.063657E0,6.4375405E0,9.064158E0,5.3660917E0,2.7956802E2,2.763895E2,1.2975688E1,4.433662E0,3.7895021E0,3.4813619E0,5.582295E0,3.65794E0,5.4062185E0,9.007128E0,3.9685607E0],"tree_param":{"num_deleted":"0","num_feature":"37","num_nodes":"25","size_leaf_vector":"1"}},{"base_weights":[-1.0512872E-2,-1.3295298E-2,1.3551691E-2],"categories":[],"categories_nodes":[],"categories_segments":[],"categories_sizes":[],"default_left":[0,0,0],"id":70,"left_children":[1,-1,-1],"loss_changes":[1.1136727E3,0E0,0E0],"parents":[2147483647,0,0],"right_children":[2,-1,-1],"split_conditions":[1.577601E-2,-1.3295298E-2,1.3551691E-2],"split_indices":[0,0,0],"split_type":[0,0,0],"sum_hessian":[6.162406E2,3.1348947E2,3.0275116E2],"tree_param":{"num_deleted":"0","num_feature":"37","num_nodes":"3","size_leaf_vector":"1"}},{"base_weights":[7.948845E-3,-1.3241349E-2,1.3498323E-2],"categories":[],"categories_nodes":[],"categories_segments":[],"categories_sizes":[],"default_left":[0,0,0],"id":71,"left_children":[1,-1,-1],"loss_changes":[1.0892456E3,0E0,0E0],"parents":[2147483647,0,0],"right_children":[2,-1,-1],"split_conditions":[1.577601E-2,-1.3241349E-2,1.3498323E-2],"split_indices":[0,0,0],"split_type":[0,0,0],"sum_hessian":[6.073678E2,3.048035E2,3.025643E2],"tree_param":{"num_deleted":"0","num_feature":"37","num_nodes":"3","size_leaf_vector":"1"}},{"base_weights":[-1.2782739E-2,-1.3232645E-2,1.3446033E-2],"categories":[],"categories_nodes":[],"categories_segments":[],"categories_sizes":[],"default_left":[0,0,0],"id":72,"left_children":[1,-1,-1],"loss_changes":[1.081292E3,0E0,0E0],"parents":[2147483647,0,0],"right_children":[2,-1,-1],"split_conditions":[1.577601E-2,-1.3232645E-2,1.3446033E-2],"split_indices":[0,0,0],"split_type":[0,0,0],"sum_hessian":[6.0586676E2,3.0827213E2,2.9759467E2],"tree_param":{"num_deleted":"0","num_feature":"37","num_nodes":"3","size_leaf_vector":"1"}},{"base_weights":[-5.953551E-3,-1.3155139E-2,1.3406525E-2],"categories":[],"categories_nodes":[],"categories_segments":[],"categories_sizes":[],"default_left":[0,0,0],"id":73,"left_children":[1,-1,-1],"loss_changes":[1.0532323E3,0E0,0E0],"parents":[2147483647,0,0],"right_children":[2,-1,-1],"split_conditions":[1.577601E-2,-1.3155139E-2,1.3406525E-2],"split_indices":[0,0,0],"split_type":[0,0,0],"sum_hessian":[5.952525E2,3.0178894E2,2.9346353E2],"tree_param":{"num_deleted":"0","num_feature":"37","num_nodes":"3","size_leaf_vector":"1"}},{"base_weights":[1.9445214E-4,-1.3147125E-2,1.335399E-2],"categories":[],"categories_nodes":[],"categories_segments":[],"categories_sizes":[],"default_left":[0,0,0],"id":74,"left_children":[1,-1,-1],"loss_changes":[1.0515286E3,0E0,0E0],"parents":[2147483647,0,0],"right_children":[2,-1,-1],"split_conditions":[1.577601E-2,-1.3147125E-2,1.335399E-2],"split_indices":[0,0,0],"split_type":[0,0,0],"sum_hessian":[5.96933E2,3.0076022E2,2.9617276E2],"tree_param":{"num_deleted":"0","num_feature":"37","num_nodes":"3","size_leaf_vector":"1"}},{"base_weights":[-4.110379E-4,-4.1550338E-1,3.5302708E-1,-2.0862217E-1,-8.4918886E-1,2.2497661E-1,1.0155627E0,-7.091293E-1,2.746528E-1,4.4661793E-3,-9.118954E-1,6.243519E-1,-1.4063682E-1,2.098791E-3,1.1029092E0,-1.726837E-1,-1.0193099E0,7.98915E-1,4.3817956E-2,-4.3672243E-1,-1.0370079E0,8.2106733E-1,1.2722237E-1,-5.8237547E-1,2.1197082E-1,1.1519419E-2,4.7454494E-3,-7.6159346E-1,2.9787987E-2,-1.2441759E-2,-7.454535E-1,9.694627E-1,1.5162799E-1,4.0636528E-1,-3.0527753E-1,3.3671122E-2,-7.1273625E-1,-2.2578216E-3,-1.0789127E0,2.5867844E-1,9.9645287E-1,-9.175467E-2,7.0434713E-1,-2.0366985E-1,-8.6083734E-1,5.078602E-1,-3.8731247E-1,-2.9064529E-3,-9.853062E-3,5.442143E-3,-5.298742E-3,-1.0201465E-3,-1.022089E-2,5.366183E-3,1.1222718E-2,-2.823352E-3,5.4595405E-3,-1.9297847E-3,7.23917E-3,-1.1284213E-2,1.5198529E-3,5.674378E-3,-4.3227146E-3,-3.883002E-3,-9.075885E-3,-1.2304819E-2,-8.337722E-3,4.225578E-3,-5.0584916E-3,6.7439135E-3,1.189792E-2,4.2349994E-3,-5.0266455E-3,9.650303E-3,3.838223E-4,1.9840682E-3,-7.848233E-3,-1.0213073E-2,-3.5395483E-3,7.5545376E-3,-1.0355399E-3,-6.9220983E-3,4.216423E-3],"categories":[],"categories_nodes":[],"categories_segments":[],"categories_sizes":[],"default_left":[0,0,0,0,0,0,0,0,0,0,0,0,0,0,0,0,0,0,0,0,0,0,0,0,0,0,0,0,0,0,0,0,0,0,0,0,0,0,0,0,0,0,0,0,0,0,0,0,0,0,0,0,0,0,0,0,0,0,0,0,0,0,0,0,0,0,0,0,0,0,0,0,0,0,0,0,0,0,0,0,0,0,0],"id":75,"left_children":[1,3,5,7,9,11,13,15,17,-1,19,21,23,-1,25,27,29,31,33,35,37,39,41,43,45,-1,-1,47,49,-1,51,53,55,57,59,61,63,-1,65,67,69,71,73,75,77,79,81,-1,-1,-1,-1,-1,-1,-1,-1,-1,-1,-1,-1,-1,-1,-1,-1,-1,-1,-1,-1,-1,-1,-1,-1,-1,-1,-1,-1,-1,-1,-1,-1,-1,-1,-1,-1],"loss_changes":[8.7513855E1,2.4435936E1,2.7104912E1,4.544014E1,7.579937E0,3.9699905E1,3.4208565E0,1.5160355E1,1.1569003E1,0E0,4.5722656E0,1.2592945E1,2.2310688E1,0E0,8.8874435E-1,4.192659E0,2.65633E0,3.0825272E0,8.683794E0,2.5356352E0,2.0062256E0,8.899979E0,4.866301E0,6.520813E0,1.4373049E1,0E0,0E0,6.602669E-1,8.058026E0,0E0,5.010438E0,9.16975E-1,1.4009535E0,6.535631E0,1.3355117E1,2.261885E0,4.2113352E-1,0E0,1.3024902E0,3.1482873E0,3.5826416E0,6.231884E0,1.7973089E0,6.748844E0,2.5896454E0,8.245928E0,6.94963E0,0E0,0E0,0E0,0E0,0E0,0E0,0E0,0E0,0E0,0E0,0E0,0E0,0E0,0E0,0E0,0E0,0E0,0E0,0E0,0E0,0E0,0E0,0E0,0E0,0E0,0E0,0E0,0E0,0E0,0E0,0E0,0E0,0E0,0E0,0E0,0E0],"parents":[2147483647,0,0,1,1,2,2,3,3,4,4,5,5,6,6,7,7,8,8,10,10,11,11,12,12,14,14,15,15,16,16,17,17,18,18,19,19,20,20,21,21,22,22,23,23,24,24,27,27,28,28,30,30,31,31,32,32,33,33,34,34,35,35,36,36,38,38,39,39,40,40,41,41,42,42,43,43,44,44,45,45,46,46],"right_children":[2,4,6,8,10,12,14,16,18,-1,20,22,24,-1,26,28,30,32,34,36,38,40,42,44,46,-1,-1,48,50,-1,52,54,56,58,60,62,64,-1,66,68,70,72,74,76,78,80,82,-1,-1,-1,-1,-1,-1,-1,-1,-1,-1,-1,-1,-1,-1,-1,-1,-1,-1,-1,-1,-1,-1,-1,-1,-1,-1,-1,-1,-1,-1,-1,-1,-1,-1,-1,-1],"split_conditions":[-5.7120048E-2,-2.91286E-1,8.2709223E-1,-6.060148E-1,-2.3292294E0,3.4690982E-1,-5.263764E-1,-2.795834E-1,-5.46986E-1,4.4661793E-3,-3.7000483E-1,5.607276E-1,5.138219E-1,2.098791E-3,2.6847296E0,-7.631878E-1,-7.220327E-1,-3.8295278E-1,-5.428787E-1,-4.88617E-1,-1.533793E0,-4.0907502E-1,5.121754E-1,-1.4420244E-1,8.0085695E-1,1.1519419E-2,4.7454494E-3,-1.3313923E0,-7.0815164E-1,-1.2441759E-2,-8.6885655E-1,-6.571101E-1,7.4173875E-2,-6.1335087E-1,-4.5128816E-1,1.9079484E-2,4.0953685E-2,-2.2578216E-3,-2.6854452E-1,2.7044448E-1,1.4824095E-1,-8.8088796E-2,3.1754444E0,3.9418876E-1,4.1736016E-1,6.1560696E-1,1.030861E0,-2.9064529E-3,-9.853062E-3,5.442143E-3,-5.298742E-3,-1.0201465E-3,-1.022089E-2,5.366183E-3,1.1222718E-2,-2.823352E-3,5.4595405E-3,-1.9297847E-3,7.23917E-3,-1.1284213E-2,1.5198529E-3,5.674378E-3,-4.3227146E-3,-3.883002E-3,-9.075885E-3,-1.2304819E-2,-8.337722E-3,4.225578E-3,-5.0584916E-3,6.7439135E-3,1.189792E-2,4.2349994E-3,-5.0266455E-3,9.650303E-3,3.838223E-4,1.9840682E-3,-7.848233E-3,-1.0213073E-2,-3.5395483E-3,7.5545376E-3,-1.0355399E-3,-6.9220983E-3,4.216423E-3],"split_indices":[22,17,16,16,4,17,2,2,4,0,2,4,15,0,26,16,16,17,17,4,5,2,22,4,17,0,0,20,17,0,4,15,7,15,16,7,9,0,22,4,22,5,4,5,15,4,15,0,0,0,0,0,0,0,0,0,0,0,0,0,0,0,0,0,0,0,0,0,0,0,0,0,0,0,0,0,0,0,0,0,0,0,0],"split_type":[0,0,0,0,0,0,0,0,0,0,0,0,0,0,0,0,0,0,0,0,0,0,0,0,0,0,0,0,0,0,0,0,0,0,0,0,0,0,0,0,0,0,0,0,0,0,0,0,0,0,0,0,0,0,0,0,0,0,0,0,0,0,0,0,0,0,0,0,0,0,0,0,0,0,0,0,0,0,0,0,0,0,0],"sum_hessian":[5.945115E2,2.733281E2,3.211834E2,1.8605513E2,8.727294E1,2.7028424E2,5.089917E1,9.1168495E1,9.4886635E1,3.7457683E0,8.3527176E1,1.2883957E2,1.4144469E2,5.311234E0,4.5587936E1,3.3971973E1,5.7196526E1,2.8254728E1,6.6631905E1,1.8344816E1,6.518236E1,9.184475E1,3.699482E1,6.2497566E1,7.894712E1,4.151517E1,4.072764E0,7.985076E0,2.5986897E1,2.9461906E1,2.7734617E1,2.1968674E1,6.286055E0,3.2605724E1,3.4026184E1,7.1084046E0,1.1236411E1,3.515461E0,6.16669E1,2.2421898E1,6.942285E1,2.7428648E1,9.566171E0,2.7215775E1,3.528179E1,5.2954155E1,2.5992964E1,3.312006E0,4.67307E0,1.3555057E1,1.243184E1,8.750413E0,1.8984205E1,6.909278E0,1.5059396E1,3.127828E0,3.1582274E0,1.1428324E1,2.11774E1,1.1627361E1,2.2398823E1,3.211547E0,3.8968577E0,5.3392158E0,5.897196E0,3.562231E1,2.6044592E1,1.8832397E1,3.5895004E0,2.7725784E1,4.1697063E1,1.2155629E1,1.5273018E1,6.5522914E0,3.0138795E0,1.6475582E1,1.0740193E1,2.602717E1,9.254621E0,3.7523388E1,1.5430764E1,1.898266E1,7.010303E0],"tree_param":{"num_deleted":"0","num_feature":"37","num_nodes":"83","size_leaf_vector":"1"}},{"base_weights":[1.2826226E-2,-1.1710575E0,1.2416111E0,-1.2506362E0,1.937844E-1,-8.0029786E-2,1.2977949E0,-1.2697906E0,-5.8649544E-4,-8.598355E-1,9.920086E-3,-9.997054E-3,6.2404037E-1,6.543298E-3,1.3096372E-2,-1.2902908E0,-7.235374E-1,-1.0564006E-2,-4.1711507E-3,-5.0795975E-4,1.0603433E-2,-1.300131E-2,-8.18031E-1,-1.177278E-2,4.198534E-3,-1.0529639E-2,-3.5766058E-3],"categories":[],"categories_nodes":[],"categories_segments":[],"categories_sizes":[],"default_left":[0,0,0,0,0,0,0,0,0,0,0,0,0,0,0,0,0,0,0,0,0,0,0,0,0,0,0],"id":76,"left_children":[1,3,5,7,9,11,13,15,-1,17,-1,-1,19,-1,-1,21,23,-1,-1,-1,-1,-1,25,-1,-1,-1,-1],"loss_changes":[8.54553E2,3.273767E1,2.1507263E1,6.383148E0,1.544403E1,8.844493E0,1.2503967E0,2.183075E0,0E0,2.567582E-1,0E0,0E0,2.3523185E0,0E0,0E0,1.7712402E-1,6.898195E0,0E0,0E0,0E0,0E0,0E0,5.044327E-1,0E0,0E0,0E0,0E0],"parents":[2147483647,0,0,1,1,2,2,3,3,4,4,5,5,6,6,7,7,9,9,12,12,15,15,16,16,22,22],"right_children":[2,4,6,8,10,12,14,16,-1,18,-1,-1,20,-1,-1,22,24,-1,-1,-1,-1,-1,26,-1,-1,-1,-1],"split_conditions":[2.6435152E-2,2.5016233E1,-1.901268E1,1.8356653E-2,-1.2980784E0,1.0169619E0,4.218455E-2,4.6449323E0,-5.8649544E-4,5.218656E-1,9.920086E-3,-9.997054E-3,-5.5511173E-2,6.543298E-3,1.3096372E-2,-8.6149544E-4,-4.430689E-1,-1.0564006E-2,-4.1711507E-3,-5.0795975E-4,1.0603433E-2,-1.300131E-2,2.475561E-2,-1.177278E-2,4.198534E-3,-1.0529639E-2,-3.5766058E-3],"split_indices":[3,1,1,3,3,3,3,1,0,7,0,0,21,0,0,3,3,0,0,0,0,0,18,0,0,0,0],"split_type":[0,0,0,0,0,0,0,0,0,0,0,0,0,0,0,0,0,0,0,0,0,0,0,0,0,0,0],"sum_hessian":[5.8542786E2,2.9818542E2,2.872424E2,2.8183627E2,1.6349148E1,1.1695646E1,2.7554675E2,2.7731476E2,4.5215287E0,7.0139136E0,9.335235E0,4.889263E0,6.806383E0,5.9960294E0,2.6955072E2,2.6597113E2,1.1343631E1,3.8973544E0,3.1165595E0,3.0195599E0,3.786823E0,2.5882516E2,7.1459584E0,8.099719E0,3.2439115E0,3.8791616E0,3.2667968E0],"tree_param":{"num_deleted":"0","num_feature":"37","num_nodes":"27","size_leaf_vector":"1"}},{"base_weights":[-6.358128E-3,-1.3014064E0,1.3248969E-2,-1.3072197E-2,-6.417562E-3],"categories":[],"categories_nodes":[],"categories_segments":[],"categories_sizes":[],"default_left":[0,0,0,0,0],"id":77,"left_children":[1,3,-1,-1,-1],"loss_changes":[1.0169514E3,3.0770874E-1,0E0,0E0,0E0],"parents":[2147483647,0,0,1,1],"right_children":[2,4,-1,-1,-1],"split_conditions":[1.577601E-2,8.780701E-3,1.3248969E-2,-1.3072197E-2,-6.417562E-3],"split_indices":[0,0,0,0,0],"split_type":[0,0,0,0,0],"sum_hessian":[5.8786536E2,2.9799628E2,2.8986908E2,2.9441992E2,3.5763428E0],"tree_param":{"num_deleted":"0","num_feature":"37","num_nodes":"5","size_leaf_vector":"1"}},{"base_weights":[1.6325703E-3,-1.2977309E-2,1.3211504E-2],"categories":[],"categories_nodes":[],"categories_segments":[],"categories_sizes":[],"default_left":[0,0,0],"id":78,"left_children":[1,-1,-1],"loss_changes":[9.984612E2,0E0,0E0],"parents":[2147483647,0,0],"right_children":[2,-1,-1],"split_conditions":[1.577601E-2,-1.2977309E-2,1.3211504E-2],"split_indices":[0,0,0],"split_type":[0,0,0],"sum_hessian":[5.8035156E2,2.9241724E2,2.879343E2],"tree_param":{"num_deleted":"0","num_feature":"37","num_nodes":"3","size_leaf_vector":"1"}},{"base_weights":[1.2588631E-2,-1.2962836E-2,1.3168911E-2],"categories":[],"categories_nodes":[],"categories_segments":[],"categories_sizes":[],"default_left":[0,0,0],"id":79,"left_children":[1,-1,-1],"loss_changes":[9.938E2,0E0,0E0],"parents":[2147483647,0,0],"right_children":[2,-1,-1],"split_conditions":[1.577601E-2,-1.2962836E-2,1.3168911E-2],"split_indices":[0,0,0],"split_type":[0,0,0],"sum_hessian":[5.8013464E2,2.8956317E2,2.905715E2],"tree_param":{"num_deleted":"0","num_feature":"37","num_nodes":"3","size_leaf_vector":"1"}},{"base_weights":[-1.3192232E-2,-1.289839E-2,1.312563E-2],"categories":[],"categories_nodes":[],"categories_segments":[],"categories_sizes":[],"default_left":[0,0,0],"id":80,"left_children":[1,-1,-1],"loss_changes":[9.7027234E2,0E0,0E0],"parents":[2147483647,0,0],"right_children":[2,-1,-1],"split_conditions":[1.577601E-2,-1.289839E-2,1.312563E-2],"split_indices":[0,0,0],"split_type":[0,0,0],"sum_hessian":[5.7127014E2,2.9103894E2,2.8023123E2],"tree_param":{"num_deleted":"0","num_feature":"37","num_nodes":"3","size_leaf_vector":"1"}},{"base_weights":[-4.573726E-3,-1.150513E0,1.2260417E0,-1.2319056E0,1.6362807E-1,-6.7167304E-2,1.2838561E-2,-1.2484314E0,-2.7439245E-3,-9.359313E-3,9.934114E-3,-9.946013E-3,6.828676E-1,-1.2703442E-2,-6.9257504E-1,1.2649718E-3,1.0345752E-2,-1.1557981E-2,3.7345293E-3],"categories":[],"categories_nodes":[],"categories_segments":[],"categories_sizes":[],"default_left":[0,0,0,0,0,0,0,0,0,0,0,0,0,0,0,0,0,0,0],"id":81,"left_children":[1,3,5,7,9,11,-1,13,-1,-1,-1,-1,15,-1,17,-1,-1,-1,-1],"loss_changes":[8.0230255E2,3.1711884E1,2.059668E1,4.0489807E0,1.741185E1,9.5062E0,0E0,2.4398804E0,0E0,0E0,0E0,0E0,1.3580039E0,0E0,6.621658E0,0E0,0E0,0E0,0E0],"parents":[2147483647,0,0,1,1,2,2,3,3,4,4,5,5,7,7,12,12,14,14],"right_children":[2,4,6,8,10,12,-1,14,-1,-1,-1,-1,16,-1,18,-1,-1,-1,-1],"split_conditions":[2.6435152E-2,2.5016233E1,-1.901268E1,1.8356653E-2,-1.2980784E0,9.935388E-1,1.2838561E-2,4.6449323E0,-2.7439245E-3,-9.359313E-3,9.934114E-3,-9.946013E-3,-1.8549213E-1,-1.2703442E-2,-4.430689E-1,1.2649718E-3,1.0345752E-2,-1.1557981E-2,3.7345293E-3],"split_indices":[3,1,1,3,3,3,0,1,0,0,0,0,18,0,3,0,0,0,0],"split_type":[0,0,0,0,0,0,0,0,0,0,0,0,0,0,0,0,0,0,0],"sum_hessian":[5.669237E2,2.9359525E2,2.7332846E2,2.7653064E2,