{"learner":{"attributes":{"scikit_learn":"{\"_estimator_type\": \"classifier\"}"},"feature_names":[],"feature_types":[],"gradient_booster":{"model":{"cats":{"enc":[],"feature_segments":[],"sorted_idx":[]},"gbtree_model_param":{"num_parallel_tree":"1","num_trees":"1000"},"iteration_indptr":[0,1,2,3,4,5,6,7,8,9,10,11,12,13,14,15,16,17,18,19,20,21,22,23,24,25,26,27,28,29,30,31,32,33,34,35,36,37,38,39,40,41,42,43,44,45,46,47,48,49,50,51,52,53,54,55,56,57,58,59,60,61,62,63,64,65,66,67,68,69,70,71,72,73,74,75,76,77,78,79,80,81,82,83,84,85,86,87,88,89,90,91,92,93,94,95,96,97,98,99,100,101,102,103,104,105,106,107,108,109,110,111,112,113,114,115,116,117,118,119,120,121,122,123,124,125,126,127,128,129,130,131,132,133,134,135,136,137,138,139,140,141,142,143,144,145,146,147,148,149,150,151,152,153,154,155,156,157,158,159,160,161,162,163,164,165,166,167,168,169,170,171,172,173,174,175,176,177,178,179,180,181,182,183,184,185,186,187,188,189,190,191,192,193,194,195,196,197,198,199,200,201,202,203,204,205,206,207,208,209,210,211,212,213,214,215,216,217,218,219,220,221,222,223,224,225,226,227,228,229,230,231,232,233,234,235,236,237,238,239,240,241,242,243,244,245,246,247,248,249,250,251,252,253,254,255,256,257,258,259,260,261,262,263,264,265,266,267,268,269,270,271,272,273,274,275,276,277,278,279,280,281,282,283,284,285,286,287,288,289,290,291,292,293,294,295,296,297,298,299,300,301,302,303,304,305,306,307,308,309,310,311,312,313,314,315,316,317,318,319,320,321,322,323,324,325,326,327,328,329,330,331,332,333,334,335,336,337,338,339,340,341,342,343,344,345,346,347,348,349,350,351,352,353,354,355,356,357,358,359,360,361,362,363,364,365,366,367,368,369,370,371,372,373,374,375,376,377,378,379,380,381,382,383,384,385,386,387,388,389,390,391,392,393,394,395,396,397,398,399,400,401,402,403,404,405,406,407,408,409,410,411,412,413,414,415,416,417,418,419,420,421,422,423,424,425,426,427,428,429,430,431,432,433,434,435,436,437,438,439,440,441,442,443,444,445,446,447,448,449,450,451,452,453,454,455,456,457,458,459,460,461,462,463,464,465,466,467,468,469,470,471,472,473,474,475,476,477,478,479,480,481,482,483,484,485,486,487,488,489,490,491,492,493,494,495,496,497,498,499,500,501,502,503,504,505,506,507,508,509,510,511,512,513,514,515,516,517,518,519,520,521,522,523,524,525,526,527,528,529,530,531,532,533,534,535,536,537,538,539,540,541,542,543,544,545,546,547,548,549,550,551,552,553,554,555,556,557,558,559,560,561,562,563,564,565,566,567,568,569,570,571,572,573,574,575,576,577,578,579,580,581,582,583,584,585,586,587,588,589,590,591,592,593,594,595,596,597,598,599,600,601,602,603,604,605,606,607,608,609,610,611,612,613,614,615,616,617,618,619,620,621,622,623,624,625,626,627,628,629,630,631,632,633,634,635,636,637,638,639,640,641,642,643,644,645,646,647,648,649,650,651,652,653,654,655,656,657,658,659,660,661,662,663,664,665,666,667,668,669,670,671,672,673,674,675,676,677,678,679,680,681,682,683,684,685,686,687,688,689,690,691,692,693,694,695,696,697,698,699,700,701,702,703,704,705,706,707,708,709,710,711,712,713,714,715,716,717,718,719,720,721,722,723,724,725,726,727,728,729,730,731,732,733,734,735,736,737,738,739,740,741,742,743,744,745,746,747,748,749,750,751,752,753,754,755,756,757,758,759,760,761,762,763,764,765,766,767,768,769,770,771,772,773,774,775,776,777,778,779,780,781,782,783,784,785,786,787,788,789,790,791,792,793,794,795,796,797,798,799,800,801,802,803,804,805,806,807,808,809,810,811,812,813,814,815,816,817,818,819,820,821,822,823,824,825,826,827,828,829,830,831,832,833,834,835,836,837,838,839,840,841,842,843,844,845,846,847,848,849,850,851,852,853,854,855,856,857,858,859,860,861,862,863,864,865,866,867,868,869,870,871,872,873,874,875,876,877,878,879,880,881,882,883,884,885,886,887,888,889,890,891,892,893,894,895,896,897,898,899,900,901,902,903,904,905,906,907,908,909,910,911,912,913,914,915,916,917,918,919,920,921,922,923,924,925,926,927,928,929,930,931,932,933,934,935,936,937,938,939,940,941,942,943,944,945,946,947,948,949,950,951,952,953,954,955,956,957,958,959,960,961,962,963,964,965,966,967,968,969,970,971,972,973,974,975,976,977,978,979,980,981,982,983,984,985,986,987,988,989,990,991,992,993,994,995,996,997,998,999,1000],"tree_info":[0,0,0,0,0,0,0,0,0,0,0,0,0,0,0,0,0,0,0,0,0,0,0,0,0,0,0,0,0,0,0,0,0,0,0,0,0,0,0,0,0,0,0,0,0,0,0,0,0,0,0,0,0,0,0,0,0,0,0,0,0,0,0,0,0,0,0,0,0,0,0,0,0,0,0,0,0,0,0,0,0,0,0,0,0,0,0,0,0,0,0,0,0,0,0,0,0,0,0,0,0,0,0,0,0,0,0,0,0,0,0,0,0,0,0,0,0,0,0,0,0,0,0,0,0,0,0,0,0,0,0,0,0,0,0,0,0,0,0,0,0,0,0,0,0,0,0,0,0,0,0,0,0,0,0,0,0,0,0,0,0,0,0,0,0,0,0,0,0,0,0,0,0,0,0,0,0,0,0,0,0,0,0,0,0,0,0,0,0,0,0,0,0,0,0,0,0,0,0,0,0,0,0,0,0,0,0,0,0,0,0,0,0,0,0,0,0,0,0,0,0,0,0,0,0,0,0,0,0,0,0,0,0,0,0,0,0,0,0,0,0,0,0,0,0,0,0,0,0,0,0,0,0,0,0,0,0,0,0,0,0,0,0,0,0,0,0,0,0,0,0,0,0,0,0,0,0,0,0,0,0,0,0,0,0,0,0,0,0,0,0,0,0,0,0,0,0,0,0,0,0,0,0,0,0,0,0,0,0,0,0,0,0,0,0,0,0,0,0,0,0,0,0,0,0,0,0,0,0,0,0,0,0,0,0,0,0,0,0,0,0,0,0,0,0,0,0,0,0,0,0,0,0,0,0,0,0,0,0,0,0,0,0,0,0,0,0,0,0,0,0,0,0,0,0,0,0,0,0,0,0,0,0,0,0,0,0,0,0,0,0,0,0,0,0,0,0,0,0,0,0,0,0,0,0,0,0,0,0,0,0,0,0,0,0,0,0,0,0,0,0,0,0,0,0,0,0,0,0,0,0,0,0,0,0,0,0,0,0,0,0,0,0,0,0,0,0,0,0,0,0,0,0,0,0,0,0,0,0,0,0,0,0,0,0,0,0,0,0,0,0,0,0,0,0,0,0,0,0,0,0,0,0,0,0,0,0,0,0,0,0,0,0,0,0,0,0,0,0,0,0,0,0,0,0,0,0,0,0,0,0,0,0,0,0,0,0,0,0,0,0,0,0,0,0,0,0,0,0,0,0,0,0,0,0,0,0,0,0,0,0,0,0,0,0,0,0,0,0,0,0,0,0,0,0,0,0,0,0,0,0,0,0,0,0,0,0,0,0,0,0,0,0,0,0,0,0,0,0,0,0,0,0,0,0,0,0,0,0,0,0,0,0,0,0,0,0,0,0,0,0,0,0,0,0,0,0,0,0,0,0,0,0,0,0,0,0,0,0,0,0,0,0,0,0,0,0,0,0,0,0,0,0,0,0,0,0,0,0,0,0,0,0,0,0,0,0,0,0,0,0,0,0,0,0,0,0,0,0,0,0,0,0,0,0,0,0,0,0,0,0,0,0,0,0,0,0,0,0,0,0,0,0,0,0,0,0,0,0,0,0,0,0,0,0,0,0,0,0,0,0,0,0,0,0,0,0,0,0,0,0,0,0,0,0,0,0,0,0,0,0,0,0,0,0,0,0,0,0,0,0,0,0,0,0,0,0,0,0,0,0,0,0,0,0,0,0,0,0,0,0,0,0,0,0,0,0,0,0,0,0,0,0,0,0,0,0,0,0,0,0,0,0,0,0,0,0,0,0,0,0,0,0,0,0,0,0,0,0,0,0,0,0,0,0,0,0,0,0,0,0,0,0,0,0,0,0,0,0,0,0,0,0,0,0,0,0,0,0,0,0,0,0,0,0,0,0,0,0,0,0,0,0,0,0,0,0,0,0,0,0,0,0,0,0,0,0,0,0,0,0,0,0,0,0,0,0,0,0,0,0,0,0,0,0,0,0,0,0,0,0,0,0,0,0,0,0,0,0,0,0,0,0,0,0,0,0,0,0,0,0,0,0,0,0,0,0,0,0,0,0,0,0,0,0,0,0,0,0,0,0,0,0,0,0,0,0,0,0,0,0,0,0,0,0,0,0,0,0,0,0,0,0,0,0,0,0,0,0,0,0,0,0,0,0,0,0,0,0,0,0,0,0,0,0,0,0,0,0,0,0,0,0,0,0,0,0,0,0,0,0,0,0,0,0,0,0,0,0,0,0,0,0,0,0,0,0,0,0,0,0,0,0,0,0,0,0,0,0,0],"trees":[{"base_weights":[-2.0914696E-2,-1.9394003E0,2.032431E-2,-1.9587772E-2,-7.178079E-1,-1.3048748E-2,2.8814346E-4],"categories":[],"categories_nodes":[],"categories_segments":[],"categories_sizes":[],"default_left":[0,0,0,0,0,0,0],"id":0,"left_children":[1,3,-1,-1,5,-1,-1],"loss_changes":[3.1326548E3,8.325317E0,0E0,0E0,3.5430837E0,0E0,0E0],"parents":[2147483647,0,0,1,1,4,4],"right_children":[2,4,-1,-1,6,-1,-1],"split_conditions":[1.5788242E-2,4.6733445E-3,2.032431E-2,-1.9587772E-2,-4.7099796E-1,-1.3048748E-2,2.8814346E-4],"split_indices":[0,0,0,0,17,0,0],"split_type":[0,0,0,0,0,0,0],"sum_hessian":[7.9322784E2,4.1010928E2,3.8311856E2,4.031117E2,6.997599E0,3.4987996E0,3.4987996E0],"tree_param":{"num_deleted":"0","num_feature":"37","num_nodes":"7","size_leaf_vector":"1"}},{"base_weights":[-2.691132E-3,-1.9206682E0,2.0116491E-2,-1.9401113E-2,-3.639438E-3],"categories":[],"categories_nodes":[],"categories_segments":[],"categories_sizes":[],"default_left":[0,0,0,0,0],"id":1,"left_children":[1,3,-1,-1,-1],"loss_changes":[3.0671978E3,1.1603027E1,0E0,0E0,0E0],"parents":[2147483647,0,0,1,1],"right_children":[2,4,-1,-1,-1],"split_conditions":[1.5788242E-2,7.775647E-3,2.0116491E-2,-1.9401113E-2,-3.639438E-3],"split_indices":[0,0,0,0,0],"split_type":[0,0,0,0,0],"sum_hessian":[7.9189954E2,4.0567648E2,3.8622302E2,4.00429E2,5.247504E0],"tree_param":{"num_deleted":"0","num_feature":"37","num_nodes":"5","size_leaf_vector":"1"}},{"base_weights":[-3.5474126E-3,-1.9006182E0,1.9914933E-2,-1.9220352E-2,-4.4309455E-3],"categories":[],"categories_nodes":[],"categories_segments":[],"categories_sizes":[],"default_left":[0,0,0,0,0],"id":2,"left_children":[1,3,-1,-1,-1],"loss_changes":[3.0321865E3,1.1967529E1,0E0,0E0,0E0],"parents":[2147483647,0,0,1,1],"right_children":[2,4,-1,-1,-1],"split_conditions":[1.5788242E-2,7.775647E-3,1.9914933E-2,-1.9220352E-2,-4.4309455E-3],"split_indices":[0,0,0,0,0],"split_type":[0,0,0,0,0],"sum_hessian":[7.9916235E2,4.0966345E2,3.8949887E2,4.0341687E2,6.246589E0],"tree_param":{"num_deleted":"0","num_feature":"37","num_nodes":"5","size_leaf_vector":"1"}},{"base_weights":[-1.5675923E-2,-1.7523276E0,1.8465426E0,-1.8429508E0,5.7648726E-2,1.3633387E-1,1.9296285E0,-1.8784035E0,-1.0526468E0,-1.4376867E0,1.3833896E0,-1.5243454E-2,1.1204498E0,1.0527115E0,1.9498918E-2,-1.8934024E-2,-1.1191646E0,-1.66145E-2,1.1523442E-2,-1.6358797E-2,-7.72704E-3,7.895631E-3,1.6840393E-2,-1.6550577E-3,1.7443445E-2,1.4921104E-2,3.8164014E-3,-1.630568E-2,-7.368708E-4],"categories":[],"categories_nodes":[],"categories_segments":[],"categories_sizes":[],"default_left":[0,0,0,0,0,0,0,0,0,0,0,0,0,0,0,0,0,0,0,0,0,0,0,0,0,0,0,0,0],"id":3,"left_children":[1,3,5,7,9,11,13,15,17,19,21,-1,23,25,-1,-1,27,-1,-1,-1,-1,-1,-1,-1,-1,-1,-1,-1,-1],"loss_changes":[2.5897231E3,6.807068E1,5.464514E1,9.07959E0,4.307778E1,3.2726097E1,4.494385E0,2.1674805E0,2.771217E1,8.429527E-2,7.227535E-1,0E0,1.0312365E1,2.525157E0,0E0,0E0,5.0861197E0,0E0,0E0,0E0,0E0,0E0,0E0,0E0,0E0,0E0,0E0,0E0,0E0],"parents":[2147483647,0,0,1,1,2,2,3,3,4,4,5,5,6,6,7,7,8,8,9,9,10,10,12,12,13,13,16,16],"right_children":[2,4,6,8,10,12,14,16,18,20,22,-1,24,26,-1,-1,28,-1,-1,-1,-1,-1,-1,-1,-1,-1,-1,-1,-1],"split_conditions":[2.0849565E-2,2.473989E1,-1.8971054E1,4.2172117E0,-1.3209453E0,1.0169631E0,4.175482E-2,6.432085E-3,-1.8305509E-1,6.0588783E-1,3.748275E1,-1.5243454E-2,-1.1814176E-1,2.8397465E-2,1.9498918E-2,-1.8934024E-2,9.703052E-2,-1.66145E-2,1.1523442E-2,-1.6358797E-2,-7.72704E-3,7.895631E-3,1.6840393E-2,-1.6550577E-3,1.7443445E-2,1.4921104E-2,3.8164014E-3,-1.630568E-2,-7.368708E-4],"split_indices":[3,1,1,1,3,3,3,3,3,7,1,0,21,11,0,0,19,0,0,0,0,0,0,0,0,0,0,0,0],"split_type":[0,0,0,0,0,0,0,0,0,0,0,0,0,0,0,0,0,0,0,0,0,0,0,0,0,0,0,0,0],"sum_hessian":[7.987735E2,4.1335214E2,3.8542136E2,3.9362558E2,1.9726559E1,1.7979458E1,3.674419E2,3.7540814E2,1.8217447E1,9.230647E0,1.0495912E1,6.485811E0,1.1493648E1,9.494886E0,3.57947E2,3.666706E2,8.737526E0,1.4469021E1,3.748426E0,5.986411E0,3.244236E0,4.746693E0,5.7492185E0,3.9946663E0,7.4989805E0,4.9985194E0,4.496367E0,5.491619E0,3.245907E0],"tree_param":{"num_deleted":"0","num_feature":"37","num_nodes":"29","size_leaf_vector":"1"}},{"base_weights":[1.8377476E-3,-1.8694414E0,1.9538254E-2,-1.8881945E-2,-6.146863E-1,1.605553E-3,-1.2453117E-2],"categories":[],"categories_nodes":[],"categories_segments":[],"categories_sizes":[],"default_left":[0,0,0,0,0,0,0],"id":4,"left_children":[1,3,-1,-1,5,-1,-1],"loss_changes":[2.9204578E3,8.44458E0,0E0,0E0,3.8635225E0,0E0,0E0],"parents":[2147483647,0,0,1,1,4,4],"right_children":[2,4,-1,-1,6,-1,-1],"split_conditions":[1.5788242E-2,7.775647E-3,1.9538254E-2,-1.8881945E-2,0E0,1.605553E-3,-1.2453117E-2],"split_indices":[0,0,0,0,31,0,0],"split_type":[0,0,0,0,0,0,0],"sum_hessian":[7.97531E2,4.0720496E2,3.9032605E2,4.0071124E2,6.493717E0,3.2472298E0,3.2464874E0],"tree_param":{"num_deleted":"0","num_feature":"37","num_nodes":"7","size_leaf_vector":"1"}},{"base_weights":[-3.2861507E-3,-1.8529595E0,1.935405E-2,-1.8715287E-2,-4.6367603E-3],"categories":[],"categories_nodes":[],"categories_segments":[],"categories_sizes":[],"default_left":[0,0,0,0,0],"id":5,"left_children":[1,3,-1,-1,-1],"loss_changes":[2.8763003E3,9.721436E0,0E0,0E0,0E0],"parents":[2147483647,0,0,1,1],"right_children":[2,4,-1,-1,-1],"split_conditions":[1.5788242E-2,7.775647E-3,1.935405E-2,-1.8715287E-2,-4.6367603E-3],"split_indices":[0,0,0,0,0],"split_type":[0,0,0,0,0],"sum_hessian":[8.001037E2,4.0947476E2,3.9062894E2,4.0373138E2,5.743379E0],"tree_param":{"num_deleted":"0","num_feature":"37","num_nodes":"5","size_leaf_vector":"1"}},{"base_weights":[3.474525E-3,-1.8342597E0,1.9173268E-2,-1.8552355E-2,-4.7370353E-1,-1.001521E-2,1.6548777E-3],"categories":[],"categories_nodes":[],"categories_segments":[],"categories_sizes":[],"default_left":[0,0,0,0,0,0,0],"id":6,"left_children":[1,3,-1,-1,5,-1,-1],"loss_changes":[2.7920378E3,1.0678345E1,0E0,0E0,2.6932166E0,0E0,0E0],"parents":[2147483647,0,0,1,1,4,4],"right_children":[2,4,-1,-1,6,-1,-1],"split_conditions":[1.5788242E-2,7.775647E-3,1.9173268E-2,-1.8552355E-2,-1.3482986E-1,-1.001521E-2,1.6548777E-3],"split_indices":[0,0,0,0,20,0,0],"split_type":[0,0,0,0,0,0,0],"sum_hessian":[7.918349E2,4.0397165E2,3.8786325E2,3.9748007E2,6.4915657E0,3.245068E0,3.2464979E0],"tree_param":{"num_deleted":"0","num_feature":"37","num_nodes":"7","size_leaf_vector":"1"}},{"base_weights":[-1.4262093E-2,-1.6796348E0,1.7764918E0,-1.7934113E0,3.4185875E-2,1.5093008E-1,1.8584818E0,-1.8188598E-2,-1.0178841E0,-1.4128969E0,1.2818494E0,-1.4199114E-2,1.2801211E0,2.3638655E-3,1.8733544E0,-1.6781207E-2,7.202296E-3,-1.6565695E-2,-5.214658E-3,4.987373E-3,1.6229846E-2,1.3242258E-3,1.6904265E-2,1.1823981E0,1.8830437E-2,5.7203313E-3,1.4951937E-2],"categories":[],"categories_nodes":[],"categories_segments":[],"categories_sizes":[],"default_left":[0,0,0,0,0,0,0,0,0,0,0,0,0,0,0,0,0,0,0,0,0,0,0,0,0,0,0],"id":7,"left_children":[1,3,5,7,9,11,13,-1,15,17,19,-1,21,-1,23,-1,-1,-1,-1,-1,-1,-1,-1,25,-1,-1,-1],"loss_changes":[2.3950347E3,8.119934E1,5.129651E1,5.8499756E0,5.0353016E1,3.670748E1,8.442627E0,0E0,1.8042156E1,1.9434414E0,3.1876469E0,0E0,5.4126606E0,0E0,2.1582031E-1,0E0,0E0,0E0,0E0,0E0,0E0,0E0,0E0,6.210394E-1,0E0,0E0,0E0],"parents":[2147483647,0,0,1,1,2,2,3,3,4,4,5,5,6,6,8,8,9,9,10,10,12,12,14,14,23,23],"right_children":[2,4,6,8,10,12,14,-1,16,18,20,-1,22,-1,24,-1,-1,-1,-1,-1,-1,-1,-1,26,-1,-1,-1],"split_conditions":[2.0849565E-2,1.9495474E1,-1.6425756E1,4.2172117E0,-1.4176E0,1.0169631E0,2.665151E-2,-1.8188598E-2,-3.195885E-1,1.0404955E-2,2.7486399E1,-1.4199114E-2,-7.259539E1,2.3638655E-3,4.175482E-2,-1.6781207E-2,7.202296E-3,-1.6565695E-2,-5.214658E-3,4.987373E-3,1.6229846E-2,1.3242258E-3,1.6904265E-2,8.506645E-2,1.8830437E-2,5.7203313E-3,1.4951937E-2],"split_indices":[3,1,1,1,3,3,3,0,3,20,1,0,1,0,3,0,0,0,0,0,0,0,0,6,0,0,0],"split_type":[0,0,0,0,0,0,0,0,0,0,0,0,0,0,0,0,0,0,0,0,0,0,0,0,0,0,0],"sum_hessian":[8.0108997E2,4.151081E2,3.859819E2,3.892221E2,2.588598E1,1.8669756E1,3.6731213E2,3.7555322E2,1.3668889E1,1.1923853E1,1.3962128E1,7.7002773E0,1.0969479E1,3.4907074E0,3.6382144E2,9.931025E0,3.7378645E0,8.690091E0,3.2337625E0,4.983643E0,8.978484E0,3.2371962E0,7.732282E0,6.73279E0,3.5708865E2,3.2397575E0,3.4930325E0],"tree_param":{"num_deleted":"0","num_feature":"37","num_nodes":"27","size_leaf_vector":"1"}},{"base_weights":[-1.0850125E-2,-1.8071384E0,1.8835353E-2,-1.8251654E-2,-5.4746866E-3],"categories":[],"categories_nodes":[],"categories_segments":[],"categories_sizes":[],"default_left":[0,0,0,0,0],"id":8,"left_children":[1,3,-1,-1,-1],"loss_changes":[2.7293484E3,8.349609E0,0E0,0E0,0E0],"parents":[2147483647,0,0,1,1],"right_children":[2,4,-1,-1,-1],"split_conditions":[1.5788242E-2,7.775647E-3,1.8835353E-2,-1.8251654E-2,-5.4746866E-3],"split_indices":[0,0,0,0,0],"split_type":[0,0,0,0,0],"sum_hessian":[8.00074E2,4.106935E2,3.8938043E2,4.0445645E2,6.237048E0],"tree_param":{"num_deleted":"0","num_feature":"37","num_nodes":"5","size_leaf_vector":"1"}},{"base_weights":[2.4102528E-2,-1.6448342E0,1.7509282E0,-1.7506882E0,1.7067662E-1,-4.428009E-2,1.8336862E0,-1.7804868E0,-1.0244699E0,-1.4757491E-2,1.4632127E0,-1.4825745E-2,1.0339347E0,8.07786E-3,1.8453993E-2,-1.7949112E-2,-1.1030929E0,-1.5510811E-2,7.0838407E-3,7.765091E-3,1.6047115E-2,2.1787488E-4,1.6083281E-2,-1.5834756E-2,-5.370703E-4],"categories":[],"categories_nodes":[],"categories_segments":[],"categories_sizes":[],"default_left":[0,0,0,0,0,0,0,0,0,0,0,0,0,0,0,0,0,0,0,0,0,0,0,0,0],"id":9,"left_children":[1,3,5,7,9,11,13,15,17,-1,19,-1,21,-1,-1,-1,23,-1,-1,-1,-1,-1,-1,-1,-1],"loss_changes":[2.2831965E3,7.772351E1,5.792737E1,6.4161377E0,5.1332554E1,2.9655949E1,2.9822998E0,1.5806885E0,1.6943485E1,0E0,6.0523987E-2,0E0,6.3332253E0,0E0,0E0,0E0,5.053009E0,0E0,0E0,0E0,0E0,0E0,0E0,0E0,0E0],"parents":[2147483647,0,0,1,1,2,2,3,3,4,4,5,5,6,6,7,7,8,8,10,10,12,12,16,16],"right_children":[2,4,6,8,10,12,14,16,18,-1,20,-1,22,-1,-1,-1,24,-1,-1,-1,-1,-1,-1,-1,-1],"split_conditions":[2.0849565E-2,2.473989E1,-1.8971054E1,4.2172117E0,-1.3209453E0,1.0169631E0,3.3724863E-2,6.432085E-3,-2.892155E-1,-1.4757491E-2,-7.221838E-1,-1.4825745E-2,-1.1814176E-1,8.07786E-3,1.8453993E-2,-1.7949112E-2,6.65014E-2,-1.5510811E-2,7.0838407E-3,7.765091E-3,1.6047115E-2,2.1787488E-4,1.6083281E-2,-1.5834756E-2,-5.370703E-4],"split_indices":[3,1,1,1,3,3,3,3,3,0,7,0,21,0,0,0,15,0,0,0,0,0,0,0,0],"split_type":[0,0,0,0,0,0,0,0,0,0,0,0,0,0,0,0,0,0,0,0,0,0,0,0,0],"sum_hessian":[7.902374E2,4.018786E2,3.8835883E2,3.797716E2,2.2107012E1,1.7134663E1,3.7122418E2,3.6340826E2,1.6363316E1,9.660178E0,1.2446833E1,7.1807756E0,9.953887E0,4.9803557E0,3.662438E2,3.5421588E2,9.192386E0,1.2629984E1,3.733331E0,3.2349808E0,9.211852E0,3.979493E0,5.9743943E0,5.956633E0,3.2357528E0],"tree_param":{"num_deleted":"0","num_feature":"37","num_nodes":"25","size_leaf_vector":"1"}},{"base_weights":[8.712773E-3,-1.7803146E0,1.851668E-2,-1.7961966E-2,-6.7070858E-3],"categories":[],"categories_nodes":[],"categories_segments":[],"categories_sizes":[],"default_left":[0,0,0,0,0],"id":10,"left_children":[1,3,-1,-1,-1],"loss_changes":[2.5948784E3,5.833008E0,0E0,0E0,0E0],"parents":[2147483647,0,0,1,1],"right_children":[2,4,-1,-1,-1],"split_conditions":[1.5788242E-2,4.6733445E-3,1.851668E-2,-1.7961966E-2,-6.7070858E-3],"split_indices":[0,0,0,0,0],"split_type":[0,0,0,0,0],"sum_hessian":[7.850191E2,3.983548E2,3.8666428E2,3.9212354E2,6.231283E0],"tree_param":{"num_deleted":"0","num_feature":"37","num_nodes":"5","size_leaf_vector":"1"}},{"base_weights":[-8.6763274E-4,-5.218957E-1,4.606748E-1,-1.2865762E0,-2.6157844E-1,2.813874E-1,1.4169225E0,-3.8087073E-1,-1.4289119E0,3.158406E-1,-9.8432577E-1,7.7258533E-1,-2.577348E-1,1.6904996E-3,1.526818E0,1.2702069E-1,-1.1545093E-2,-1.6369652E0,-1.0843285E0,1.0975653E0,1.1846354E-2,6.307837E-3,-1.0678054E0,9.960109E-1,-6.7086965E-2,1.2344162E-1,-8.634754E-1,1.1933107E0,1.7577225E-2,-5.7380972E-3,1.0295814E-2,-8.311426E-3,-1.6851718E-2,7.930438E-2,-1.464888E0,1.2383703E0,-5.0639557E-3,-5.2982306E-1,6.196047E-1,-1.4305339E0,-6.702888E-1,5.086098E-1,1.4562286E0,-5.473887E-1,7.3312134E-1,-7.3958975E-1,6.582437E-1,-1.0005324E0,2.5690642E-1,1.4721171E0,4.671384E-1,-6.813819E-3,1.02975415E-2,-7.968941E-3,-1.6862696E-2,1.0049636E-3,1.4044765E-2,2.0075014E-3,-1.4530273E-2,1.105645E-2,-2.3703027E-4,-3.0660394E-3,-1.5410894E-2,1.15608214E-4,-1.0720766E-2,1.1396961E-2,-3.5466542E-3,5.960184E-3,1.5459242E-2,6.307837E-3,-9.1881445E-3,-1.2247836E-3,1.1507976E-2,-8.608931E-4,-1.2355081E-2,9.007974E-3,-7.880484E-3,-1.2404785E-2,-4.0532467E-3,8.833137E-3,-5.060048E-3,1.69968E-2,8.722183E-3,9.730988E-3,-1.5921029E-3],"categories":[],"categories_nodes":[],"categories_segments":[],"categories_sizes":[],"default_left":[0,0,0,0,0,0,0,0,0,0,0,0,0,0,0,0,0,0,0,0,0,0,0,0,0,0,0,0,0,0,0,0,0,0,0,0,0,0,0,0,0,0,0,0,0,0,0,0,0,0,0,0,0,0,0,0,0,0,0,0,0,0,0,0,0,0,0,0,0,0,0,0,0,0,0,0,0,0,0,0,0,0,0,0,0],"id":11,"left_children":[1,3,5,7,9,11,13,15,17,19,21,23,25,-1,27,29,-1,31,33,35,37,-1,39,41,43,45,47,49,-1,-1,-1,-1,-1,51,53,55,-1,57,59,61,63,65,67,69,71,73,75,77,79,81,83,-1,-1,-1,-1,-1,-1,-1,-1,-1,-1,-1,-1,-1,-1,-1,-1,-1,-1,-1,-1,-1,-1,-1,-1,-1,-1,-1,-1,-1,-1,-1,-1,-1,-1],"loss_changes":[1.8945375E2,7.332832E1,7.122371E1,1.1538864E1,1.1605057E2,9.369236E1,8.753342E0,5.6841073E0,4.005951E0,3.6803196E1,1.731285E1,3.477098E1,3.914247E1,0E0,2.5436707E0,6.542094E0,0E0,4.7631836E-1,1.4871178E1,1.04213295E1,3.7382656E1,0E0,1.601477E1,3.204721E1,1.5703633E1,4.87842E1,1.0303089E1,4.934784E0,0E0,0E0,0E0,0E0,0E0,7.324379E0,2.376854E0,7.4489136E0,0E0,4.0795982E1,1.6755432E1,7.066147E0,1.591482E1,3.9916473E1,4.838043E0,1.1717946E1,5.6305265E0,1.302095E1,2.3559599E1,7.8514786E0,4.235009E0,1.1933975E0,3.0606775E0,0E0,0E0,0E0,0E0,0E0,0E0,0E0,0E0,0E0,0E0,0E0,0E0,0E0,0E0,0E0,0E0,0E0,0E0,0E0,0E0,0E0,0E0,0E0,0E0,0E0,0E0,0E0,0E0,0E0,0E0,0E0,0E0,0E0,0E0],"parents":[2147483647,0,0,1,1,2,2,3,3,4,4,5,5,6,6,7,7,8,8,9,9,10,10,11,11,12,12,14,14,15,15,17,17,18,18,19,19,20,20,22,22,23,23,24,24,25,25,26,26,27,27,33,33,34,34,35,35,37,37,38,38,39,39,40,40,41,41,42,42,43,43,44,44,45,45,46,46,47,47,48,48,49,49,50,50],"right_children":[2,4,6,8,10,12,14,16,18,20,22,24,26,-1,28,30,-1,32,34,36,38,-1,40,42,44,46,48,50,-1,-1,-1,-1,-1,52,54,56,-1,58,60,62,64,66,68,70,72,74,76,78,80,82,84,-1,-1,-1,-1,-1,-1,-1,-1,-1,-1,-1,-1,-1,-1,-1,-1,-1,-1,-1,-1,-1,-1,-1,-1,-1,-1,-1,-1,-1,-1,-1,-1,-1,-1],"split_conditions":[-4.79534E-2,-6.786157E-1,8.1073415E-1,-1.139247E0,-3.2827428E-1,4.1274402E-1,-5E-1,-7.3604655E-1,-7.49718E-1,-6.3870645E-1,-2.3272738E0,8.582201E-1,2.6200145E-1,1.6904996E-3,8.701073E-1,-1.1931685E0,-1.1545093E-2,-2.79524E0,-7.661302E-1,1.13131E0,-4.8865035E-1,6.307837E-3,-2.592337E-1,1.951227E-1,3.4680519E-1,4.0751648E-1,1.0031534E0,8.9126796E-1,1.7577225E-2,-5.7380972E-3,1.0295814E-2,-8.311426E-3,-1.6851718E-2,-9.975923E-1,-9.244059E-1,-9.363676E-1,-5.0639557E-3,-6.19553E-1,-4.6286535E-1,-5E-1,-1.2036249E-1,4.400483E-2,-9.0463346E-1,-1.8340443E-1,-1.4075287E-1,-4.4698393E-1,8.5902935E-1,6.987995E-1,8.34456E-1,7.8554153E-1,1.9384272E-1,-6.813819E-3,1.02975415E-2,-7.968941E-3,-1.6862696E-2,1.0049636E-3,1.4044765E-2,2.0075014E-3,-1.4530273E-2,1.105645E-2,-2.3703027E-4,-3.0660394E-3,-1.5410894E-2,1.15608214E-4,-1.0720766E-2,1.1396961E-2,-3.5466542E-3,5.960184E-3,1.5459242E-2,6.307837E-3,-9.1881445E-3,-1.2247836E-3,1.1507976E-2,-8.608931E-4,-1.2355081E-2,9.007974E-3,-7.880484E-3,-1.2404785E-2,-4.0532467E-3,8.833137E-3,-5.060048E-3,1.69968E-2,8.722183E-3,9.730988E-3,-1.5921029E-3],"split_indices":[15,16,16,7,17,17,31,17,16,4,4,4,4,0,16,21,0,6,17,6,16,0,15,15,16,15,15,17,0,0,0,0,0,15,4,15,0,17,17,31,17,17,27,17,29,4,17,16,17,4,7,0,0,0,0,0,0,0,0,0,0,0,0,0,0,0,0,0,0,0,0,0,0,0,0,0,0,0,0,0,0,0,0,0,0],"split_type":[0,0,0,0,0,0,0,0,0,0,0,0,0,0,0,0,0,0,0,0,0,0,0,0,0,0,0,0,0,0,0,0,0,0,0,0,0,0,0,0,0,0,0,0,0,0,0,0,0,0,0,0,0,0,0,0,0,0,0,0,0,0,0,0,0,0,0,0,0,0,0,0,0,0,0,0,0,0,0,0,0,0,0,0,0],"sum_hessian":[7.8582654E2,3.6906454E2,4.16762E2,9.272958E1,2.7633496E2,3.5205017E2,6.471182E1,1.3092942E1,7.9636635E1,1.5392436E2,1.22410614E2,1.839861E2,1.6806406E2,5.443118E0,5.92687E1,8.408561E0,4.684382E0,4.731696E1,3.231968E1,4.2366905E1,1.1155745E2,5.6938353E0,1.1671678E2,1.4517168E2,3.8814426E1,1.03641464E2,6.44226E1,2.677056E1,3.2498142E1,4.938276E0,3.470285E0,3.700511E0,4.3616447E1,8.160133E0,2.4159546E1,3.915737E1,3.209531E0,5.905365E1,5.2503803E1,5.9670025E1,5.7046757E1,7.1526024E1,7.364566E1,2.4453104E1,1.43613205E1,3.9506054E1,6.4135414E1,5.749604E1,6.9265585E0,1.8601482E1,8.169077E0,4.6897874E0,3.4703457E0,7.1586823E0,1.7000864E1,5.192477E0,3.3964897E1,3.3402943E1,2.5650707E1,2.9498224E1,2.3005577E1,5.6817274E0,5.3988297E1,2.1511734E1,3.5535023E1,4.1134773E1,3.0391249E1,7.6759396E0,6.596972E1,5.6938353E0,1.875927E1,4.9428263E0,9.418495E0,1.755129E1,2.1954763E1,5.524722E1,8.888191E0,4.0204353E1,1.7291689E1,3.7168915E0,3.2096667E0,1.2156723E1,6.44476E0,4.2125783E0,3.9564986E0],"tree_param":{"num_deleted":"0","num_feature":"37","num_nodes":"85","size_leaf_vector":"1"}},{"base_weights":[2.4948202E-2,-1.7578467E0,1.8298285E-2,-1.77616E-2,-3.7372508E-3],"categories":[],"categories_nodes":[],"categories_segments":[],"categories_sizes":[],"default_left":[0,0,0,0,0],"id":12,"left_children":[1,3,-1,-1,-1],"loss_changes":[2.554554E3,9.460205E0,0E0,0E0,0E0],"parents":[2147483647,0,0,1,1],"right_children":[2,4,-1,-1,-1],"split_conditions":[1.5788242E-2,7.775647E-3,1.8298285E-2,-1.77616E-2,-3.7372508E-3],"split_indices":[0,0,0,0,0],"split_type":[0,0,0,0,0],"sum_hessian":[7.9189935E2,3.9840024E2,3.934991E2,3.9291827E2,5.481955E0],"tree_param":{"num_deleted":"0","num_feature":"37","num_nodes":"5","size_leaf_vector":"1"}},{"base_weights":[-4.2703897E-3,-1.7518704E0,1.8146107E-2,-1.7626725E-2,-7.398753E-3],"categories":[],"categories_nodes":[],"categories_segments":[],"categories_sizes":[],"default_left":[0,0,0,0,0],"id":13,"left_children":[1,3,-1,-1,-1],"loss_changes":[2.512931E3,3.1032715E0,0E0,0E0,0E0],"parents":[2147483647,0,0,1,1],"right_children":[2,4,-1,-1,-1],"split_conditions":[1.5788242E-2,7.775647E-3,1.8146107E-2,-1.7626725E-2,-7.398753E-3],"split_indices":[0,0,0,0,0],"split_type":[0,0,0,0,0],"sum_hessian":[7.885587E2,4.0217838E2,3.8638037E2,3.9719687E2,4.9815044E0],"tree_param":{"num_deleted":"0","num_feature":"37","num_nodes":"5","size_leaf_vector":"1"}},{"base_weights":[2.1971077E-2,-1.7381214E0,1.7999537E-2,-1.7489225E-2,-8.18082E-3],"categories":[],"categories_nodes":[],"categories_segments":[],"categories_sizes":[],"default_left":[0,0,0,0,0],"id":14,"left_children":[1,3,-1,-1,-1],"loss_changes":[2.4665215E3,2.505371E0,0E0,0E0,0E0],"parents":[2147483647,0,0,1,1],"right_children":[2,4,-1,-1,-1],"split_conditions":[1.5788242E-2,7.775647E-3,1.7999537E-2,-1.7489225E-2,-8.18082E-3],"split_indices":[0,0,0,0,0],"split_type":[0,0,0,0,0],"sum_hessian":[7.861738E2,3.9508585E2,3.91088E2,3.896109E2,5.474932E0],"tree_param":{"num_deleted":"0","num_feature":"37","num_nodes":"5","size_leaf_vector":"1"}},{"base_weights":[1.1515458E-2,-1.5742633E0,1.6713395E0,-1.6813282E0,2.347246E-1,5.000529E-2,1.7528274E0,-1.709689E0,-1.0025073E0,-1.3178291E0,1.3547317E0,-1.3395603E-2,1.0532572E0,4.2385897E-3,1.7643651E-2,-1.7235165E-2,-1.0875411E0,-1.567232E-2,1.1729572E-2,-1.5025821E-2,-6.8982565E-3,7.9220915E-3,1.5938442E-2,1.7839094E-4,1.5681544E-2,-1.5514637E-2,-1.5230878E-4],"categories":[],"categories_nodes":[],"categories_segments":[],"categories_sizes":[],"default_left":[0,0,0,0,0,0,0,0,0,0,0,0,0,0,0,0,0,0,0,0,0,0,0,0,0,0,0],"id":15,"left_children":[1,3,5,7,9,11,13,15,17,19,21,-1,23,-1,-1,-1,25,-1,-1,-1,-1,-1,-1,-1,-1,-1,-1],"loss_changes":[2.0744116E3,7.84574E1,5.0786743E1,5.61438E0,4.247345E1,2.8534878E1,4.873413E0,1.2568359E0,2.3562885E1,1.6004372E-1,6.3202477E-1,0E0,6.294283E0,0E0,0E0,0E0,5.26128E0,0E0,0E0,0E0,0E0,0E0,0E0,0E0,0E0,0E0,0E0],"parents":[2147483647,0,0,1,1,2,2,3,3,4,4,5,5,6,6,7,7,8,8,9,9,10,10,12,12,16,16],"right_children":[2,4,6,8,10,12,14,16,18,20,22,-1,24,-1,-1,-1,26,-1,-1,-1,-1,-1,-1,-1,-1,-1,-1],"split_conditions":[2.0849565E-2,2.473989E1,-1.6425756E1,4.2172117E0,-1.3209453E0,9.8952234E-1,2.665151E-2,6.432085E-3,-1.8305509E-1,4.6788454E-1,3.748275E1,-1.3395603E-2,-1.2358988E-1,4.2385897E-3,1.7643651E-2,-1.7235165E-2,1.6199806E-1,-1.567232E-2,1.1729572E-2,-1.5025821E-2,-6.8982565E-3,7.9220915E-3,1.5938442E-2,1.7839094E-4,1.5681544E-2,-1.5514637E-2,-1.5230878E-4],"split_indices":[3,1,1,1,3,3,3,3,3,30,1,0,14,0,0,0,15,0,0,0,0,0,0,0,0,0,0],"split_type":[0,0,0,0,0,0,0,0,0,0,0,0,0,0,0,0,0,0,0,0,0,0,0,0,0,0,0],"sum_hessian":[7.861166E2,4.020519E2,3.8406467E2,3.7965274E2,2.2399172E1,1.8456484E1,3.656082E2,3.6296945E2,1.668328E1,9.312943E0,1.3086228E1,7.597819E0,1.08586645E1,3.471559E0,3.6213663E2,3.5334586E2,9.623597E0,1.3466997E1,3.216284E0,6.119893E0,3.1930509E0,5.1898975E0,7.896331E0,3.9500563E0,6.908608E0,6.4054933E0,3.218104E0],"tree_param":{"num_deleted":"0","num_feature":"37","num_nodes":"27","size_leaf_vector":"1"}},{"base_weights":[1.1784348E-2,-1.7060251E0,1.7721692E-2,-1.7237945E-2,-5.911525E-1,-1.17682405E-2,9.2684E-4],"categories":[],"categories_nodes":[],"categories_segments":[],"categories_sizes":[],"default_left":[0,0,0,0,0,0,0],"id":16,"left_children":[1,3,-1,-1,5,-1,-1],"loss_changes":[2.3577305E3,6.798462E0,0E0,0E0,3.1980562E0,0E0,0E0],"parents":[2147483647,0,0,1,1,4,4],"right_children":[2,4,-1,-1,6,-1,-1],"split_conditions":[1.5788242E-2,7.775647E-3,1.7721692E-2,-1.7237945E-2,-4.7099796E-1,-1.17682405E-2,9.2684E-4],"split_indices":[0,0,0,0,17,0,0],"split_type":[0,0,0,0,0,0,0],"sum_hessian":[7.776715E2,3.9361102E2,3.8406052E2,3.8689825E2,6.7127485E0,3.2275767E0,3.4851716E0],"tree_param":{"num_deleted":"0","num_feature":"37","num_nodes":"7","size_leaf_vector":"1"}},{"base_weights":[-1.4489277E-2,-1.6964124E0,1.758297E-2,-1.7118186E-2,-5.000588E-3],"categories":[],"categories_nodes":[],"categories_segments":[],"categories_sizes":[],"default_left":[0,0,0,0,0],"id":17,"left_children":[1,3,-1,-1,-1],"loss_changes":[2.3107065E3,6.4735107E0,0E0,0E0,0E0],"parents":[2147483647,0,0,1,1],"right_children":[2,4,-1,-1,-1],"split_conditions":[1.5788242E-2,7.775647E-3,1.758297E-2,-1.7118186E-2,-5.000588E-3],"split_indices":[0,0,0,0,0],"split_type":[0,0,0,0,0],"sum_hessian":[7.7296497E2,3.9666956E2,3.762954E2,3.9120096E2,5.4686007E0],"tree_param":{"num_deleted":"0","num_feature":"37","num_nodes":"5","size_leaf_vector":"1"}},{"base_weights":[4.988513E-3,-1.6815053E0,1.745203E-2,-1.6991444E-2,-4.0265215E-3],"categories":[],"categories_nodes":[],"categories_segments":[],"categories_sizes":[],"default_left":[0,0,0,0,0],"id":18,"left_children":[1,3,-1,-1,-1],"loss_changes":[2.2970093E3,8.28186E0,0E0,0E0,0E0],"parents":[2147483647,0,0,1,1],"right_children":[2,4,-1,-1,-1],"split_conditions":[1.5788242E-2,7.775647E-3,1.745203E-2,-1.6991444E-2,-4.0265215E-3],"split_indices":[0,0,0,0,0],"split_type":[0,0,0,0,0],"sum_hessian":[7.806639E2,3.9646832E2,3.8419553E2,3.907501E2,5.718224E0],"tree_param":{"num_deleted":"0","num_feature":"37","num_nodes":"5","size_leaf_vector":"1"}},{"base_weights":[-1.6695457E-2,-1.5266899E0,1.6267102E0,-1.6274228E0,2.1277645E-1,1.18159324E-1,1.6992579E0,-1.6567568E0,-8.9273196E-1,-1.2891238E0,1.3619964E0,-1.3640328E-2,1.0786036E0,1.0319755E0,1.7124295E-2,-1.679606E-2,-1.1901195E0,-1.4461868E-2,9.755269E-3,-1.4666912E-2,-6.6899876E-3,7.832519E-3,1.5568514E-2,-8.3557336E-4,1.5333611E-2,1.4891975E-2,2.5834849E-3,-1.6110396E-2,4.5592953E-3],"categories":[],"categories_nodes":[],"categories_segments":[],"categories_sizes":[],"default_left":[0,0,0,0,0,0,0,0,0,0,0,0,0,0,0,0,0,0,0,0,0,0,0,0,0,0,0,0,0],"id":19,"left_children":[1,3,5,7,9,11,13,15,17,19,21,-1,23,25,-1,-1,27,-1,-1,-1,-1,-1,-1,-1,-1,-1,-1,-1,-1],"loss_changes":[1.9199226E3,7.099603E1,4.0345337E1,6.7373657E0,4.1377754E1,2.720074E1,1.3389893E0,1.8974609E0,1.8788181E1,1.710968E-1,3.0199623E-1,0E0,6.219489E0,2.9252357E0,0E0,0E0,1.4931255E1,0E0,0E0,0E0,0E0,0E0,0E0,0E0,0E0,0E0,0E0,0E0,0E0],"parents":[2147483647,0,0,1,1,2,2,3,3,4,4,5,5,6,6,7,7,8,8,9,9,10,10,12,12,13,13,16,16],"right_children":[2,4,6,8,10,12,14,16,18,20,22,-1,24,26,-1,-1,28,-1,-1,-1,-1,-1,-1,-1,-1,-1,-1,-1,-1],"split_conditions":[2.0849565E-2,2.473989E1,-1.6425756E1,4.2172117E0,-1.3209453E0,1.0169631E0,4.175482E-2,-2.3466298E-2,-1.8305509E-1,3.891911E-1,-6.7850393E-1,-1.3640328E-2,-1.1814176E-1,1.8366938E-2,1.7124295E-2,-1.679606E-2,2.4847674E-1,-1.4461868E-2,9.755269E-3,-1.4666912E-2,-6.6899876E-3,7.832519E-3,1.5568514E-2,-8.3557336E-4,1.5333611E-2,1.4891975E-2,2.5834849E-3,-1.6110396E-2,4.5592953E-3],"split_indices":[3,1,1,1,3,3,3,3,3,30,3,0,21,25,0,0,1,0,0,0,0,0,0,0,0,0,0,0,0],"split_type":[0,0,0,0,0,0,0,0,0,0,0,0,0,0,0,0,0,0,0,0,0,0,0,0,0,0,0,0,0],"sum_hessian":[7.7168317E2,4.0220245E2,3.6948074E2,3.8024667E2,2.1955769E1,1.7074005E1,3.5240674E2,3.6444064E2,1.580603E1,9.464718E0,1.2491052E1,6.54827E0,1.0525736E1,8.357612E0,3.4404913E2,3.4495047E2,1.9490192E1,1.236803E1,3.4380007E0,6.2965894E0,3.1681283E0,4.410618E0,8.080434E0,3.1899297E0,7.335806E0,4.6716566E0,3.6859555E0,1.5538123E1,3.952069E0],"tree_param":{"num_deleted":"0","num_feature":"37","num_nodes":"29","size_leaf_vector":"1"}},{"base_weights":[-1.8768116E-3,-1.527624E0,1.6031415E0,-1.6366318E0,-8.888741E-1,1.678608E0,1.0945528E0,-1.6646089E-2,-1.2832677E0,-1.3670009E0,5.2219003E-2,6.696014E-1,1.7037911E-2,-1.1072632E-2,1.4125309E0,-1.42544E0,-3.4397368E-3,-1.4773331E0,-6.545934E-4,7.751654E-1,-3.4506795E-1,6.561873E-4,1.0351079E-2,6.185977E-1,1.6045839E-2,-1.508568E-2,-6.4823222E-3,-4.7697215E-3,-1.5571213E-2,1.248622E-3,1.1892144E-2,-7.437238E-1,4.0448336E-3,1.2606732E-2,-4.941653E-4,-1.1193633E-2,-1.4283397E-3],"categories":[],"categories_nodes":[],"categories_segments":[],"categories_sizes":[],"default_left":[0,0,0,0,0,0,0,0,0,0,0,0,0,0,0,0,0,0,0,0,0,0,0,0,0,0,0,0,0,0,0,0,0,0,0,0,0],"id":20,"left_children":[1,3,5,7,9,11,13,-1,15,17,19,21,-1,-1,23,25,-1,27,-1,29,31,-1,-1,33,-1,-1,-1,-1,-1,-1,-1,35,-1,-1,-1,-1,-1],"loss_changes":[1.895998E3,2.6182312E1,1.2644653E1,1.2041626E0,2.709237E1,7.1604004E0,3.7710136E1,0E0,3.4028091E0,5.626892E0,6.354846E0,2.051951E0,0E0,0E0,5.953079E0,6.374359E-1,0E0,2.1863098E0,0E0,1.9583197E0,4.594698E0,0E0,0E0,4.56598E0,0E0,0E0,0E0,0E0,0E0,0E0,0E0,2.037003E0,0E0,0E0,0E0,0E0,0E0],"parents":[2147483647,0,0,1,1,2,2,3,3,4,4,5,5,6,6,8,8,9,9,10,10,11,11,14,14,15,15,17,17,19,19,20,20,23,23,31,31],"right_children":[2,4,6,8,10,12,14,-1,16,18,20,22,-1,-1,24,26,-1,28,-1,30,32,-1,-1,34,-1,-1,-1,-1,-1,-1,-1,36,-1,-1,-1,-1,-1],"split_conditions":[2.0849565E-2,7.0710677E-1,7.0710677E-1,-4.635892E-2,-7.738518E-2,4.175482E-2,-3.6634222E-1,-1.6646089E-2,7.342558E-1,-1.8305509E-1,5.750728E-1,-1.8817304E-1,1.7037911E-2,-1.1072632E-2,2.1738635E-1,7.31922E-1,-3.4397368E-3,-6.502837E-1,-6.545934E-4,-5.625004E-1,1.8429148E-1,6.561873E-4,1.0351079E-2,-3.8303325E-1,1.6045839E-2,-1.508568E-2,-6.4823222E-3,-4.7697215E-3,-1.5571213E-2,1.248622E-3,1.1892144E-2,3.2627997E-1,4.0448336E-3,1.2606732E-2,-4.941653E-4,-1.1193633E-2,-1.4283397E-3],"split_indices":[3,31,31,3,20,3,20,0,4,3,2,28,0,0,22,14,0,12,0,3,8,0,0,17,0,0,0,0,0,0,0,22,0,0,0,0,0],"split_type":[0,0,0,0,0,0,0,0,0,0,0,0,0,0,0,0,0,0,0,0,0,0,0,0,0,0,0,0,0,0,0,0,0,0,0,0,0],"sum_hessian":[7.722394E2,3.95921E2,3.763184E2,3.3686926E2,5.9051727E1,3.2569064E2,5.0627747E1,3.0871637E2,2.8152891E1,3.885745E1,2.019428E1,8.602634E0,3.17088E2,6.075589E0,4.455216E1,2.4002317E1,4.150574E0,3.5696392E1,3.1610565E0,6.824512E0,1.3369768E1,3.6879666E0,4.9146676E0,9.500159E0,3.5052E1,2.083306E1,3.1692574E0,3.1522653E0,3.2544125E1,3.1611657E0,3.6633463E0,8.73288E0,4.6368885E0,4.391747E0,5.1084127E0,4.842686E0,3.8901937E0],"tree_param":{"num_deleted":"0","num_feature":"37","num_nodes":"37","size_leaf_vector":"1"}},{"base_weights":[6.2782736E-3,-1.5090355E0,1.5941086E0,-1.6113638E0,3.2166365E-1,-7.120189E-1,1.6430966E0,-1.6389511E0,-8.8198066E-1,-1.1242087E0,1.2880695E0,-1.3736669E-2,3.062106E-3,6.6879255E-1,1.6703967E0,-1.6525453E-2,-9.8628354E-1,-1.483186E-2,1.1337292E-2,-1.407265E-2,-4.411558E-3,7.905911E-3,1.5218347E-2,-9.558796E-3,1.5190122E-2,5.23261E-3,1.679295E0,-1.475005E-2,1.8151263E-4,1.3429488E0,1.7007861E-2,-5.6867776E-3,1.635424E-2],"categories":[],"categories_nodes":[],"categories_segments":[],"categories_sizes":[],"default_left":[0,0,0,0,0,0,0,0,0,0,0,0,0,0,0,0,0,0,0,0,0,0,0,0,0,0,0,0,0,0,0,0,0],"id":21,"left_children":[1,3,5,7,9,11,13,15,17,19,21,-1,-1,23,25,-1,27,-1,-1,-1,-1,-1,-1,-1,-1,-1,29,-1,-1,31,-1,-1,-1],"loss_changes":[1.8531017E3,7.434442E1,4.3657715E1,6.067871E0,3.1763235E1,6.1610284E0,8.686279E0,1.5519409E0,2.0796522E1,1.1628809E0,3.6330795E-1,0E0,0E0,1.76323E1,2.77417E0,0E0,4.8362885E0,0E0,0E0,0E0,0E0,0E0,0E0,0E0,0E0,0E0,2.7947998E-1,0E0,0E0,1.5496178E1,0E0,0E0,0E0],"parents":[2147483647,0,0,1,1,2,2,3,3,4,4,5,5,6,6,7,7,8,8,9,9,10,10,13,13,14,14,16,16,26,26,29,29],"right_children":[2,4,6,8,10,12,14,16,18,20,22,-1,-1,24,26,-1,28,-1,-1,-1,-1,-1,-1,-1,-1,-1,30,-1,-1,32,-1,-1,-1],"split_conditions":[2.0849565E-2,2.473989E1,-5.5230076E1,4.2172117E0,-1.3209453E0,1.1526105E0,-1.6425756E1,6.432085E-3,-1.8305509E-1,6.0247105E1,-6.2154317E-1,-1.3736669E-2,3.062106E-3,9.623928E-1,2.665151E-2,-1.6525453E-2,9.703052E-2,-1.483186E-2,1.1337292E-2,-1.407265E-2,-4.411558E-3,7.905911E-3,1.5218347E-2,-9.558796E-3,1.5190122E-2,5.23261E-3,-2.260606E0,-1.475005E-2,1.8151263E-4,1.4983727E-1,1.7007861E-2,-5.6867776E-3,1.635424E-2],"split_indices":[3,1,1,1,3,3,1,3,3,1,3,0,0,3,3,0,19,0,0,0,0,0,0,0,0,0,1,0,0,3,0,0,0],"split_type":[0,0,0,0,0,0,0,0,0,0,0,0,0,0,0,0,0,0,0,0,0,0,0,0,0,0,0,0,0,0,0,0,0],"sum_hessian":[7.6818085E2,3.9309152E2,3.7508932E2,3.7239597E2,2.0695543E1,7.520582E0,3.6756876E2,3.5762265E2,1.4773322E1,8.225623E0,1.246992E1,4.3468895E0,3.173693E0,1.0713587E1,3.5685516E2,3.4882507E2,8.797565E0,1.1582819E1,3.1905034E0,5.0660152E0,3.1596084E0,5.3872466E0,7.0826735E0,3.6378324E0,7.0757546E0,3.207141E0,3.53648E2,5.6029034E0,3.1946616E0,2.5052681E1,3.2859534E2,3.1990752E0,2.1853605E1],"tree_param":{"num_deleted":"0","num_feature":"37","num_nodes":"33","size_leaf_vector":"1"}},{"base_weights":[-3.1409354E-3,-1.6384859E0,1.697753E-2,-1.6557448E-2,-6.005272E-1,-1.1772341E-2,1.073589E-3],"categories":[],"categories_nodes":[],"categories_segments":[],"categories_sizes":[],"default_left":[0,0,0,0,0,0,0],"id":22,"left_children":[1,3,-1,-1,5,-1,-1],"loss_changes":[2.1231443E3,5.9768066E0,0E0,0E0,3.3653376E0,0E0,0E0],"parents":[2147483647,0,0,1,1,4,4],"right_children":[2,4,-1,-1,6,-1,-1],"split_conditions":[1.5788242E-2,7.775647E-3,1.697753E-2,-1.6557448E-2,-4.7099796E-1,-1.1772341E-2,1.073589E-3],"split_indices":[0,0,0,0,17,0,0],"split_type":[0,0,0,0,0,0,0],"sum_hessian":[7.6129584E2,3.8814542E2,3.731504E2,3.8121155E2,6.933882E0,3.4556086E0,3.4782739E0],"tree_param":{"num_deleted":"0","num_feature":"37","num_nodes":"7","size_leaf_vector":"1"}},{"base_weights":[1.0821375E-2,-1.4969796E0,1.5711895E0,-1.5996366E0,1.5197502E-1,-2.2751426E-2,1.6388221E0,-1.6201792E-2,-1.1686149E0,-1.2146574E0,1.2761196E0,-1.34028075E-2,1.0241467E0,1.0787062E-3,1.6520721E0,-1.5424477E-2,-2.4114207E-3,-1.4572484E-2,-4.4521433E-3,7.411897E-3,1.51077295E-2,1.0472641E-3,1.4506206E-2,1.1932966E0,1.6701454E-2,-3.5268548E-3,1.5686976E-2],"categories":[],"categories_nodes":[],"categories_segments":[],"categories_sizes":[],"default_left":[0,0,0,0,0,0,0,0,0,0,0,0,0,0,0,0,0,0,0,0,0,0,0,0,0,0,0],"id":23,"left_children":[1,3,5,7,9,11,13,-1,15,17,19,-1,21,-1,23,-1,-1,-1,-1,-1,-1,-1,-1,25,-1,-1,-1],"loss_changes":[1.8223872E3,6.69267E1,4.1072693E1,1.3909302E0,3.842182E1,2.4104399E1,7.22937E0,0E0,6.7227707E0,1.4687405E0,5.943966E-1,0E0,3.6712332E0,0E0,1.0083008E0,0E0,0E0,0E0,0E0,0E0,0E0,0E0,0E0,1.0548178E1,0E0,0E0,0E0],"parents":[2147483647,0,0,1,1,2,2,3,3,4,4,5,5,6,6,8,8,9,9,10,10,12,12,14,14,23,23],"right_children":[2,4,6,8,10,12,14,-1,16,18,20,-1,22,-1,24,-1,-1,-1,-1,-1,-1,-1,-1,26,-1,-1,-1],"split_conditions":[2.0849565E-2,2.473989E1,-1.8971054E1,3.677805E0,-1.3599325E0,1.0169631E0,2.665151E-2,-1.6201792E-2,-4.4026038E-1,1.0404955E-2,3.748275E1,-1.34028075E-2,-5.5230076E1,1.0787062E-3,-2.9079487E0,-1.5424477E-2,-2.4114207E-3,-1.4572484E-2,-4.4521433E-3,7.411897E-3,1.51077295E-2,1.0472641E-3,1.4506206E-2,2.5486985E-1,1.6701454E-2,-3.5268548E-3,1.5686976E-2],"split_indices":[3,1,1,1,3,3,3,0,3,20,1,0,1,0,1,0,0,0,0,0,0,0,0,3,0,0,0],"split_type":[0,0,0,0,0,0,0,0,0,0,0,0,0,0,0,0,0,0,0,0,0,0,0,0,0,0,0],"sum_hessian":[7.725862E2,3.9293213E2,3.7965405E2,3.6993164E2,2.3000492E1,1.548042E1,3.641736E2,3.5046924E2,1.9462408E1,1.0344308E1,1.2656184E1,6.7301874E0,8.750233E0,3.203225E0,3.609704E2,1.3398759E1,6.0636497E0,7.1850853E0,3.1592228E0,5.127008E0,7.5291758E0,3.1673713E0,5.5828614E0,1.6221836E1,3.4474857E2,3.1812546E0,1.3040581E1],"tree_param":{"num_deleted":"0","num_feature":"37","num_nodes":"27","size_leaf_vector":"1"}},{"base_weights":[6.289662E-3,-1.619713E0,1.675191E-2,-1.6349664E-2,-4.6218387E-3],"categories":[],"categories_nodes":[],"categories_segments":[],"categories_sizes":[],"default_left":[0,0,0,0,0],"id":24,"left_children":[1,3,-1,-1,-1],"loss_changes":[2.0794321E3,6.097351E0,0E0,0E0,0E0],"parents":[2147483647,0,0,1,1],"right_children":[2,4,-1,-1,-1],"split_conditions":[1.5788242E-2,7.775647E-3,1.675191E-2,-1.6349664E-2,-4.6218387E-3],"split_indices":[0,0,0,0,0],"split_type":[0,0,0,0,0],"sum_hessian":[7.6428955E2,3.8713513E2,3.7715442E2,3.8169287E2,5.4422474E0],"tree_param":{"num_deleted":"0","num_feature":"37","num_nodes":"5","size_leaf_vector":"1"}},{"base_weights":[1.7665997E-2,-1.6069492E0,1.6636455E-2,-1.624475E-2,-3.6772161E-3],"categories":[],"categories_nodes":[],"categories_segments":[],"categories_sizes":[],"default_left":[0,0,0,0,0],"id":25,"left_children":[1,3,-1,-1,-1],"loss_changes":[2.0561353E3,7.807129E0,0E0,0E0,0E0],"parents":[2147483647,0,0,1,1],"right_children":[2,4,-1,-1,-1],"split_conditions":[1.5788242E-2,7.775647E-3,1.6636455E-2,-1.624475E-2,-3.6772161E-3],"split_indices":[0,0,0,0,0],"split_type":[0,0,0,0,0],"sum_hessian":[7.669124E2,3.8597296E2,3.8093942E2,3.8028387E2,5.6890883E0],"tree_param":{"num_deleted":"0","num_feature":"37","num_nodes":"5","size_leaf_vector":"1"}},{"base_weights":[1.9525267E-2,-1.5992342E0,1.6525302E-2,-1.614299E-2,-5.92946E-3],"categories":[],"categories_nodes":[],"categories_segments":[],"categories_sizes":[],"default_left":[0,0,0,0,0],"id":26,"left_children":[1,3,-1,-1,-1],"loss_changes":[1.995921E3,4.7911377E0,0E0,0E0,0E0],"parents":[2147483647,0,0,1,1],"right_children":[2,4,-1,-1,-1],"split_conditions":[1.5788242E-2,7.775647E-3,1.6525302E-2,-1.614299E-2,-5.92946E-3],"split_indices":[0,0,0,0,0],"split_type":[0,0,0,0,0],"sum_hessian":[7.5304645E2,3.781831E2,3.748633E2,3.7200964E2,6.1734447E0],"tree_param":{"num_deleted":"0","num_feature":"37","num_nodes":"5","size_leaf_vector":"1"}},{"base_weights":[1.4583172E-2,-3.9363703E-1,5.395984E-1,-1.3890554E0,-2.586308E-1,3.487752E-1,1.2872273E0,-5.5208343E-1,-1.5638482E-2,2.1438079E-1,-4.9849358E-1,5.9480006E-1,-2.6948643E-1,7.858111E-1,1.5042109E-2,2.2894654E-3,-1.3076791E-2,-9.450564E-1,3.0350935E-1,-2.6356688E-1,-8.647051E-1,7.844662E-1,1.4322038E-1,1.3171445E-1,-6.882144E-1,4.110332E-1,1.4334909E-2,-1.2344685E-2,-2.5763565E-3,1.182455E0,1.7485833E-1,1.5067795E-1,-4.5337784E-1,6.1576557E-3,-9.6209425E-1,1.0999932E0,5.222194E-1,3.245279E-1,-7.186607E-1,-2.881242E-1,5.9392554E-1,-9.8047996E-1,1.743957E-1,7.6771814E-1,-7.1143084E-3,1.4172554E-2,5.0924597E-3,5.039769E-3,-1.730349E-3,3.5303992E-3,-6.4505744E-3,-1.347501E-3,-7.820978E-3,-1.3823209E-2,-6.6094846E-3,5.018814E-3,1.3506749E-2,2.403288E-3,9.630103E-3,-2.0458556E-3,6.6551236E-3,1.9242465E-4,-1.3337789E-2,3.8039943E-3,-5.9110713E-3,9.67392E-3,-1.8853229E-3,-5.3208754E-3,-1.3449605E-2,-5.561625E-3,9.314897E-3,1.240885E-2,2.8287112E-3],"categories":[],"categories_nodes":[],"categories_segments":[],"categories_sizes":[],"default_left":[0,0,0,0,0,0,0,0,0,0,0,0,0,0,0,0,0,0,0,0,0,0,0,0,0,0,0,0,0,0,0,0,0,0,0,0,0,0,0,0,0,0,0,0,0,0,0,0,0,0,0,0,0,0,0,0,0,0,0,0,0,0,0,0,0,0,0,0,0,0,0,0,0],"id":27,"left_children":[1,3,5,7,9,11,13,15,-1,17,19,21,23,25,-1,-1,-1,27,29,31,33,35,37,39,41,43,-1,-1,-1,45,47,49,51,-1,53,55,57,59,61,63,65,67,69,71,-1,-1,-1,-1,-1,-1,-1,-1,-1,-1,-1,-1,-1,-1,-1,-1,-1,-1,-1,-1,-1,-1,-1,-1,-1,-1,-1,-1,-1],"loss_changes":[1.6494179E2,5.782762E1,4.7576317E1,6.6682205E0,4.350409E1,4.1161186E1,6.2247925E0,6.46027E0,0E0,1.3658775E1,2.1632812E1,1.6429436E1,1.3096386E1,4.910205E0,0E0,0E0,0E0,1.5680218E0,1.3466384E1,1.2352696E1,1.4846764E1,1.0661293E1,9.351006E0,8.006205E0,9.761835E0,6.853347E0,0E0,0E0,0E0,1.6912804E0,1.2298794E1,8.25386E0,1.1142595E1,0E0,1.0874672E1,8.427437E0,9.219084E0,8.957937E0,4.7698274E0,4.6467566E0,5.89378E0,3.9528732E0,6.31254E0,2.501896E0,0E0,0E0,0E0,0E0,0E0,0E0,0E0,0E0,0E0,0E0,0E0,0E0,0E0,0E0,0E0,0E0,0E0,0E0,0E0,0E0,0E0,0E0,0E0,0E0,0E0,0E0,0E0,0E0,0E0],"parents":[2147483647,0,0,1,1,2,2,3,3,4,4,5,5,6,6,7,7,9,9,10,10,11,11,12,12,13,13,17,17,18,18,19,19,20,20,21,21,22,22,23,23,24,24,25,25,29,29,30,30,31,31,32,32,34,34,35,35,36,36,37,37,38,38,39,39,40,40,41,41,42,42,43,43],"right_children":[2,4,6,8,10,12,14,16,-1,18,20,22,24,26,-1,-1,-1,28,30,32,34,36,38,40,42,44,-1,-1,-1,46,48,50,52,-1,54,56,58,60,62,64,66,68,70,72,-1,-1,-1,-1,-1,-1,-1,-1,-1,-1,-1,-1,-1,-1,-1,-1,-1,-1,-1,-1,-1,-1,-1,-1,-1,-1,-1,-1,-1],"split_conditions":[1.2192385E-1,-7.49718E-1,8.1073415E-1,-4.551702E-1,-4.670266E-1,6.4441204E-1,-2.1135803E-2,-8.893905E-1,-1.5638482E-2,-1.0319842E0,1.3107531E-1,6.308694E-1,3.7807274E-1,8.7614673E-1,1.5042109E-2,2.2894654E-3,-1.3076791E-2,4.431538E-1,-2.3272738E0,-5.730538E-1,-2.0070739E0,2.0179288E-1,9.645539E-1,3.5552537E-1,7.3001283E-1,1.3326447E0,1.4334909E-2,-1.2344685E-2,-2.5763565E-3,5.491586E-1,-2.6466858E-1,6.1913574E-1,-2.3167272E-1,6.1576557E-3,-4.6497414E-1,-2.6747125E-1,6.104525E-1,3.953935E-1,-3.8577944E-1,-1.06763415E-1,2.2741055E-1,3.7947643E-1,1.4916705E-1,3.6577785E-1,-7.1143084E-3,1.4172554E-2,5.0924597E-3,5.039769E-3,-1.730349E-3,3.5303992E-3,-6.4505744E-3,-1.347501E-3,-7.820978E-3,-1.3823209E-2,-6.6094846E-3,5.018814E-3,1.3506749E-2,2.403288E-3,9.630103E-3,-2.0458556E-3,6.6551236E-3,1.9242465E-4,-1.3337789E-2,3.8039943E-3,-5.9110713E-3,9.67392E-3,-1.8853229E-3,-5.3208754E-3,-1.3449605E-2,-5.561625E-3,9.314897E-3,1.240885E-2,2.8287112E-3],"split_indices":[20,16,16,2,4,4,2,21,0,25,2,6,14,16,0,0,0,13,4,6,5,5,5,15,16,23,0,0,0,9,23,4,5,0,20,2,15,20,4,19,6,23,2,4,0,0,0,0,0,0,0,0,0,0,0,0,0,0,0,0,0,0,0,0,0,0,0,0,0,0,0,0,0],"split_type":[0,0,0,0,0,0,0,0,0,0,0,0,0,0,0,0,0,0,0,0,0,0,0,0,0,0,0,0,0,0,0,0,0,0,0,0,0,0,0,0,0,0,0,0,0,0,0,0,0,0,0,0,0,0,0,0,0,0,0,0,0,0,0,0,0,0,0,0,0,0,0,0,0],"sum_hessian":[7.6760754E2,4.3197784E2,3.3562973E2,5.0481613E1,3.8149625E2,2.6855167E2,6.707804E1,9.439644E0,4.1041965E1,1.2839883E2,2.5309741E2,1.921338E2,7.641786E1,2.1655958E1,4.542209E1,4.9844303E0,4.455214E0,8.480191E0,1.1991864E2,1.552338E2,9.7863625E1,1.3478581E2,5.7348E1,3.9375748E1,3.7042114E1,1.4753509E1,6.9024487E0,5.4076924E0,3.072499E0,1.4265481E1,1.0565315E2,4.884351E1,1.0639028E2,5.71184E0,9.215179E1,5.972821E1,7.50576E1,4.789595E1,9.45205E0,2.0831018E1,1.854473E1,2.7565765E1,9.476347E0,1.143565E1,3.3178592E0,9.757172E0,4.50831E0,5.4060997E1,5.159216E1,3.938414E1,9.459371E0,5.474041E1,5.1649868E1,3.6971115E1,5.5180668E1,1.852668E1,4.120153E1,4.6722965E1,2.8334635E1,1.8926805E1,2.8969145E1,4.7375484E0,4.714502E0,6.416864E0,1.4414154E1,1.2393142E1,6.1515875E0,1.3463055E1,1.4102711E1,4.957756E0,4.518591E0,4.998364E0,6.4372854E0],"tree_param":{"num_deleted":"0","num_feature":"37","num_nodes":"73","size_leaf_vector":"1"}},{"base_weights":[-1.235727E-2,-1.5850217E0,1.639004E-2,-1.6021516E-2,-4.5158393E-3],"categories":[],"categories_nodes":[],"categories_segments":[],"categories_sizes":[],"default_left":[0,0,0,0,0],"id":28,"left_children":[1,3,-1,-1,-1],"loss_changes":[1.9681198E3,6.8129272E0,0E0,0E0,0E0],"parents":[2147483647,0,0,1,1],"right_children":[2,4,-1,-1,-1],"split_conditions":[1.5788242E-2,7.775647E-3,1.639004E-2,-1.6021516E-2,-4.5158393E-3],"split_indices":[0,0,0,0,0],"split_type":[0,0,0,0,0],"sum_hessian":[7.558324E2,3.8716153E2,3.6867087E2,3.8099E2,6.1715126E0],"tree_param":{"num_deleted":"0","num_feature":"37","num_nodes":"5","size_leaf_vector":"1"}},{"base_weights":[-7.2755627E-3,-1.5728508E0,1.6282659E-2,-1.5923064E-2,-3.687303E-1,-8.901063E-3,2.3680236E-3],"categories":[],"categories_nodes":[],"categories_segments":[],"categories_sizes":[],"default_left":[0,0,0,0,0,0,0],"id":29,"left_children":[1,3,-1,-1,5,-1,-1],"loss_changes":[1.9295032E3,8.432312E0,0E0,0E0,2.5543528E0,0E0,0E0],"parents":[2147483647,0,0,1,1,4,4],"right_children":[2,4,-1,-1,6,-1,-1],"split_conditions":[1.5788242E-2,7.775647E-3,1.6282659E-2,-1.5923064E-2,-6.308017E-2,-8.901063E-3,2.3680236E-3],"split_indices":[0,0,0,0,14,0,0],"split_type":[0,0,0,0,0,0,0],"sum_hessian":[7.5154614E2,3.8400586E2,3.675403E2,3.7758267E2,6.4231796E0,3.198903E0,3.2242768E0],"tree_param":{"num_deleted":"0","num_feature":"37","num_nodes":"7","size_leaf_vector":"1"}},{"base_weights":[1.0074064E-2,-1.5653789E0,1.618551E-2,-1.5824985E-2,-4.048947E-3],"categories":[],"categories_nodes":[],"categories_segments":[],"categories_sizes":[],"default_left":[0,0,0,0,0],"id":30,"left_children":[1,3,-1,-1,-1],"loss_changes":[1.9254279E3,6.9851685E0,0E0,0E0,0E0],"parents":[2147483647,0,0,1,1],"right_children":[2,4,-1,-1,-1],"split_conditions":[1.5788242E-2,4.6733445E-3,1.618551E-2,-1.5824985E-2,-4.048947E-3],"split_indices":[0,0,0,0,0],"split_type":[0,0,0,0,0],"sum_hessian":[7.578135E2,3.8285034E2,3.7496313E2,3.7692627E2,5.924096E0],"tree_param":{"num_deleted":"0","num_feature":"37","num_nodes":"5","size_leaf_vector":"1"}},{"base_weights":[-5.252428E-3,-1.4233139E0,1.4874812E0,-1.5190033E0,3.295637E-1,-1.186674E-1,1.5712398E0,-1.5448208E0,-8.9555675E-1,-1.1544818E0,1.3823548E-2,-1.3328744E-2,9.103488E-1,8.7022275E-1,1.5874539E-2,-1.5600645E-2,-9.060529E-1,-1.457053E-2,4.3575927E-3,-1.3319279E-2,-6.035774E-3,-2.8134456E-3,1.4176261E-2,1.30321765E-2,1.292099E-3,-1.4007462E-2,-4.2168458E-4],"categories":[],"categories_nodes":[],"categories_segments":[],"categories_sizes":[],"default_left":[0,0,0,0,0,0,0,0,0,0,0,0,0,0,0,0,0,0,0,0,0,0,0,0,0,0,0],"id":31,"left_children":[1,3,5,7,9,11,13,15,17,19,-1,-1,21,23,-1,-1,25,-1,-1,-1,-1,-1,-1,-1,-1,-1,-1],"loss_changes":[1.5989619E3,6.54754E1,4.969287E1,4.5317383E0,3.42088E1,2.516421E1,2.5948486E0,2.0091553E0,1.3337426E1,9.616947E-2,0E0,0E0,7.030465E0,3.079225E0,0E0,0E0,4.4616594E0,0E0,0E0,0E0,0E0,0E0,0E0,0E0,0E0,0E0,0E0],"parents":[2147483647,0,0,1,1,2,2,3,3,4,4,5,5,6,6,7,7,8,8,9,9,12,12,13,13,16,16],"right_children":[2,4,6,8,10,12,14,16,18,20,-1,-1,22,24,-1,-1,26,-1,-1,-1,-1,-1,-1,-1,-1,-1,-1],"split_conditions":[2.0849565E-2,2.473989E1,-1.6425756E1,4.2172117E0,-1.3599325E0,1.0169631E0,4.175482E-2,6.432085E-3,-4.4026038E-1,6.0247105E1,1.3823548E-2,-1.3328744E-2,-1.2358988E-1,6.0018804E-2,1.5874539E-2,-1.5600645E-2,9.7731605E-2,-1.457053E-2,4.3575927E-3,-1.3319279E-2,-6.035774E-3,-2.8134456E-3,1.4176261E-2,1.30321765E-2,1.292099E-3,-1.4007462E-2,-4.2168458E-4],"split_indices":[3,1,1,1,3,3,3,3,3,1,0,0,14,22,0,0,22,0,0,0,0,0,0,0,0,0,0],"split_type":[0,0,0,0,0,0,0,0,0,0,0,0,0,0,0,0,0,0,0,0,0,0,0,0,0,0,0],"sum_hessian":[7.533715E2,3.8637292E2,3.669986E2,3.664992E2,1.9873728E1,1.8169271E1,3.488293E2,3.5050653E2,1.5992656E1,8.207541E0,1.1666185E1,8.199191E0,9.97008E0,9.121753E0,3.3970755E2,3.4092822E2,9.57832E0,1.1182061E1,4.810594E0,5.1356425E0,3.0718992E0,3.1098416E0,6.860239E0,5.278611E0,3.8431413E0,5.695441E0,3.8828785E0],"tree_param":{"num_deleted":"0","num_feature":"37","num_nodes":"27","size_leaf_vector":"1"}},{"base_weights":[2.8023006E-2,-1.5501305E0,1.5993338E-2,-1.5655464E-2,-3.336593E-3],"categories":[],"categories_nodes":[],"categories_segments":[],"categories_sizes":[],"default_left":[0,0,0,0,0],"id":32,"left_children":[1,3,-1,-1,-1],"loss_changes":[1.851185E3,6.4622803E0,0E0,0E0,0E0],"parents":[2147483647,0,0,1,1],"right_children":[2,4,-1,-1,-1],"split_conditions":[1.5788242E-2,7.775647E-3,1.5993338E-2,-1.5655464E-2,-3.336593E-3],"split_indices":[0,0,0,0,0],"split_type":[0,0,0,0,0],"sum_hessian":[7.4451514E2,3.714555E2,3.730596E2,3.665237E2,4.931813E0],"tree_param":{"num_deleted":"0","num_feature":"37","num_nodes":"5","size_leaf_vector":"1"}},{"base_weights":[8.988966E-3,-1.5395129E0,1.5893282E-2,-1.55651625E-2,-4.7629246E-1,-8.915453E-3,5.148965E-4],"categories":[],"categories_nodes":[],"categories_segments":[],"categories_sizes":[],"default_left":[0,0,0,0,0,0,0],"id":33,"left_children":[1,3,-1,-1,5,-1,-1],"loss_changes":[1.8338649E3,6.1015015E0,0E0,0E0,1.66747E0,0E0,0E0],"parents":[2147483647,0,0,1,1,4,4],"right_children":[2,4,-1,-1,6,-1,-1],"split_conditions":[1.5788242E-2,7.775647E-3,1.5893282E-2,-1.55651625E-2,5.3552262E-2,-8.915453E-3,5.148965E-4],"split_indices":[0,0,0,0,6,0,0],"split_type":[0,0,0,0,0,0,0],"sum_hessian":[7.4738556E2,3.7750833E2,3.6987723E2,3.7110944E2,6.398896E0,3.1954908E0,3.2034051E0],"tree_param":{"num_deleted":"0","num_feature":"37","num_nodes":"7","size_leaf_vector":"1"}},{"base_weights":[1.29825715E-2,-1.5319779E0,1.5802577E-2,-1.5472717E-2,-4.194354E-3],"categories":[],"categories_nodes":[],"categories_segments":[],"categories_sizes":[],"default_left":[0,0,0,0,0],"id":34,"left_children":[1,3,-1,-1,-1],"loss_changes":[1.7859841E3,5.6710815E0,0E0,0E0,0E0],"parents":[2147483647,0,0,1,1],"right_children":[2,4,-1,-1,-1],"split_conditions":[1.5788242E-2,7.775647E-3,1.5802577E-2,-1.5472717E-2,-4.194354E-3],"split_indices":[0,0,0,0,0],"split_type":[0,0,0,0,0],"sum_hessian":[7.355901E2,3.7044348E2,3.651466E2,3.650347E2,5.4087996E0],"tree_param":{"num_deleted":"0","num_feature":"37","num_nodes":"5","size_leaf_vector":"1"}},{"base_weights":[-3.6160068E-3,-1.5248475E0,1.5713485E-2,-1.5392916E-2,-4.8423163E-3],"categories":[],"categories_nodes":[],"categories_segments":[],"categories_sizes":[],"default_left":[0,0,0,0,0],"id":35,"left_children":[1,3,-1,-1,-1],"loss_changes":[1.7894294E3,4.964966E0,0E0,0E0,0E0],"parents":[2147483647,0,0,1,1],"right_children":[2,4,-1,-1,-1],"split_conditions":[1.5788242E-2,4.6733445E-3,1.5713485E-2,-1.5392916E-2,-4.8423163E-3],"split_indices":[0,0,0,0,0],"split_type":[0,0,0,0,0],"sum_hessian":[7.4487585E2,3.7891757E2,3.6595825E2,3.7325745E2,5.6601515E0],"tree_param":{"num_deleted":"0","num_feature":"37","num_nodes":"5","size_leaf_vector":"1"}},{"base_weights":[3.2032724E-2,-1.5133479E0,1.5622856E-2,-1.5306312E-2,-4.6696305E-1,-1.0870725E-2,2.5747465E-3],"categories":[],"categories_nodes":[],"categories_segments":[],"categories_sizes":[],"default_left":[0,0,0,0,0,0,0],"id":36,"left_children":[1,3,-1,-1,5,-1,-1],"loss_changes":[1.7403346E3,5.9072266E0,0E0,0E0,3.599132E0,0E0,0E0],"parents":[2147483647,0,0,1,1,4,4],"right_children":[2,4,-1,-1,6,-1,-1],"split_conditions":[1.5788242E-2,4.6733445E-3,1.5622856E-2,-1.5306312E-2,-4.7099796E-1,-1.0870725E-2,2.5747465E-3],"split_indices":[0,0,0,0,17,0,0],"split_type":[0,0,0,0,0,0,0],"sum_hessian":[7.339261E2,3.651636E2,3.6876248E2,3.587749E2,6.388716E0,3.172512E0,3.216204E0],"tree_param":{"num_deleted":"0","num_feature":"37","num_nodes":"7","size_leaf_vector":"1"}},{"base_weights":[5.4384978E-3,-1.505457E0,1.5533383E-2,-1.5223286E-2,-4.7057664E-1,-1.0892236E-2,2.5323639E-3],"categories":[],"categories_nodes":[],"categories_segments":[],"categories_sizes":[],"default_left":[0,0,0,0,0,0,0],"id":37,"left_children":[1,3,-1,-1,5,-1,-1],"loss_changes":[1.7124984E3,5.753479E0,0E0,0E0,3.5856614E0,0E0,0E0],"parents":[2147483647,0,0,1,1,4,4],"right_children":[2,4,-1,-1,6,-1,-1],"split_conditions":[1.5788242E-2,4.6733445E-3,1.5533383E-2,-1.5223286E-2,-2.4143972E-1,-1.0892236E-2,2.5323639E-3],"split_indices":[0,0,0,0,16,0,0],"split_type":[0,0,0,0,0,0,0],"sum_hessian":[7.3023914E2,3.6955054E2,3.6068863E2,3.6315897E2,6.391565E0,3.1739397E0,3.2176251E0],"tree_param":{"num_deleted":"0","num_feature":"37","num_nodes":"7","size_leaf_vector":"1"}},{"base_weights":[-1.7138924E-2,-1.5005841E0,1.5447403E-2,-1.5150621E-2,-5.0969874E-3],"categories":[],"categories_nodes":[],"categories_segments":[],"categories_sizes":[],"default_left":[0,0,0,0,0],"id":38,"left_children":[1,3,-1,-1,-1],"loss_changes":[1.6877036E3,4.587158E0,0E0,0E0,0E0],"parents":[2147483647,0,0,1,1],"right_children":[2,4,-1,-1,-1],"split_conditions":[1.5788242E-2,7.775647E-3,1.5447403E-2,-1.5150621E-2,-5.0969874E-3],"split_indices":[0,0,0,0,0],"split_type":[0,0,0,0,0],"sum_hessian":[7.264118E2,3.725806E2,3.538312E2,3.6669382E2,5.886778E0],"tree_param":{"num_deleted":"0","num_feature":"37","num_nodes":"5","size_leaf_vector":"1"}},{"base_weights":[2.2118948E-2,-1.4964871E0,1.5358487E-2,-1.5070835E-2,-5.418129E-3],"categories":[],"categories_nodes":[],"categories_segments":[],"categories_sizes":[],"default_left":[0,0,0,0,0],"id":39,"left_children":[1,3,-1,-1,-1],"loss_changes":[1.617899E3,2.737732E0,0E0,0E0,0E0],"parents":[2147483647,0,0,1,1],"right_children":[2,4,-1,-1,-1],"split_conditions":[1.5788242E-2,7.775647E-3,1.5358487E-2,-1.5070835E-2,-5.418129E-3],"split_indices":[0,0,0,0,0],"split_type":[0,0,0,0,0],"sum_hessian":[7.0181415E2,3.5034848E2,3.514657E2,3.4593018E2,4.418294E0],"tree_param":{"num_deleted":"0","num_feature":"37","num_nodes":"5","size_leaf_vector":"1"}},{"base_weights":[-1.2289369E-2,-1.4897871E0,1.52801415E-2,-1.4994361E-2,-7.679287E-3],"categories":[],"categories_nodes":[],"categories_segments":[],"categories_sizes":[],"default_left":[0,0,0,0,0],"id":40,"left_children":[1,3,-1,-1,-1],"loss_changes":[1.6269059E3,1.3900146E0,0E0,0E0,0E0],"parents":[2147483647,0,0,1,1],"right_children":[2,4,-1,-1,-1],"split_conditions":[1.5788242E-2,7.775647E-3,1.52801415E-2,-1.4994361E-2,-7.679287E-3],"split_indices":[0,0,0,0,0],"split_type":[0,0,0,0,0],"sum_hessian":[7.128734E2,3.6387152E2,3.490019E2,3.5800882E2,5.8626842E0],"tree_param":{"num_deleted":"0","num_feature":"37","num_nodes":"5","size_leaf_vector":"1"}},{"base_weights":[-5.7102363E-3,-1.4748268E0,1.519973E-2,-1.4919256E-2,-3.677214E-3],"categories":[],"categories_nodes":[],"categories_segments":[],"categories_sizes":[],"default_left":[0,0,0,0,0],"id":41,"left_children":[1,3,-1,-1,-1],"loss_changes":[1.6091924E3,6.375061E0,0E0,0E0,0E0],"parents":[2147483647,0,0,1,1],"right_children":[2,4,-1,-1,-1],"split_conditions":[1.5788242E-2,7.775647E-3,1.519973E-2,-1.4919256E-2,-3.677214E-3],"split_indices":[0,0,0,0,0],"split_type":[0,0,0,0,0],"sum_hessian":[7.159385E2,3.6474765E2,3.5119083E2,3.5885767E2,5.8899984E0],"tree_param":{"num_deleted":"0","num_feature":"37","num_nodes":"5","size_leaf_vector":"1"}},{"base_weights":[-1.3835043E-2,-1.47011E0,1.5120989E-2,-1.4847339E-2,-4.956671E-3],"categories":[],"categories_nodes":[],"categories_segments":[],"categories_sizes":[],"default_left":[0,0,0,0,0],"id":42,"left_children":[1,3,-1,-1,-1],"loss_changes":[1.577701E3,4.440857E0,0E0,0E0,0E0],"parents":[2147483647,0,0,1,1],"right_children":[2,4,-1,-1,-1],"split_conditions":[1.5788242E-2,7.775647E-3,1.5120989E-2,-1.4847339E-2,-4.956671E-3],"split_indices":[0,0,0,0,0],"split_type":[0,0,0,0,0],"sum_hessian":[7.0797876E2,3.6227667E2,3.4570212E2,3.5640427E2,5.872392E0],"tree_param":{"num_deleted":"0","num_feature":"37","num_nodes":"5","size_leaf_vector":"1"}},{"base_weights":[-1.6785167E-3,-1.4626575E0,1.5041362E-2,-1.4774146E-2,-4.9079806E-3],"categories":[],"categories_nodes":[],"categories_segments":[],"categories_sizes":[],"default_left":[0,0,0,0,0],"id":43,"left_children":[1,3,-1,-1,-1],"loss_changes":[1.557117E3,4.427124E0,0E0,0E0,0E0],"parents":[2147483647,0,0,1,1],"right_children":[2,4,-1,-1,-1],"split_conditions":[1.5788242E-2,7.775647E-3,1.5041362E-2,-1.4774146E-2,-4.9079806E-3],"split_indices":[0,0,0,0,0],"split_type":[0,0,0,0,0],"sum_hessian":[7.0579205E2,3.5824374E2,3.475483E2,3.5237296E2,5.8707867E0],"tree_param":{"num_deleted":"0","num_feature":"37","num_nodes":"5","size_leaf_vector":"1"}},{"base_weights":[-1.1387179E-2,-1.4553391E0,1.4967038E-2,-1.4700214E-2,-5.635402E-1,-1.2818938E-2,2.7679757E-3],"categories":[],"categories_nodes":[],"categories_segments":[],"categories_sizes":[],"default_left":[0,0,0,0,0,0,0],"id":44,"left_children":[1,3,-1,-1,5,-1,-1],"loss_changes":[1.5066866E3,3.7997437E0,0E0,0E0,4.78978E0,0E0,0E0],"parents":[2147483647,0,0,1,1,4,4],"right_children":[2,4,-1,-1,6,-1,-1],"split_conditions":[1.5788242E-2,7.775647E-3,1.4967038E-2,-1.4700214E-2,-2.9373893E-1,-1.2818938E-2,2.7679757E-3],"split_indices":[0,0,0,0,17,0,0],"split_type":[0,0,0,0,0,0,0],"sum_hessian":[6.898986E2,3.524619E2,3.374367E2,3.4611514E2,6.346779E0,3.1384542E0,3.2083247E0],"tree_param":{"num_deleted":"0","num_feature":"37","num_nodes":"7","size_leaf_vector":"1"}},{"base_weights":[-1.27147E-3,-1.3250507E0,1.3724458E0,-1.4200009E0,5.8088157E-2,-4.7936246E-2,1.4465754E0,-1.4374036E0,-8.3807385E-1,-1.1375933E0,9.6097654E-1,-1.1273833E-2,7.926676E-1,4.597858E-1,1.46513665E-2,-1.4549379E-2,-1.052863E0,-1.3015281E-2,2.5465037E-3,-1.2841861E-2,-5.9162895E-3,5.212155E-1,1.30234E-2,-7.262182E-4,1.2917889E-2,9.231665E-3,-1.6726415E-3,-1.4131424E-2,5.0217463E-3,-3.541073E-3,1.2024975E-2],"categories":[],"categories_nodes":[],"categories_segments":[],"categories_sizes":[],"default_left":[0,0,0,0,0,0,0,0,0,0,0,0,0,0,0,0,0,0,0,0,0,0,0,0,0,0,0,0,0,0,0],"id":45,"left_children":[1,3,5,7,9,11,13,15,17,19,21,-1,23,25,-1,-1,27,-1,-1,-1,-1,29,-1,-1,-1,-1,-1,-1,-1,-1,-1],"loss_changes":[1.2680343E3,4.6717773E1,3.6099792E1,2.1609497E0,2.6756603E1,1.717325E1,5.2837524E0,6.3446045E-1,6.4329977E0,9.5451355E-2,1.4358253E0,0E0,4.703595E0,2.3226867E0,0E0,0E0,1.0586563E1,0E0,0E0,0E0,0E0,5.091134E0,0E0,0E0,0E0,0E0,0E0,0E0,0E0,0E0,0E0],"parents":[2147483647,0,0,1,1,2,2,3,3,4,4,5,5,6,6,7,7,8,8,9,9,10,10,12,12,13,13,16,16,21,21],"right_children":[2,4,6,8,10,12,14,16,18,20,22,-1,24,26,-1,-1,28,-1,-1,-1,-1,30,-1,-1,-1,-1,-1,-1,-1,-1,-1],"split_conditions":[2.0849565E-2,1.9495474E1,-1.6425756E1,4.2172117E0,-1.2774823E0,1.0169631E0,3.3724863E-2,-1.7653208E-2,-2.892155E-1,1.313331E-1,3.748275E1,-1.1273833E-2,-5.5230076E1,-9.561002E-2,1.46513665E-2,-1.4549379E-2,1.6034819E-1,-1.3015281E-2,2.5465037E-3,-1.2841861E-2,-5.9162895E-3,-4.9100602E-1,1.30234E-2,-7.262182E-4,1.2917889E-2,9.231665E-3,-1.6726415E-3,-1.4131424E-2,5.0217463E-3,-3.541073E-3,1.2024975E-2],"split_indices":[3,1,1,1,3,3,3,3,3,4,1,0,1,19,0,0,1,0,0,0,0,3,0,0,0,0,0,0,0,0,0],"split_type":[0,0,0,0,0,0,0,0,0,0,0,0,0,0,0,0,0,0,0,0,0,0,0,0,0,0,0,0,0,0,0],"sum_hessian":[6.9529736E2,3.5410266E2,3.4119473E2,3.3133072E2,2.2771944E1,1.694119E1,3.2425354E2,3.2028247E2,1.1048238E1,9.685558E0,1.3086387E1,7.2675414E0,9.673649E0,6.462324E0,3.177912E2,3.0365292E2,1.6629541E1,7.6237226E0,3.4245157E0,6.5694895E0,3.1160688E0,6.823232E0,6.2631545E0,3.8513503E0,5.8222985E0,3.444587E0,3.0177372E0,1.3575536E1,3.054005E0,3.1965213E0,3.626711E0],"tree_param":{"num_deleted":"0","num_feature":"37","num_nodes":"31","size_leaf_vector":"1"}},{"base_weights":[-6.5961275E-3,-4.814304E-1,4.0212983E-1,-1.2873504E0,-3.375399E-1,2.5416088E-1,1.1820863E0,-7.081949E-1,-1.4133219E-2,4.1406248E-2,-9.1684353E-1,6.480049E-1,-2.0044327E-1,2.6553713E-3,1.2507012E0,3.4316554E-4,-1.1432792E-2,-2.6639152E-1,7.391286E-1,-2.1840505E-2,-1.0338478E0,3.2829687E-1,1.0014428E0,-8.55049E-1,9.194003E-2,1.32837985E-2,6.051062E-1,1.536458E-1,-9.055008E-1,1.0755861E0,3.046512E-1,4.2219907E-1,-1.11341E-2,3.6063832E-3,-1.1211761E0,7.6311237E-1,-1.5270735E-1,1.2289199E0,9.95851E-3,-2.2416127E-1,-1.1054472E0,3.927298E-1,-6.3163924E-1,-1.8411657E-3,1.1607724E-2,-6.052588E-3,4.8205676E-3,1.7175376E-3,-1.0652455E-2,1.2553228E-2,-3.18599E-3,1.0381754E-2,-1.3490443E-3,-1.0864093E-3,8.251469E-3,-4.7456613E-4,-1.1604996E-2,9.6456325E-3,-1.4023055E-4,7.515757E-3,-6.0239825E-3,1.2919393E-2,4.836009E-3,-3.657949E-3,9.271998E-3,3.4057738E-3,-1.0174409E-2,-3.299938E-3,-1.2207518E-2,7.7892565E-3,-1.2992879E-3,-9.090156E-3,2.6707537E-3],"categories":[],"categories_nodes":[],"categories_segments":[],"categories_sizes":[],"default_left":[0,0,0,0,0,0,0,0,0,0,0,0,0,0,0,0,0,0,0,0,0,0,0,0,0,0,0,0,0,0,0,0,0,0,0,0,0,0,0,0,0,0,0,0,0,0,0,0,0,0,0,0,0,0,0,0,0,0,0,0,0,0,0,0,0,0,0,0,0,0,0,0,0],"id":46,"left_children":[1,3,5,7,9,11,13,15,-1,17,19,21,23,-1,25,-1,-1,27,29,31,33,35,37,39,41,-1,43,45,47,49,51,53,-1,-1,55,57,59,61,63,65,67,69,71,-1,-1,-1,-1,-1,-1,-1,-1,-1,-1,-1,-1,-1,-1,-1,-1,-1,-1,-1,-1,-1,-1,-1,-1,-1,-1,-1,-1,-1,-1],"loss_changes":[1.3620497E2,3.7212456E1,4.322825E1,2.5613098E0,6.080619E1,5.711892E1,3.433052E0,3.5046992E0,0E0,3.6341583E1,1.1445465E1,1.8969109E1,2.8503849E1,0E0,1.9759827E0,0E0,0E0,3.1687443E1,7.242323E0,7.1022143E0,1.2196037E1,1.9181976E1,1.8171852E1,7.01128E0,2.2788311E1,0E0,3.6298966E0,1.8178938E1,8.22821E0,7.614086E0,7.876734E0,2.3252153E0,0E0,0E0,3.8026352E0,7.53508E0,1.8391344E1,2.4550476E0,5.872278E0,6.7575235E0,2.5156898E0,1.4991739E1,7.919016E0,0E0,0E0,0E0,0E0,0E0,0E0,0E0,0E0,0E0,0E0,0E0,0E0,0E0,0E0,0E0,0E0,0E0,0E0,0E0,0E0,0E0,0E0,0E0,0E0,0E0,0E0,0E0,0E0,0E0,0E0],"parents":[2147483647,0,0,1,1,2,2,3,3,4,4,5,5,6,6,7,7,9,9,10,10,11,11,12,12,14,14,17,17,18,18,19,19,20,20,21,21,22,22,23,23,24,24,26,26,27,27,28,28,29,29,30,30,31,31,34,34,35,35,36,36,37,37,38,38,39,39,40,40,41,41,42,42],"right_children":[2,4,6,8,10,12,14,16,-1,18,20,22,24,-1,26,-1,-1,28,30,32,34,36,38,40,42,-1,44,46,48,50,52,54,-1,-1,56,58,60,62,64,66,68,70,72,-1,-1,-1,-1,-1,-1,-1,-1,-1,-1,-1,-1,-1,-1,-1,-1,-1,-1,-1,-1,-1,-1,-1,-1,-1,-1,-1,-1,-1,-1],"split_conditions":[-6.189281E-2,-7.49718E-1,8.1073415E-1,-4.0962693E-1,-3.2827428E-1,4.0632817E-1,-5.2409416E-1,-1.0801345E0,-1.4133219E-2,-4.7600713E-1,-6.0214835E-1,2.1738635E-1,4.0751648E-1,2.6553713E-3,2.7999358E0,3.4316554E-4,-1.1432792E-2,-6.19553E-1,-4.7099796E-1,-4.562127E-2,-2.3272738E0,1.17539994E-1,1.3694873E0,-4.4698393E-1,8.011891E-1,1.32837985E-2,8.810041E-1,-9.5103997E-1,-5E-1,7.8554153E-1,-4.1801235E-1,-2.6825446E-1,-1.11341E-2,3.6063832E-3,-1.8934472E0,2.6464537E-1,-2.0656332E-1,7.9871905E-1,5.947973E-1,4.6879882E-1,-6.164901E-1,2.6200145E-1,1.0456672E0,-1.8411657E-3,1.1607724E-2,-6.052588E-3,4.8205676E-3,1.7175376E-3,-1.0652455E-2,1.2553228E-2,-3.18599E-3,1.0381754E-2,-1.3490443E-3,-1.0864093E-3,8.251469E-3,-4.7456613E-4,-1.1604996E-2,9.6456325E-3,-1.4023055E-4,7.515757E-3,-6.0239825E-3,1.2919393E-2,4.836009E-3,-3.657949E-3,9.271998E-3,3.4057738E-3,-1.0174409E-2,-3.299938E-3,-1.2207518E-2,7.7892565E-3,-1.2992879E-3,-9.090156E-3,2.6707537E-3],"split_indices":[22,16,16,2,17,17,2,22,0,16,2,22,15,0,21,0,0,17,17,4,4,4,4,4,17,0,16,15,31,4,4,15,0,0,5,25,17,23,16,5,2,4,15,0,0,0,0,0,0,0,0,0,0,0,0,0,0,0,0,0,0,0,0,0,0,0,0,0,0,0,0,0,0],"split_type":[0,0,0,0,0,0,0,0,0,0,0,0,0,0,0,0,0,0,0,0,0,0,0,0,0,0,0,0,0,0,0,0,0,0,0,0,0,0,0,0,0,0,0,0,0,0,0,0,0,0,0,0,0,0,0,0,0,0,0,0,0,0,0,0,0,0,0,0,0,0,0,0,0],"sum_hessian":[6.9981104E2,3.2364316E2,3.7616788E2,4.7826088E1,2.7581708E2,3.1729782E2,5.8870075E1,9.727167E0,3.809892E1,1.6730473E2,1.0851234E2,1.6978233E2,1.4751549E2,4.439375E0,5.44307E1,3.9342065E0,5.79296E0,1.1652038E2,5.078436E1,1.2682963E1,9.582938E1,9.015762E1,7.96247E1,4.495131E1,1.0256417E2,4.7640884E1,6.7898145E0,7.0768974E1,4.5751404E1,2.778905E1,2.299531E1,9.451433E0,3.2315304E0,5.463105E0,9.036627E1,4.704429E1,4.3113335E1,6.457071E1,1.5053991E1,1.3310418E1,3.164089E1,7.2770805E1,2.9793367E1,3.0816076E0,3.7082071E0,2.1120327E1,4.964865E1,5.898577E0,3.9852825E1,2.4703857E1,3.085193E0,8.106096E0,1.4889213E1,4.393655E0,5.0577784E0,3.2705867E0,8.709568E1,3.716827E1,9.876021E0,1.4096128E1,2.9017206E1,5.886043E1,5.710279E0,1.1105682E1,3.9483087E0,8.10857E0,5.2018485E0,4.5956845E0,2.7045206E1,4.156663E1,3.1204172E1,2.2757961E1,7.035407E0],"tree_param":{"num_deleted":"0","num_feature":"37","num_nodes":"73","size_leaf_vector":"1"}},{"base_weights":[-1.7577851E-2,-1.4368033E0,1.4799145E-2,-1.4536179E-2,-4.3555814E-1,6.9080485E-4,-8.384155E-3],"categories":[],"categories_nodes":[],"categories_segments":[],"categories_sizes":[],"default_left":[0,0,0,0,0,0,0],"id":47,"left_children":[1,3,-1,-1,5,-1,-1],"loss_changes":[1.4838998E3,5.4018555E0,0E0,0E0,1.5518264E0,0E0,0E0],"parents":[2147483647,0,0,1,1,4,4],"right_children":[2,4,-1,-1,6,-1,-1],"split_conditions":[1.5788242E-2,7.775647E-3,1.4799145E-2,-1.4536179E-2,-1.04385324E-1,6.9080485E-4,-8.384155E-3],"split_indices":[0,0,0,0,23,0,0],"split_type":[0,0,0,0,0,0,0],"sum_hessian":[6.9621356E2,3.5746863E2,3.387449E2,3.5112024E2,6.3483887E0,3.1859887E0,3.1623998E0],"tree_param":{"num_deleted":"0","num_feature":"37","num_nodes":"7","size_leaf_vector":"1"}},{"base_weights":[2.3926668E-2,-1.4329715E0,1.47242695E-2,-1.4476891E-2,-5.18198E-3],"categories":[],"categories_nodes":[],"categories_segments":[],"categories_sizes":[],"default_left":[0,0,0,0,0],"id":48,"left_children":[1,3,-1,-1,-1],"loss_changes":[1.4789207E3,3.9539185E0,0E0,0E0,0E0],"parents":[2147483647,0,0,1,1],"right_children":[2,4,-1,-1,-1],"split_conditions":[1.5788242E-2,4.6733445E-3,1.47242695E-2,-1.4476891E-2,-5.18198E-3],"split_indices":[0,0,0,0,0],"split_type":[0,0,0,0,0],"sum_hessian":[6.98805E2,3.4839795E2,3.5040707E2,3.4230804E2,6.0898867E0],"tree_param":{"num_deleted":"0","num_feature":"37","num_nodes":"5","size_leaf_vector":"1"}},{"base_weights":[-1.3997456E-2,-1.305521E0,1.351402E0,-1.3991847E0,7.586259E-2,-1.5764779E-1,1.43006E0,-1.4158463E0,-8.490881E-1,-1.1233901E0,9.9885046E-1,-1.14930235E-2,8.329494E-1,5.479519E-3,1.4437616E-2,-1.43046295E-2,-9.3850935E-1,-1.2946027E-2,2.5143987E-3,-1.2683481E-2,-5.742593E-3,4.4451207E-3,1.3170851E-2,1.4709665E-4,1.2428718E-2,-1.3646335E-2,2.8585477E-3],"categories":[],"categories_nodes":[],"categories_segments":[],"categories_sizes":[],"default_left":[0,0,0,0,0,0,0,0,0,0,0,0,0,0,0,0,0,0,0,0,0,0,0,0,0,0,0],"id":49,"left_children":[1,3,5,7,9,11,13,15,17,19,21,-1,23,-1,-1,-1,25,-1,-1,-1,-1,-1,-1,-1,-1,-1,-1],"loss_changes":[1.225968E3,4.6331116E1,4.033911E1,1.8649292E0,2.7283018E1,1.8288702E1,3.0922852E0,9.13147E-1,6.373721E0,1.2731647E-1,1.8639727E0,0E0,3.1366549E0,0E0,0E0,0E0,6.9186506E0,0E0,0E0,0E0,0E0,0E0,0E0,0E0,0E0,0E0,0E0],"parents":[2147483647,0,0,1,1,2,2,3,3,4,4,5,5,6,6,7,7,8,8,9,9,10,10,12,12,16,16],"right_children":[2,4,6,8,10,12,14,16,18,20,22,-1,24,-1,-1,-1,26,-1,-1,-1,-1,-1,-1,-1,-1,-1,-1],"split_conditions":[2.0849565E-2,1.9495474E1,-1.6425756E1,4.2172117E0,-1.3209453E0,1.0169631E0,3.3724863E-2,-1.1859167E-3,-2.892155E-1,2.1245669E-1,-5.504408E-1,-1.14930235E-2,-6.200282E-2,5.479519E-3,1.4437616E-2,-1.43046295E-2,1.3293618E-1,-1.2946027E-2,2.5143987E-3,-1.2683481E-2,-5.742593E-3,4.4451207E-3,1.3170851E-2,1.4709665E-4,1.2428718E-2,-1.3646335E-2,2.8585477E-3],"split_indices":[3,1,1,1,3,3,3,3,3,12,3,0,21,0,0,0,1,0,0,0,0,0,0,0,0,0,0],"split_type":[0,0,0,0,0,0,0,0,0,0,0,0,0,0,0,0,0,0,0,0,0,0,0,0,0,0,0],"sum_hessian":[6.932112E2,3.5626553E2,3.3694565E2,3.3363104E2,2.2634493E1,1.6643143E1,3.2030252E2,3.2229535E2,1.1335691E1,9.749583E0,1.288491E1,8.23707E0,8.406074E0,5.5260797E0,3.1477643E2,3.1078207E2,1.1513274E1,7.943617E0,3.3920748E0,6.6772127E0,3.0723703E0,5.573369E0,7.311541E0,3.1514325E0,5.254641E0,8.455783E0,3.0574913E0],"tree_param":{"num_deleted":"0","num_feature":"37","num_nodes":"27","size_leaf_vector":"1"}},{"base_weights":[-1.0713663E-2,-1.414656E0,1.458644E-2,-1.435405E-2,-7.1387104E-4],"categories":[],"categories_nodes":[],"categories_segments":[],"categories_sizes":[],"default_left":[0,0,0,0,0],"id":50,"left_children":[1,3,-1,-1,-1],"loss_changes":[1.408827E3,9.631287E0,0E0,0E0,0E0],"parents":[2147483647,0,0,1,1],"right_children":[2,4,-1,-1,-1],"split_conditions":[1.5788242E-2,7.775647E-3,1.458644E-2,-1.435405E-2,-7.1387104E-4],"split_indices":[0,0,0,0,0],"split_type":[0,0,0,0,0],"sum_hessian":[6.80937E2,3.4823886E2,3.3269818E2,3.4287402E2,5.3648386E0],"tree_param":{"num_deleted":"0","num_feature":"37","num_nodes":"5","size_leaf_vector":"1"}},{"base_weights":[-7.8499075E-3,-3.5060537E-1,4.4189802E-1,-9.850791E-1,-1.7944208E-1,2.9742235E-1,1.0971756E0,3.6214784E-2,-1.1115636E0,2.541211E-1,-5.5039257E-1,7.756235E-1,-1.154724E-1,7.909498E-1,1.32634975E-2,-4.8702406E-3,3.5254203E-3,-1.29944915E-2,-8.0723345E-1,-7.610168E-2,7.8990924E-1,-1.0883084E-1,-7.257263E-1,1.0518878E0,3.3368725E-1,-8.596034E-1,6.3796505E-2,1.1282076E0,-5.0810225E-2,2.9039135E-2,-1.1356224E0,4.326808E-1,-6.048323E-1,1.0972906E0,4.3330622E-1,-1.1402781E-2,6.8694495E-2,-1.2439923E0,-5.5686766E-1,1.6059196E-3,1.1243153E0,1.08357966E-1,9.2937815E-1,-5.0100994E-1,-1.1395565E0,4.9854895E-1,-4.457195E-1,1.2342919E-2,4.9375948E-3,-5.185025E-3,3.654967E-3,-4.4772862E-3,6.2446324E-3,-7.796311E-3,-1.2794252E-2,1.03916535E-2,-2.7620472E-4,2.1054032E-3,-9.91542E-3,1.3099118E-2,6.2261843E-3,9.341095E-3,7.942775E-4,3.7952007E-3,-3.5145709E-3,-6.4536324E-3,-1.3167249E-2,1.7916235E-3,-7.85032E-3,1.3135851E-2,8.84785E-3,6.2169125E-3,-5.7909847E-3,1.209291E-2,2.1421704E-3,-9.335513E-3,1.2579701E-3,-1.2956385E-2,-4.8835566E-3,7.5610587E-3,-1.5372369E-3,3.7837522E-3,-6.556319E-3],"categories":[],"categories_nodes":[],"categories_segments":[],"categories_sizes":[],"default_left":[0,0,0,0,0,0,0,0,0,0,0,0,0,0,0,0,0,0,0,0,0,0,0,0,0,0,0,0,0,0,0,0,0,0,0,0,0,0,0,0,0,0,0,0,0,0,0,0,0,0,0,0,0,0,0,0,0,0,0,0,0,0,0,0,0,0,0,0,0,0,0,0,0,0,0,0,0,0,0,0,0,0,0],"id":51,"left_children":[1,3,5,7,9,11,13,15,17,19,21,23,25,27,-1,-1,-1,-1,29,31,33,35,37,39,41,43,45,47,49,51,53,55,57,59,61,-1,63,65,67,-1,69,71,73,75,77,79,81,-1,-1,-1,-1,-1,-1,-1,-1,-1,-1,-1,-1,-1,-1,-1,-1,-1,-1,-1,-1,-1,-1,-1,-1,-1,-1,-1,-1,-1,-1,-1,-1,-1,-1,-1,-1],"loss_changes":[1.0467792E2,4.167169E1,2.7478252E1,1.0587296E1,4.914527E1,4.787378E1,2.648243E0,1.8212088E0,3.106926E0,2.5038706E1,1.2658573E1,1.3355766E1,1.7496023E1,7.162632E0,0E0,0E0,0E0,0E0,8.377003E0,2.4003624E1,5.4350166E0,8.856043E0,9.597702E0,4.248993E0,5.8924203E0,1.9841537E0,2.3767353E1,5.961323E-1,1.7697762E0,2.9883785E0,1.20643616E-1,1.2747469E1,1.3987003E1,2.0412827E0,4.6425376E0,0E0,5.597617E0,3.7309647E-1,1.5338934E1,0E0,1.7072449E0,1.2191604E1,2.167572E0,3.6266017E0,7.4028015E-1,9.830852E0,8.805117E0,0E0,0E0,0E0,0E0,0E0,0E0,0E0,0E0,0E0,0E0,0E0,0E0,0E0,0E0,0E0,0E0,0E0,0E0,0E0,0E0,0E0,0E0,0E0,0E0,0E0,0E0,0E0,0E0,0E0,0E0,0E0,0E0,0E0,0E0,0E0,0E0],"parents":[2147483647,0,0,1,1,2,2,3,3,4,4,5,5,6,6,7,7,8,8,9,9,10,10,11,11,12,12,13,13,18,18,19,19,20,20,21,21,22,22,23,23,24,24,25,25,26,26,27,27,28,28,29,29,30,30,31,31,32,32,33,33,34,34,36,36,37,37,38,38,40,40,41,41,42,42,43,43,44,44,45,45,46,46],"right_children":[2,4,6,8,10,12,14,16,18,20,22,24,26,28,-1,-1,-1,-1,30,32,34,36,38,40,42,44,46,48,50,52,54,56,58,60,62,-1,64,66,68,-1,70,72,74,76,78,80,82,-1,-1,-1,-1,-1,-1,-1,-1,-1,-1,-1,-1,-1,-1,-1,-1,-1,-1,-1,-1,-1,-1,-1,-1,-1,-1,-1,-1,-1,-1,-1,-1,-1,-1,-1,-1],"split_conditions":[1.2192385E-1,-6.786157E-1,8.167025E-1,-5E-1,-3.2827428E-1,4.1274402E-1,8.701073E-1,0E0,-7.49718E-1,-4.616846E-1,-5.366204E-1,4.3321565E-1,4.5607334E-1,9.1620827E-1,1.32634975E-2,-4.8702406E-3,3.5254203E-3,-1.29944915E-2,-7.661302E-1,-6.19553E-1,6.312942E-2,-4.6695235E-1,-2.277879E-1,-3.2131973E-1,4.1443267E-1,5.257869E-1,2.6200145E-1,1.293585E0,8.194851E-1,-1.985298E-1,-6.7887306E-1,-3.2251912E-1,-7.484967E-1,-4.15693E-1,-4.9515262E-1,-1.1402781E-2,1.5268856E-1,-1.2538903E0,-1.14546455E-1,1.6059196E-3,9.578933E-2,6.2598987E-3,9.386322E-1,3.647029E-1,1.0177042E0,8.011891E-1,5.623483E-1,1.2342919E-2,4.9375948E-3,-5.185025E-3,3.654967E-3,-4.4772862E-3,6.2446324E-3,-7.796311E-3,-1.2794252E-2,1.03916535E-2,-2.7620472E-4,2.1054032E-3,-9.91542E-3,1.3099118E-2,6.2261843E-3,9.341095E-3,7.942775E-4,3.7952007E-3,-3.5145709E-3,-6.4536324E-3,-1.3167249E-2,1.7916235E-3,-7.85032E-3,1.3135851E-2,8.84785E-3,6.2169125E-3,-5.7909847E-3,1.209291E-2,2.1421704E-3,-9.335513E-3,1.2579701E-3,-1.2956385E-2,-4.8835566E-3,7.5610587E-3,-1.5372369E-3,3.7837522E-3,-6.556319E-3],"split_indices":[20,16,16,31,17,17,16,34,16,16,4,4,16,17,0,0,0,0,17,17,4,16,16,21,16,17,4,4,25,7,4,4,4,17,17,0,17,7,17,0,17,17,18,16,30,17,17,0,0,0,0,0,0,0,0,0,0,0,0,0,0,0,0,0,0,0,0,0,0,0,0,0,0,0,0,0,0,0,0,0,0,0,0],"split_type":[0,0,0,0,0,0,0,0,0,0,0,0,0,0,0,0,0,0,0,0,0,0,0,0,0,0,0,0,0,0,0,0,0,0,0,0,0,0,0,0,0,0,0,0,0,0,0,0,0,0,0,0,0,0,0,0,0,0,0,0,0,0,0,0,0,0,0,0,0,0,0,0,0,0,0,0,0,0,0,0,0,0,0],"sum_hessian":[6.770446E2,3.8434982E2,2.9269476E2,8.064756E1,3.0370227E2,2.4101062E2,5.1684143E1,8.965956E0,7.168161E1,1.4017827E2,1.63524E2,1.1126669E2,1.2974393E2,2.4028374E1,2.765577E1,3.1748297E0,5.7911263E0,4.229801E1,2.9383596E1,8.7257034E1,5.292124E1,4.6937347E1,1.16586655E2,6.761738E1,4.364931E1,2.4451721E1,1.05292206E2,1.691211E1,7.1162643E0,8.542051E0,2.0841545E1,4.4559933E1,4.2697098E1,2.7306644E1,2.5614597E1,6.0959325E0,4.0841415E1,2.70861E1,8.950056E1,5.3234987E0,6.2293884E1,3.252727E1,1.1122039E1,1.1943214E1,1.2508507E1,5.6826035E1,4.846617E1,1.3679361E1,3.2327485E0,3.2356982E0,3.880566E0,4.8814387E0,3.6606128E0,7.8442407E0,1.2997305E1,1.8684284E1,2.587565E1,1.3882204E1,2.8814894E1,1.7643795E1,9.66285E0,9.926764E0,1.5687833E1,2.3530441E1,1.7310972E1,4.004007E0,2.3082092E1,2.1229992E1,6.827056E1,3.2292927E1,3.0000956E1,1.8676748E1,1.3850524E1,7.49685E0,3.6251888E0,6.777134E0,5.16608E0,9.291802E0,3.2167044E0,4.0625446E1,1.6200588E1,9.676131E0,3.879004E1],"tree_param":{"num_deleted":"0","num_feature":"37","num_nodes":"83","size_leaf_vector":"1"}},{"base_weights":[3.7940773E-3,-1.4063158E0,1.4495094E-2,-1.4267177E-2,-1.8622121E-3],"categories":[],"categories_nodes":[],"categories_segments":[],"categories_sizes":[],"default_left":[0,0,0,0,0],"id":52,"left_children":[1,3,-1,-1,-1],"loss_changes":[1.3939456E3,8.350769E0,0E0,0E0,0E0],"parents":[2147483647,0,0,1,1],"right_children":[2,4,-1,-1,-1],"split_conditions":[1.5788242E-2,7.775647E-3,1.4495094E-2,-1.4267177E-2,-1.8622121E-3],"split_indices":[0,0,0,0,0],"split_type":[0,0,0,0,0],"sum_hessian":[6.8177014E2,3.451489E2,3.3662122E2,3.3930582E2,5.8430843E0],"tree_param":{"num_deleted":"0","num_feature":"37","num_nodes":"5","size_leaf_vector":"1"}},{"base_weights":[-1.06175905E-2,-1.4088284E0,1.4432284E-2,-1.420609E-2,-6.1058244E-3],"categories":[],"categories_nodes":[],"categories_segments":[],"categories_sizes":[],"default_left":[0,0,0,0,0],"id":53,"left_children":[1,3,-1,-1,-1],"loss_changes":[1.3925723E3,2.416504E0,0E0,0E0,0E0],"parents":[2147483647,0,0,1,1],"right_children":[2,4,-1,-1,-1],"split_conditions":[1.5788242E-2,7.775647E-3,1.4432284E-2,-1.420609E-2,-6.1058244E-3],"split_indices":[0,0,0,0,0],"split_type":[0,0,0,0,0],"sum_hessian":[6.8305676E2,3.482064E2,3.348504E2,3.4237393E2,5.8324494E0],"tree_param":{"num_deleted":"0","num_feature":"37","num_nodes":"5","size_leaf_vector":"1"}},{"base_weights":[3.2790997E-3,-1.265199E0,1.3234761E0,-1.3609716E0,2.666299E-1,-1.0828049E-1,1.3946316E0,-1.3848345E0,-7.692439E-1,-1.0532877E-2,1.1917927E-2,-1.0925775E-2,7.574964E-1,5.9382594E-1,1.4147389E-2,-1.3980091E-2,-7.7655077E-1,-1.1954568E-2,5.458619E-3,-1.6565232E-3,1.2301156E-2,-6.4943987E-3,1.2715047E-2,-1.2437661E-2,2.3892555E-4],"categories":[],"categories_nodes":[],"categories_segments":[],"categories_sizes":[],"default_left":[0,0,0,0,0,0,0,0,0,0,0,0,0,0,0,0,0,0,0,0,0,0,0,0,0],"id":54,"left_children":[1,3,5,7,9,11,13,15,17,-1,-1,-1,19,21,-1,-1,23,-1,-1,-1,-1,-1,-1,-1,-1],"loss_changes":[1.1376653E3,5.1191406E1,3.4064697E1,3.5413208E0,2.7171495E1,1.5049271E1,4.267395E0,1.4174805E0,9.00201E0,0E0,0E0,0E0,4.335238E0,8.823739E0,0E0,0E0,3.3473096E0,0E0,0E0,0E0,0E0,0E0,0E0,0E0,0E0],"parents":[2147483647,0,0,1,1,2,2,3,3,4,4,5,5,6,6,7,7,8,8,12,12,13,13,16,16],"right_children":[2,4,6,8,10,12,14,16,18,-1,-1,-1,20,22,-1,-1,24,-1,-1,-1,-1,-1,-1,-1,-1],"split_conditions":[2.0849565E-2,2.473989E1,-1.6425756E1,4.2172117E0,-1.3209453E0,1.0923649E0,4.175482E-2,6.432085E-3,-2.892155E-1,-1.0532877E-2,1.1917927E-2,-1.0925775E-2,-5.5230076E1,-1.573054E-1,1.4147389E-2,-1.3980091E-2,1.6199806E-1,-1.1954568E-2,5.458619E-3,-1.6565232E-3,1.2301156E-2,-6.4943987E-3,1.2715047E-2,-1.2437661E-2,2.3892555E-4],"split_indices":[3,1,1,1,3,3,3,3,3,0,0,0,1,1,0,0,15,0,0,0,0,0,0,0,0],"split_type":[0,0,0,0,0,0,0,0,0,0,0,0,0,0,0,0,0,0,0,0,0,0,0,0,0],"sum_hessian":[6.77349E2,3.454621E2,3.318869E2,3.252391E2,2.0222973E1,1.5688517E1,3.1619836E2,3.1134308E2,1.389604E1,8.276504E0,1.1946469E1,7.2191463E0,8.469371E0,8.492748E0,3.0770563E2,3.0347202E2,7.8710575E0,1.0563495E1,3.3325453E0,3.0877297E0,5.3816404E0,3.0108078E0,5.4819407E0,4.6203384E0,3.2507188E0],"tree_param":{"num_deleted":"0","num_feature":"37","num_nodes":"25","size_leaf_vector":"1"}},{"base_weights":[-1.5754366E-2,-1.3936237E0,1.431235E-2,-1.4087298E-2,-4.495599E-3],"categories":[],"categories_nodes":[],"categories_segments":[],"categories_sizes":[],"default_left":[0,0,0,0,0],"id":55,"left_children":[1,3,-1,-1,-1],"loss_changes":[1.3212937E3,4.2077637E0,0E0,0E0,0E0],"parents":[2147483647,0,0,1,1],"right_children":[2,4,-1,-1,-1],"split_conditions":[1.5788242E-2,7.775647E-3,1.431235E-2,-1.4087298E-2,-4.495599E-3],"split_indices":[0,0,0,0,0],"split_type":[0,0,0,0,0],"sum_hessian":[6.6071326E2,3.3845886E2,3.222544E2,3.32644E2,5.8148375E0],"tree_param":{"num_deleted":"0","num_feature":"37","num_nodes":"5","size_leaf_vector":"1"}},{"base_weights":[-1.0844708E-3,-1.3854126E0,1.4244899E-2,-1.40302405E-2,-4.0273616E-1,-1.01090735E-2,2.8702407E-3],"categories":[],"categories_nodes":[],"categories_segments":[],"categories_sizes":[],"default_left":[0,0,0,0,0,0,0],"id":56,"left_children":[1,3,-1,-1,5,-1,-1],"loss_changes":[1.3027893E3,5.2313232E0,0E0,0E0,3.3521838E0,0E0,0E0],"parents":[2147483647,0,0,1,1,4,4],"right_children":[2,4,-1,-1,6,-1,-1],"split_conditions":[1.5788242E-2,4.6733445E-3,1.4244899E-2,-1.40302405E-2,-4.7099796E-1,-1.01090735E-2,2.8702407E-3],"split_indices":[0,0,0,0,17,0,0],"split_type":[0,0,0,0,0,0,0],"sum_hessian":[6.58154E2,3.3392178E2,3.242322E2,3.276224E2,6.2993684E0,3.1002457E0,3.1991227E0],"tree_param":{"num_deleted":"0","num_feature":"37","num_nodes":"7","size_leaf_vector":"1"}},{"base_weights":[2.2261164E-3,-1.3795968E0,1.4184062E-2,-1.3973996E-2,-3.5832566E-3],"categories":[],"categories_nodes":[],"categories_segments":[],"categories_sizes":[],"default_left":[0,0,0,0,0],"id":57,"left_children":[1,3,-1,-1,-1],"loss_changes":[1.2896862E3,5.563965E0,0E0,0E0,0E0],"parents":[2147483647,0,0,1,1],"right_children":[2,4,-1,-1,-1],"split_conditions":[1.5788242E-2,7.775647E-3,1.4184062E-2,-1.3973996E-2,-3.5832566E-3],"split_indices":[0,0,0,0,0],"split_type":[0,0,0,0,0],"sum_hessian":[6.570421E2,3.3256808E2,3.2447403E2,3.2650812E2,6.0599895E0],"tree_param":{"num_deleted":"0","num_feature":"37","num_nodes":"5","size_leaf_vector":"1"}},{"base_weights":[3.272772E-3,-1.2609941E0,1.3162367E0,-1.3363769E0,1.3181753E-1,2.6724923E-2,1.3787265E0,-1.3622382E0,-7.330482E-1,-1.0033432E-2,1.0457061E-2,-1.0383487E-2,8.752972E-1,6.6403276E-1,1.3966269E-2,-1.3821711E-2,-9.403103E-1,-1.187803E-2,7.858446E-3,1.4257649E-3,1.2061623E-2,1.0135639E-2,1.1040482E-3,-1.3337387E-2,4.2352113E-3],"categories":[],"categories_nodes":[],"categories_segments":[],"categories_sizes":[],"default_left":[0,0,0,0,0,0,0,0,0,0,0,0,0,0,0,0,0,0,0,0,0,0,0,0,0],"id":58,"left_children":[1,3,5,7,9,11,13,15,17,-1,-1,-1,19,21,-1,-1,23,-1,-1,-1,-1,-1,-1,-1,-1],"loss_changes":[1.07714E3,3.4885437E1,2.561383E1,3.895996E0,1.9601915E1,1.5127834E1,2.956482E0,1.220398E0,1.1334988E1,0E0,0E0,0E0,2.082364E0,1.692461E0,0E0,0E0,9.496244E0,0E0,0E0,0E0,0E0,0E0,0E0,0E0,0E0],"parents":[2147483647,0,0,1,1,2,2,3,3,4,4,5,5,6,6,7,7,8,8,12,12,13,13,16,16],"right_children":[2,4,6,8,10,12,14,16,18,-1,-1,-1,20,22,-1,-1,24,-1,-1,-1,-1,-1,-1,-1,-1],"split_conditions":[2.0849565E-2,2.473989E1,-1.6425756E1,4.2172117E0,-1.3599325E0,1.0169631E0,4.175482E-2,-2.3466298E-2,-1.8305509E-1,-1.0033432E-2,1.0457061E-2,-1.0383487E-2,-5.5230076E1,-1.17299244E-1,1.3966269E-2,-1.3821711E-2,2.4847674E-1,-1.187803E-2,7.858446E-3,1.4257649E-3,1.2061623E-2,1.0135639E-2,1.1040482E-3,-1.3337387E-2,4.2352113E-3],"split_indices":[3,1,1,1,3,3,3,3,3,0,0,0,1,7,0,0,1,0,0,0,0,0,0,0,0],"split_type":[0,0,0,0,0,0,0,0,0,0,0,0,0,0,0,0,0,0,0,0,0,0,0,0,0],"sum_hessian":[6.4690424E2,3.2958395E2,3.1732028E2,3.127003E2,1.6883675E1,1.473257E1,3.025877E2,2.9864136E2,1.4058928E1,7.486566E0,9.397108E0,6.4337263E0,8.298843E0,8.324378E0,2.9426334E2,2.8299603E2,1.5645323E1,1.0987318E1,3.0716097E0,3.0267797E0,5.272064E0,4.5935116E0,3.7308664E0,1.21596575E1,3.485666E0],"tree_param":{"num_deleted":"0","num_feature":"37","num_nodes":"25","size_leaf_vector":"1"}},{"base_weights":[-1.3960584E-2,-1.3661617E0,1.40715055E-2,-1.38680395E-2,-1.7105014E-3],"categories":[],"categories_nodes":[],"categories_segments":[],"categories_sizes":[],"default_left":[0,0,0,0,0],"id":59,"left_children":[1,3,-1,-1,-1],"loss_changes":[1.2546144E3,8.016174E0,0E0,0E0,0E0],"parents":[2147483647,0,0,1,1],"right_children":[2,4,-1,-1,-1],"split_conditions":[1.5788242E-2,7.775647E-3,1.40715055E-2,-1.38680395E-2,-1.7105014E-3],"split_indices":[0,0,0,0,0],"split_type":[0,0,0,0,0],"sum_hessian":[6.50891E2,3.3355182E2,3.1733914E2,3.2773077E2,5.821042E0],"tree_param":{"num_deleted":"0","num_feature":"37","num_nodes":"5","size_leaf_vector":"1"}},{"base_weights":[-1.6132483E-3,-1.3611685E0,1.40150115E-2,-1.3813372E-2,-2.6917022E-1,-7.843737E-3,3.004785E-3],"categories":[],"categories_nodes":[],"categories_segments":[],"categories_sizes":[],"default_left":[0,0,0,0,0,0,0],"id":60,"left_children":[1,3,-1,-1,5,-1,-1],"loss_changes":[1.2545852E3,6.98468E0,0E0,0E0,2.3779442E0,0E0,0E0],"parents":[2147483647,0,0,1,1,4,4],"right_children":[2,4,-1,-1,6,-1,-1],"split_conditions":[1.5788242E-2,7.775647E-3,1.40150115E-2,-1.3813372E-2,-6.308017E-2,-7.843737E-3,3.004785E-3],"split_indices":[0,0,0,0,14,0,0],"split_type":[0,0,0,0,0,0,0],"sum_hessian":[6.556732E2,3.330208E2,3.226524E2,3.2672147E2,6.2993736E0,3.1098297E0,3.1895442E0],"tree_param":{"num_deleted":"0","num_feature":"37","num_nodes":"7","size_leaf_vector":"1"}},{"base_weights":[-1.0777578E-3,-1.3573687E0,1.3956911E-2,-1.3762594E-2,-7.373917E-4],"categories":[],"categories_nodes":[],"categories_segments":[],"categories_sizes":[],"default_left":[0,0,0,0,0],"id":61,"left_children":[1,3,-1,-1,-1],"loss_changes":[1.2323279E3,7.901428E0,0E0,0E0,0E0],"parents":[2147483647,0,0,1,1],"right_children":[2,4,-1,-1,-1],"split_conditions":[1.5788242E-2,7.775647E-3,1.3956911E-2,-1.3762594E-2,-7.373917E-4],"split_indices":[0,0,0,0,0],"split_type":[0,0,0,0,0],"sum_hessian":[6.4850226E2,3.2903287E2,3.1946936E2,3.2418973E2,4.8431535E0],"tree_param":{"num_deleted":"0","num_feature":"37","num_nodes":"5","size_leaf_vector":"1"}},{"base_weights":[5.345623E-3,-1.3550603E0,1.39027815E-2,-1.3706878E-2,-3.9184117E-3],"categories":[],"categories_nodes":[],"categories_segments":[],"categories_sizes":[],"default_left":[0,0,0,0,0],"id":62,"left_children":[1,3,-1,-1,-1],"loss_changes":[1.2044478E3,4.317383E0,0E0,0E0,0E0],"parents":[2147483647,0,0,1,1],"right_children":[2,4,-1,-1,-1],"split_conditions":[1.5788242E-2,7.775647E-3,1.39027815E-2,-1.3706878E-2,-3.9184117E-3],"split_indices":[0,0,0,0,0],"split_type":[0,0,0,0,0],"sum_hessian":[6.372796E2,3.2149738E2,3.1578223E2,3.1594833E2,5.549026E0],"tree_param":{"num_deleted":"0","num_feature":"37","num_nodes":"5","size_leaf_vector":"1"}},{"base_weights":[-1.9388251E-2,-1.3478023E0,1.3845205E-2,-1.36597175E-2,-2.878001E-3],"categories":[],"categories_nodes":[],"categories_segments":[],"categories_sizes":[],"default_left":[0,0,0,0,0],"id":63,"left_children":[1,3,-1,-1,-1],"loss_changes":[1.1874722E3,5.907776E0,0E0,0E0,0E0],"parents":[2147483647,0,0,1,1],"right_children":[2,4,-1,-1,-1],"split_conditions":[1.5788242E-2,7.775647E-3,1.3845205E-2,-1.36597175E-2,-2.878001E-3],"split_indices":[0,0,0,0,0],"split_type":[0,0,0,0,0],"sum_hessian":[6.3472327E2,3.2615097E2,3.0857233E2,3.2037082E2,5.780138E0],"tree_param":{"num_deleted":"0","num_feature":"37","num_nodes":"5","size_leaf_vector":"1"}},{"base_weights":[-1.5268624E-2,-4.418251E-1,3.6697033E-1,-2.0787545E-1,-8.6115026E-1,2.3497424E-1,1.0835395E0,-7.240889E-1,3.300361E-1,-4.6650997E-1,-1.0345409E0,4.9831307E-1,-2.9217225E-1,6.989853E-4,1.1840271E0,-1.2640989E-1,-9.7782E-1,9.749606E-1,2.7551852E-2,-1.1888787E-2,-2.3730892E-1,-1.7980749E-3,-1.0866385E0,1.6571671E-1,7.8564465E-1,-7.7905685E-1,8.993495E-2,1.232401E-2,6.6825077E-3,-4.1712534E-1,4.0287536E-1,-1.3074986E-2,-6.8740904E-1,1.1009156E0,3.7386825E-3,-4.001158E-1,4.426156E-1,4.1193822E-1,-6.042671E-1,-2.5447367E-3,-1.131002E0,9.6392936E-1,-1.16755314E-1,9.5975024E-1,-9.585164E-2,-4.003216E-1,-1.0477265E0,5.382479E-1,-4.6734807E-1,1.646861E-3,-6.993362E-3,-2.6850493E-3,8.4201265E-3,1.2341171E-3,-1.0788789E-2,1.2257344E-2,4.848613E-3,3.4644338E-3,-1.1973829E-2,8.039923E-3,-1.3393037E-3,7.808691E-3,-4.3533056E-4,-8.305565E-3,-1.4960425E-4,-3.2436708E-3,-1.1949931E-2,5.8462033E-3,1.1982249E-2,4.822724E-3,-4.833415E-3,1.1658456E-2,6.4620147E-3,-3.913851E-3,7.1631754E-3,1.1721079E-3,-7.913651E-3,-4.2507453E-3,-1.1738741E-2,-3.37939E-3,6.705017E-3,-9.092847E-3,2.451827E-3],"categories":[],"categories_nodes":[],"categories_segments":[],"categories_sizes":[],"default_left":[0,0,0,0,0,0,0,0,0,0,0,0,0,0,0,0,0,0,0,0,0,0,0,0,0,0,0,0,0,0,0,0,0,0,0,0,0,0,0,0,0,0,0,0,0,0,0,0,0,0,0,0,0,0,0,0,0,0,0,0,0,0,0,0,0,0,0,0,0,0,0,0,0,0,0,0,0,0,0,0,0,0,0],"id":64,"left_children":[1,3,5,7,9,11,13,15,17,19,21,23,25,-1,27,29,31,33,35,-1,37,-1,39,41,43,45,47,-1,-1,49,51,-1,53,55,-1,57,59,61,63,-1,65,67,69,71,73,75,77,79,81,-1,-1,-1,-1,-1,-1,-1,-1,-1,-1,-1,-1,-1,-1,-1,-1,-1,-1,-1,-1,-1,-1,-1,-1,-1,-1,-1,-1,-1,-1,-1,-1,-1,-1],"loss_changes":[1.02585075E2,2.8989784E1,3.1133015E1,5.360068E1,6.781761E0,3.9223618E1,5.146927E0,1.4795216E1,1.8465693E1,5.3848004E0,3.052391E0,1.7845222E1,1.7634264E1,0E0,3.403473E-1,4.8558984E0,5.698883E0,1.877634E0,1.1814317E1,0E0,6.736963E0,0E0,2.2427902E0,2.0055157E1,1.5538692E1,3.8152714E0,1.3691058E1,0E0,0E0,3.424687E0,3.5605402E0,0E0,1.2431545E1,1.2884026E0,0E0,1.9946037E1,7.138295E0,1.7863636E0,2.3618102E0,0E0,2.9565506E0,1.3636684E0,1.477497E1,4.6837006E0,4.483032E0,3.9154842E0,1.364727E0,3.73493E0,7.9432406E0,0E0,0E0,0E0,0E0,0E0,0E0,0E0,0E0,0E0,0E0,0E0,0E0,0E0,0E0,0E0,0E0,0E0,0E0,0E0,0E0,0E0,0E0,0E0,0E0,0E0,0E0,0E0,0E0,0E0,0E0,0E0,0E0,0E0,0E0],"parents":[2147483647,0,0,1,1,2,2,3,3,4,4,5,5,6,6,7,7,8,8,9,9,10,10,11,11,12,12,14,14,15,15,16,16,17,17,18,18,20,20,22,22,23,23,24,24,25,25,26,26,29,29,30,30,32,32,33,33,35,35,36,36,37,37,38,38,40,40,41,41,42,42,43,43,44,44,45,45,46,46,47,47,48,48],"right_children":[2,4,6,8,10,12,14,16,18,20,22,24,26,-1,28,30,32,34,36,-1,38,-1,40,42,44,46,48,-1,-1,50,52,-1,54,56,-1,58,60,62,64,-1,66,68,70,72,74,76,78,80,82,-1,-1,-1,-1,-1,-1,-1,-1,-1,-1,-1,-1,-1,-1,-1,-1,-1,-1,-1,-1,-1,-1,-1,-1,-1,-1,-1,-1,-1,-1,-1,-1,-1,-1],"split_conditions":[-4.8412107E-2,-3.2827428E-1,8.167025E-1,-6.147283E-1,-5.366204E-1,5.6894106E-1,-5.2409416E-1,-3.80143E-1,-5.4861826E-1,-4.7254544E-1,-2.008322E0,2.1738635E-1,5.8767486E-1,6.989853E-4,2.7999358E0,-2.355029E-1,-7.49718E-1,1.1319289E0,-4.7600713E-1,-1.1888787E-2,-5.8826502E-2,-1.7980749E-3,-1.7462313E0,-2.0656332E-1,1.293585E0,-1.4600393E-1,2.7411816E-1,1.232401E-2,6.6825077E-3,-5.264241E-1,-1.7995748E-1,-1.3074986E-2,-7.308571E-1,4.79865E-1,3.7386825E-3,-5.9748673E-1,-4.4303465E-1,-3.2172814E-1,5.4551244E-1,-2.5447367E-3,-6.0214835E-1,-2.6449963E-1,-1.7288241E-1,3.423919E-1,5.947973E-1,4.45582E-1,-5.366144E-1,5.6085736E-1,7.4556535E-1,1.646861E-3,-6.993362E-3,-2.6850493E-3,8.4201265E-3,1.2341171E-3,-1.0788789E-2,1.2257344E-2,4.848613E-3,3.4644338E-3,-1.1973829E-2,8.039923E-3,-1.3393037E-3,7.808691E-3,-4.3533056E-4,-8.305565E-3,-1.4960425E-4,-3.2436708E-3,-1.1949931E-2,5.8462033E-3,1.1982249E-2,4.822724E-3,-4.833415E-3,1.1658456E-2,6.4620147E-3,-3.913851E-3,7.1631754E-3,1.1721079E-3,-7.913651E-3,-4.2507453E-3,-1.1738741E-2,-3.37939E-3,6.705017E-3,-9.092847E-3,2.451827E-3],"split_indices":[22,17,16,16,4,17,2,2,4,16,6,22,15,0,21,30,16,28,16,0,17,0,5,17,4,4,4,0,0,5,28,0,17,6,0,17,17,18,8,0,2,16,4,17,16,19,6,16,16,0,0,0,0,0,0,0,0,0,0,0,0,0,0,0,0,0,0,0,0,0,0,0,0,0,0,0,0,0,0,0,0,0,0],"split_type":[0,0,0,0,0,0,0,0,0,0,0,0,0,0,0,0,0,0,0,0,0,0,0,0,0,0,0,0,0,0,0,0,0,0,0,0,0,0,0,0,0,0,0,0,0,0,0,0,0,0,0,0,0,0,0,0,0,0,0,0,0,0,0,0,0,0,0,0,0,0,0,0,0,0,0,0,0,0,0,0,0,0,0],"sum_hessian":[6.271824E2,2.9633444E2,3.3084793E2,1.9117175E2,1.051627E2,2.805052E2,5.034273E1,9.73768E1,9.379496E1,3.322728E1,7.193542E1,1.8709538E2,9.34098E1,4.6935406E0,4.5649193E1,2.9466017E1,6.791079E1,2.9236612E1,6.455835E1,6.9948096E0,2.6232471E1,4.3884344E0,6.754698E1,8.7448E1,9.964738E1,4.0616734E1,5.2793068E1,4.0464664E1,5.1845274E0,1.9156187E1,1.0309829E1,3.0164915E1,3.7745872E1,2.348414E1,5.752471E0,3.1814144E1,3.27442E1,9.428449E0,1.6804024E1,3.75967E0,6.378731E1,2.2226795E1,6.522121E1,8.313792E1,1.650946E1,1.7889076E1,2.2727655E1,2.927589E1,2.351718E1,6.3929014E0,1.2763286E1,4.230516E0,6.079313E0,1.251314E1,2.5232733E1,1.8704718E1,4.779424E0,1.6721567E1,1.5092576E1,1.988553E1,1.2858671E1,4.8143854E0,4.6140637E0,1.1845903E1,4.95812E0,5.134451E0,5.865286E1,9.821562E0,1.2405233E1,2.464081E1,4.0580395E1,4.8524536E1,3.4613384E1,1.2484632E1,4.0248294E0,8.000696E0,9.88838E0,4.564986E0,1.816267E1,3.6354759E0,2.5640413E1,1.4344242E1,9.172937E0],"tree_param":{"num_deleted":"0","num_feature":"37","num_nodes":"83","size_leaf_vector":"1"}},{"base_weights":[1.5066444E-2,-1.3375874E0,1.3773648E-2,-1.3588222E-2,-1.6312217E-3],"categories":[],"categories_nodes":[],"categories_segments":[],"categories_sizes":[],"default_left":[0,0,0,0,0],"id":65,"left_children":[1,3,-1,-1,-1],"loss_changes":[1.1728662E3,7.7435303E0,0E0,0E0,0E0],"parents":[2147483647,0,0,1,1],"right_children":[2,4,-1,-1,-1],"split_conditions":[1.5788242E-2,7.775647E-3,1.3773648E-2,-1.3588222E-2,-1.6312217E-3],"split_indices":[0,0,0,0,0],"split_type":[0,0,0,0,0],"sum_hessian":[6.3448724E2,3.1837973E2,3.1610754E2,3.1257132E2,5.808402E0],"tree_param":{"num_deleted":"0","num_feature":"37","num_nodes":"5","size_leaf_vector":"1"}},{"base_weights":[1.4335072E-3,-1.3410145E0,1.3719158E-2,-1.35361E-2,-5.283178E-3],"categories":[],"categories_nodes":[],"categories_segments":[],"categories_sizes":[],"default_left":[0,0,0,0,0],"id":66,"left_children":[1,3,-1,-1,-1],"loss_changes":[1.1686678E3,2.56958E0,0E0,0E0,0E0],"parents":[2147483647,0,0,1,1],"right_children":[2,4,-1,-1,-1],"split_conditions":[1.5788242E-2,4.6733445E-3,1.3719158E-2,-1.35361E-2,-5.283178E-3],"split_indices":[0,0,0,0,0],"split_type":[0,0,0,0,0],"sum_hessian":[6.3321423E2,3.1988968E2,3.1332455E2,3.143521E2,5.537546E0],"tree_param":{"num_deleted":"0","num_feature":"37","num_nodes":"5","size_leaf_vector":"1"}},{"base_weights":[1.4991092E-2,-1.3339016E0,1.36709595E-2,-1.3488923E-2,-5.1014745E-1,-7.97165E-3,-1.0144135E-3],"categories":[],"categories_nodes":[],"categories_segments":[],"categories_sizes":[],"default_left":[0,0,0,0,0,0,0],"id":67,"left_children":[1,3,-1,-1,5,-1,-1],"loss_changes":[1.1525376E3,3.2183228E0,0E0,0E0,7.710272E-1,0E0,0E0],"parents":[2147483647,0,0,1,1,4,4],"right_children":[2,4,-1,-1,6,-1,-1],"split_conditions":[1.5788242E-2,7.775647E-3,1.36709595E-2,-1.3488923E-2,0E0,-7.97165E-3,-1.0144135E-3],"split_indices":[0,0,0,0,32,0,0],"split_type":[0,0,0,0,0,0,0],"sum_hessian":[6.2992773E2,3.1534518E2,3.1458255E2,3.09083E2,6.262151E0,3.1203768E0,3.141774E0],"tree_param":{"num_deleted":"0","num_feature":"37","num_nodes":"7","size_leaf_vector":"1"}},{"base_weights":[-1.3866015E-2,-1.3283508E0,1.3618711E-2,-1.3437435E-2,-4.158054E-3],"categories":[],"categories_nodes":[],"categories_segments":[],"categories_sizes":[],"default_left":[0,0,0,0,0],"id":68,"left_children":[1,3,-1,-1,-1],"loss_changes":[1.1323466E3,3.9390259E0,0E0,0E0,0E0],"parents":[2147483647,0,0,1,1],"right_children":[2,4,-1,-1,-1],"split_conditions":[1.5788242E-2,7.775647E-3,1.3618711E-2,-1.3437435E-2,-4.158054E-3],"split_indices":[0,0,0,0,0],"split_type":[0,0,0,0,0],"sum_hessian":[6.2416394E2,3.1920526E2,3.049587E2,3.1344556E2,5.759701E0],"tree_param":{"num_deleted":"0","num_feature":"37","num_nodes":"5","size_leaf_vector":"1"}},{"base_weights":[9.821393E-3,-1.2053756E0,1.2581841E0,-1.2972292E0,1.2340282E-1,-1.2850955E-1,1.3208612E0,-1.3153843E0,-7.269984E-1,-9.451153E-1,9.054168E-1,-1.0719257E-2,7.103884E-1,6.407914E-1,1.3378047E-2,-1.3323972E-2,-9.5841974E-1,-1.18627595E-2,2.8023534E-3,-1.141244E-2,-3.99571E-3,4.8997644E-3,1.1788458E-2,5.883895E-4,1.1015253E-2,3.8030982E-4,1.1777041E-2,-1.3034639E-2,3.6539037E-3],"categories":[],"categories_nodes":[],"categories_segments":[],"categories_sizes":[],"default_left":[0,0,0,0,0,0,0,0,0,0,0,0,0,0,0,0,0,0,0,0,0,0,0,0,0,0,0,0,0],"id":69,"left_children":[1,3,5,7,9,11,13,15,17,19,21,-1,23,25,-1,-1,27,-1,-1,-1,-1,-1,-1,-1,-1,-1,-1,-1,-1],"loss_changes":[9.366842E2,3.834903E1,2.664087E1,2.074463E0,1.8523151E1,1.1906528E1,2.5014343E0,4.3844604E-1,5.545216E0,5.523615E-1,8.6721325E-1,0E0,1.9880686E0,2.8695037E0,0E0,0E0,7.973399E0,0E0,0E0,0E0,0E0,0E0,0E0,0E0,0E0,0E0,0E0,0E0,0E0],"parents":[2147483647,0,0,1,1,2,2,3,3,4,4,5,5,6,6,7,7,8,8,9,9,10,10,12,12,13,13,16,16],"right_children":[2,4,6,8,10,12,14,16,18,20,22,-1,24,26,-1,-1,28,-1,-1,-1,-1,-1,-1,-1,-1,-1,-1,-1,-1],"split_conditions":[2.0849565E-2,1.9495474E1,-1.8971054E1,4.2172117E0,-1.3209453E0,1.0169631E0,4.175482E-2,-2.3466298E-2,-2.892155E-1,-2.0094337E-1,3.748275E1,-1.0719257E-2,-5.5230076E1,-2.6624287E-2,1.3378047E-2,-1.3323972E-2,1.6034819E-1,-1.18627595E-2,2.8023534E-3,-1.141244E-2,-3.99571E-3,4.8997644E-3,1.1788458E-2,5.883895E-4,1.1015253E-2,3.8030982E-4,1.1777041E-2,-1.3034639E-2,3.6539037E-3],"split_indices":[3,1,1,1,3,3,3,3,3,16,1,0,1,9,0,0,1,0,0,0,0,0,0,0,0,0,0,0,0],"split_type":[0,0,0,0,0,0,0,0,0,0,0,0,0,0,0,0,0,0,0,0,0,0,0,0,0,0,0,0,0],"sum_hessian":[6.154559E2,3.1188818E2,3.0356766E2,2.917447E2,2.0143505E1,1.3082163E1,2.904855E2,2.8147623E2,1.0268443E1,8.424279E0,1.1719225E1,6.026756E0,7.055407E0,8.00502E0,2.824805E2,2.66063E2,1.541324E1,6.9305162E0,3.337927E0,5.393371E0,3.0309086E0,5.7598467E0,5.9593782E0,3.0782084E0,3.9771986E0,4.2757354E0,3.7292845E0,1.2238666E1,3.174575E0],"tree_param":{"num_deleted":"0","num_feature":"37","num_nodes":"29","size_leaf_vector":"1"}},{"base_weights":[-2.1376815E-2,-1.3151491E0,1.3522374E-2,-1.3355968E-2,-2.8881773E-1,3.3500018E-3,-8.198124E-3],"categories":[],"categories_nodes":[],"categories_segments":[],"categories_sizes":[],"default_left":[0,0,0,0,0,0,0],"id":70,"left_children":[1,3,-1,-1,5,-1,-1],"loss_changes":[1.0992523E3,6.298767E0,0E0,0E0,2.7582839E0,0E0,0E0],"parents":[2147483647,0,0,1,1,4,4],"right_children":[2,4,-1,-1,6,-1,-1],"split_conditions":[1.5788242E-2,7.775647E-3,1.3522374E-2,-1.3355968E-2,0E0,3.3500018E-3,-8.198124E-3],"split_indices":[0,0,0,0,31,0,0],"split_type":[0,0,0,0,0,0,0],"sum_hessian":[6.1654926E2,3.1752402E2,2.9902524E2,3.110261E2,6.4979367E0,3.157538E0,3.340399E0],"tree_param":{"num_deleted":"0","num_feature":"37","num_nodes":"7","size_leaf_vector":"1"}},{"base_weights":[-1.7848864E-2,-1.3123354E0,1.3475258E-2,-1.3304123E-2,-3.6480752E-1,-7.567414E-3,1.0737006E-3],"categories":[],"categories_nodes":[],"categories_segments":[],"categories_sizes":[],"default_left":[0,0,0,0,0,0,0],"id":71,"left_children":[1,3,-1,-1,5,-1,-1],"loss_changes":[1.0777632E3,4.8759766E0,0E0,0E0,1.4206554E0,0E0,0E0],"parents":[2147483647,0,0,1,1,4,4],"right_children":[2,4,-1,-1,6,-1,-1],"split_conditions":[1.5788242E-2,7.775647E-3,1.3475258E-2,-1.3304123E-2,-1.9328964E-1,-7.567414E-3,1.0737006E-3],"split_indices":[0,0,0,0,20,0,0],"split_type":[0,0,0,0,0,0,0],"sum_hessian":[6.077806E2,3.1200922E2,2.9577133E2,3.0577164E2,6.237581E0,3.0790958E0,3.158485E0],"tree_param":{"num_deleted":"0","num_feature":"37","num_nodes":"7","size_leaf_vector":"1"}},{"base_weights":[-9.496568E-3,-1.3096488E0,1.3430715E-2,-1.3262498E-2,-2.4942853E-3],"categories":[],"categories_nodes":[],"categories_segments":[],"categories_sizes":[],"default_left":[0,0,0,0,0],"id":72,"left_children":[1,3,-1,-1,-1],"loss_changes":[1.0699227E3,5.1291504E0,0E0,0E0,0E0],"parents":[2147483647,0,0,1,1],"right_children":[2,4,-1,-1,-1],"split_conditions":[1.5788242E-2,7.775647E-3,1.3430715E-2,-1.3262498E-2,-2.4942853E-3],"split_indices":[0,0,0,0,0],"split_type":[0,0,0,0,0],"sum_hessian":[6.0641364E2,3.0921414E2,2.971995E2,3.042E2,5.014144E0],"tree_param":{"num_deleted":"0","num_feature":"37","num_nodes":"5","size_leaf_vector":"1"}},{"base_weights":[-2.1294903E-2,-1.3083044E0,1.3382722E-2,-1.3220627E-2,-3.645286E-3],"categories":[],"categories_nodes":[],"categories_segments":[],"categories_sizes":[],"default_left":[0,0,0,0,0],"id":73,"left_children":[1,3,-1,-1,-1],"loss_changes":[1.0454318E3,3.503296E0,0E0,0E0,0E0],"parents":[2147483647,0,0,1,1],"right_children":[2,4,-1,-1,-1],"split_conditions":[1.5788242E-2,7.775647E-3,1.3382722E-2,-1.3220627E-2,-3.645286E-3],"split_indices":[0,0,0,0,0],"split_type":[0,0,0,0,0],"sum_hessian":[5.9546545E2,3.0591464E2,2.8955084E2,3.0112405E2,4.790593E0],"tree_param":{"num_deleted":"0","num_feature":"37","num_nodes":"5","size_leaf_vector":"1"}},{"base_weights":[6.1170245E-3,-1.2979441E0,1.3336359E-2,-1.3177017E-2,-1.117588E-3],"categories":[],"categories_nodes":[],"categories_segments":[],"categories_sizes":[],"default_left":[0,0,0,0,0],"id":74,"left_children":[1,3,-1,-1,-1],"loss_changes":[1.0377068E3,6.939575E0,0E0,0E0,0E0],"parents":[2147483647,0,0,1,1],"right_children":[2,4,-1,-1,-1],"split_conditions":[1.5788242E-2,7.775647E-3,1.3336359E-2,-1.3177017E-2,-1.117588E-3],"split_indices":[0,0,0,0,0],"split_type":[0,0,0,0,0],"sum_hessian":[5.9742676E2,3.0138733E2,2.9603943E2,2.9634045E2,5.0468516E0],"tree_param":{"num_deleted":"0","num_feature":"37","num_nodes":"5","size_leaf_vector":"1"}},{"base_weights":[-1.208052E-2,-4.3115407E-1,3.4440956E-1,-2.0502928E-1,-8.448789E-1,2.3146817E-1,1.0095366E0,-6.871751E-1,3.2861042E-1,-4.7966874E-1,-1.0335315E0,8.151374E-1,1.0293764E-2,6.535777E-1,1.2341777E-2,-1.6547686E-1,-9.6875125E-1,8.539102E-1,7.5033054E-2,-1.5680084E-1,-9.852408E-1,1.4036846E-3,-1.1016567E0,9.820135E-1,2.8808603E-1,-3.7043545E-1,2.4373113E-1,9.617104E-1,-1.0633128E-3,-7.5629514E-1,9.682065E-2,-1.2115999E-2,-6.0850793E-1,9.950157E-1,2.9047844E-3,-1.0904729E-2,1.8754195E-1,4.847698E-1,-4.6404615E-1,-5.008461E-3,-1.0834469E-2,-6.076027E-1,-1.1593516E0,3.8892472E-1,1.0971591E0,6.228122E-1,-3.8350433E-1,2.1376032E-1,-6.1868083E-1,5.588483E-1,-3.0227515E-1,1.0917968E-2,3.6006293E-3,